tree
version=v4
num_class=1
num_tree_per_iteration=1
label_index=0
max_feature_idx=48
objective=binary sigmoid:1
feature_names=Sex Age_at_diagnosis Binary_diagnosis Final_diagnosis TOBACCO Comorbidities Pathology_Pattern_Binary Multidsciplinary_committee Pirfenidone Nintedanib Antifibrotic_Drug Prednisone Mycophenolate Extrapulmonary_affectation Associated_lung_cancer Other_cancer Blood_count_abnormality_at_diagnosis Anemia Thrombocytopenia Thrombocytosis Lymphocytosis Lymphopenia Neutrophilia Neutropenia Leukocytosis Leukopenia Hematologic_Disease Liver_abnormality LDH ALT AST ALP GGT Transaminitis Cholestasis Liver_disease FVC_(L)_at_diagnosis FVC_(%)_at_diagnosis DLCO_(%)_at_diagnosis FVC_(L)_1_year_after_diagnosis FVC_(%)_1_year_after_diagnosis DLCO_(%)_1_year_after_diagnosis RadioWorsening2y Type_of_family_history 1st_degree_relative 2nd_degree_relative More_than_1_relative Genetic_mutation_studied_in_patient Severity_of_telomere_shortening
feature_infos=[0:1] [36:92] [0:1] [1:18] [0:2] [0:1] [0:1] [0:1] [0:1] [0:1] [0:1] [0:1] [0:1] [0:1] none [0:1] [0:1] none none none none none none none none none none [0:1] [0:1] none none none [0:1] [0:1] [0:1] none [0.85999999999999999:5.6500000000000004] [34:150] [18.899999999999999:145] [0.69999999999999996:5.8499999999999996] [28:143] [-9:118.59999999999999] [0:3] [0:1] [0:1] none [0:1] [0:1] [0:6]
tree_sizes=444 432 563 557 432 432 431 431 558 559 557 559 557 557 646 557 433 433 432 536 530 537 534 535 537 553 543 538 434 434 540 519 538 516 513 515 662 660 662 639 534 628 654 533 533 534 534 535 538 537 538 537 626 623 624 622 539 536 435 539 519 519 518 517 628 657 627 620 513 514 515 515 540 540 542 539 543 651 652 652 540 540 657 659 642 540 649 649 740 742 730 731 628 625 626 620 518 518 516 519 526 525 525 522 517 544 519 517 621 624 620 621 697 697 625 625 616 615 632 632 522 522 621 622 717 616 630 514 624 624 600 623 713 718 715 722 521 519 525 520 642 826 735 731 714 714 713 696 827 715 712 711 623 622 622 623 519 605 606 606 725 724 723 724 621 727 624 624 731 732 726 729 542 538 539 538 522 523 524 613 619 622 619 618 642 645 644 644 643 718 718 645 745 743 741 746 641 641 642 646 624 623 716 621 842 633 632 630 748 751 749 648

Tree=0
num_leaves=3
num_cat=0
split_feature=41 40
split_gain=61.0024 7.3432
threshold=42.350000000000009 79.800000000000011
decision_type=2 2
left_child=-1 -2
right_child=1 -3
leaf_value=-0.96729167549042594 -1.0079579203999789 -1.029184736757055
leaf_weight=9.2067260891199094 6.8560726195573833 16.650462076067924
leaf_count=47 35 85
internal_value=-1.00796 -1.02264
internal_weight=0 23.5065
internal_count=167 120
is_linear=0
shrinkage=1


Tree=1
num_leaves=3
num_cat=0
split_feature=41 40
split_gain=58.1519 7.20748
threshold=42.350000000000009 79.800000000000011
decision_type=2 2
left_child=-1 -2
right_child=1 -3
leaf_value=0.039248659667927621 0 -0.021046607153132856
leaf_weight=9.3795133680105192 6.8560726195573833 16.485387533903122
leaf_count=47 35 85
internal_value=0 -0.014508
internal_weight=0 23.3415
internal_count=167 120
is_linear=0
shrinkage=0.0186989


Tree=2
num_leaves=4
num_cat=0
split_feature=41 42 27
split_gain=55.4889 2.11707 2.58918
threshold=42.350000000000009 1.0000000180025095e-35 1.0000000180025095e-35
decision_type=2 2 2
left_child=-1 2 -2
right_child=1 -3 -4
leaf_value=0.03792510012847717 -0.022480400196623951 -0.0006337080228782069 -0.00029529860555692605
leaf_weight=9.5433788299560529 12.342731624841695 6.2024197131395331 4.63143566250801
leaf_count=47 64 32 24
internal_value=0 -0.0143369 -0.017897
internal_weight=0 23.1766 16.9742
internal_count=167 120 88
is_linear=0
shrinkage=0.0186989


Tree=3
num_leaves=4
num_cat=0
split_feature=40 38 42
split_gain=42.9674 7.78619 3.08761
threshold=71.600000000000009 49.100000000000009 1.0000000180025095e-35
decision_type=2 2 2
left_child=2 -2 -1
right_child=1 -3 -4
leaf_value=0.007702467046877149 0.0042389518522997034 -0.01999729401251376 0.038403255384957674
leaf_weight=4.2142987400293332 4.1661664843559292 17.220955803990364 7.1382177621126175
leaf_count=21 21 90 35
internal_value=0 -0.0142768 0.0297715
internal_weight=0 21.3871 11.3525
internal_count=167 111 56
is_linear=0
shrinkage=0.0186989


Tree=4
num_leaves=3
num_cat=0
split_feature=41 40
split_gain=57.5097 5.37661
threshold=42.350000000000009 79.800000000000011
decision_type=2 2
left_child=-1 -2
right_child=1 -3
leaf_value=0.038419308243465011 0 -0.020709120527422333
leaf_weight=9.3926265090703982 5.856564640998843 16.450820431113243
leaf_count=45 30 87
internal_value=0 -0.0153896
internal_weight=0 22.3074
internal_count=162 117
is_linear=0
shrinkage=0.0186989


Tree=5
num_leaves=3
num_cat=0
split_feature=41 40
split_gain=55.0061 5.27597
threshold=42.350000000000009 79.800000000000011
decision_type=2 2
left_child=-1 -2
right_child=1 -3
leaf_value=0.037195252737050967 0 -0.020540148370451563
leaf_weight=9.5374167710542697 5.856564640998843 16.282221868634224
leaf_count=45 30 87
internal_value=0 -0.0152247
internal_weight=0 22.1388
internal_count=162 117
is_linear=0
shrinkage=0.0186989


Tree=6
num_leaves=3
num_cat=0
split_feature=41 40
split_gain=52.655 5.17781
threshold=42.350000000000009 79.800000000000011
decision_type=2 2
left_child=-1 -2
right_child=1 -3
leaf_value=0.036046440792672912 0 -0.020374094521734783
leaf_weight=9.6739532798528689 5.856564640998843 16.114150136709213
leaf_count=45 30 87
internal_value=0 -0.0150622
internal_weight=0 21.9707
internal_count=162 117
is_linear=0
shrinkage=0.0186989


Tree=7
num_leaves=3
num_cat=0
split_feature=41 40
split_gain=50.4429 5.08202
threshold=42.350000000000009 79.800000000000011
decision_type=2 2
left_child=-1 -2
right_child=1 -3
leaf_value=0.034965831789442674 0 -0.020210831356486082
leaf_weight=9.8025740683078784 5.856564640998843 15.94668899476528
leaf_count=45 30 87
internal_value=0 -0.0149019
internal_weight=0 21.8033
internal_count=162 117
is_linear=0
shrinkage=0.0186989


Tree=8
num_leaves=4
num_cat=0
split_feature=41 40 42
split_gain=40.2389 1.97879 1.64856
threshold=48.050000000000004 79.800000000000011 1.0000000180025095e-35
decision_type=2 2 2
left_child=2 -2 -1
right_child=1 -3 -4
leaf_value=0.0084163333130030885 -0.0015513072616808031 -0.019947984615862883 0.034895891377635789
leaf_weight=4.4887093603610975 5.6564051210880306 15.41694627702236 6.5125371515750885
leaf_count=21 29 85 30
internal_value=0 -0.016205 0.0269467
internal_weight=0 21.0734 11.0012
internal_count=165 114 51
is_linear=0
shrinkage=0.0186989


Tree=9
num_leaves=4
num_cat=0
split_feature=41 40 42
split_gain=38.8722 1.92923 1.44973
threshold=48.050000000000004 79.800000000000011 1.0000000180025095e-35
decision_type=2 2 2
left_child=2 -2 -1
right_child=1 -3 -4
leaf_value=0.0082532107399521798 -0.0015259416640437981 -0.019789835796923914 0.033908667318811196
leaf_weight=4.5028137713670713 5.6522919982671764 15.255579426884649 6.5924204140901566
leaf_count=21 29 85 30
internal_value=0 -0.0160558 0.026302
internal_weight=0 20.9079 11.0952
internal_count=165 114 51
is_linear=0
shrinkage=0.0186989


Tree=10
num_leaves=4
num_cat=0
split_feature=41 40 40
split_gain=37.5664 1.88096 1.33795
threshold=48.050000000000004 79.800000000000011 63.000000000000007
decision_type=2 2 2
left_child=2 -2 -1
right_child=1 -3 -4
leaf_value=0.033751583086860999 -0.0015009763797378362 -0.019634102703562202 0.0089481236686631098
leaf_weight=6.2662051022052783 5.6482439488172558 15.095029726624487 4.9179238826036453
leaf_count=28 29 85 23
internal_value=0 -0.0159087 0.0256858
internal_weight=0 20.7433 11.1841
internal_count=165 114 51
is_linear=0
shrinkage=0.0186989


Tree=11
num_leaves=4
num_cat=0
split_feature=41 40 42
split_gain=36.3219 1.83394 1.27961
threshold=48.050000000000004 79.800000000000011 1.0000000180025095e-35
decision_type=2 2 2
left_child=2 -2 -1
right_child=1 -3 -4
leaf_value=0.0077391044286298227 -0.0014764074282457994 -0.01948068123724676 0.032290830565158309
leaf_weight=4.5464895814657229 5.644259765744212 14.935360223054884 6.7206675708293915
leaf_count=21 29 85 30
internal_value=0 -0.0157636 0.0250997
internal_weight=0 20.5796 11.2672
internal_count=165 114 51
is_linear=0
shrinkage=0.0186989


Tree=12
num_leaves=4
num_cat=0
split_feature=41 40 41
split_gain=34.3616 1.99164 0.418013
threshold=43.500000000000007 79.800000000000011 31.000000000000004
decision_type=2 2 2
left_child=2 -2 -1
right_child=1 -3 -4
leaf_value=0.032645171407650261 -0.00076544047485951189 -0.019260599521736133 0.010209987904496579
leaf_weight=5.7147894799709338 5.4594969302415874 14.466293424367903 5.1109408736228943
leaf_count=25 28 83 23
internal_value=0 -0.015437 0.0250303
internal_weight=0 19.9258 10.8257
internal_count=159 111 48
is_linear=0
shrinkage=0.0186989


Tree=13
num_leaves=4
num_cat=0
split_feature=41 40 40
split_gain=33.2476 1.94151 0.344348
threshold=43.500000000000007 79.800000000000011 56.300000000000004
decision_type=2 2 2
left_child=2 -2 -1
right_child=1 -3 -4
leaf_value=0.031865757484592971 -0.0007527117058149991 -0.019110769611881323 0.0099655275224660913
leaf_weight=5.7649211734533328 5.457537233829501 14.312939047813414 5.1309774070978165
leaf_count=25 28 83 23
internal_value=0 -0.0152962 0.0244859
internal_weight=0 19.7705 10.8959
internal_count=159 111 48
is_linear=0
shrinkage=0.0186989


Tree=14
num_leaves=5
num_cat=0
split_feature=41 42 41 41
split_gain=32.1794 1.93853 0.332908 0.00814484
threshold=43.500000000000007 1.0000000180025095e-35 31.000000000000004 56.500000000000007
decision_type=2 2 2 2
left_child=2 3 -1 -2
right_child=1 -3 -4 -5
leaf_value=0.031202291585726637 -0.0040622531450217117 0 0.0096602592941671967 -0.021070860550208896
leaf_weight=5.806205481290819 3.9430313706398037 4.4283963590860358 5.1558280289173126 11.244775742292402
leaf_count=25 22 24 23 65
internal_value=0 -0.0151572 0.0239629 -0.0183676
internal_weight=0 19.6162 10.962 15.1878
internal_count=159 111 48 87
is_linear=0
shrinkage=0.0186989


Tree=15
num_leaves=4
num_cat=0
split_feature=41 40 40
split_gain=31.1765 1.90313 0.269526
threshold=43.500000000000007 79.800000000000011 56.300000000000004
decision_type=2 2 2
left_child=2 -2 -1
right_child=1 -3 -4
leaf_value=0.030488304449187788 -0.0006116329379609566 -0.018849670854211843 0.0094320637687261705
leaf_weight=5.850335359573366 5.4354993402957943 14.041235268115996 5.1740996837615967
leaf_count=25 28 83 23
internal_value=0 -0.0150279 0.0234598
internal_weight=0 19.4767 11.0244
internal_count=159 111 48
is_linear=0
shrinkage=0.0186989


Tree=16
num_leaves=3
num_cat=0
split_feature=41 40
split_gain=35.2445 5.57456
threshold=42.350000000000009 79.800000000000011
decision_type=2 2
left_child=-1 -2
right_child=1 -3
leaf_value=0.02682819324513817 0 -0.021295125606727743
leaf_weight=10.247095510363581 6.8085319548845318 13.754197031259535
leaf_count=44 35 82
internal_value=0 -0.0146649
internal_weight=0 20.5627
internal_count=161 117
is_linear=0
shrinkage=0.0186989


Tree=17
num_leaves=3
num_cat=0
split_feature=41 40
split_gain=33.9707 5.48203
threshold=42.350000000000009 79.800000000000011
decision_type=2 2
left_child=-1 -2
right_child=1 -3
leaf_value=0.02618271649049737 0 -0.021162954814625993
leaf_weight=10.316573753952982 6.8085319548845318 13.586392536759375
leaf_count=44 35 82
internal_value=0 -0.0145226
internal_weight=0 20.3949
internal_count=161 117
is_linear=0
shrinkage=0.0186989


Tree=18
num_leaves=3
num_cat=0
split_feature=41 40
split_gain=32.7545 5.39157
threshold=42.350000000000009 79.800000000000011
decision_type=2 2
left_child=-1 -2
right_child=1 -3
leaf_value=0.025564477074960987 0 -0.02103314917775722
leaf_weight=10.381464436650278 6.8085319548845318 13.419660508632658
leaf_count=44 35 82
internal_value=0 -0.014382
internal_weight=0 20.2282
internal_count=161 117
is_linear=0
shrinkage=0.0186989


Tree=19
num_leaves=4
num_cat=0
split_feature=41 40 41
split_gain=31.5934 4.35541 0.326412
threshold=43.500000000000007 79.800000000000011 31.000000000000004
decision_type=2 2 2
left_child=2 -2 -1
right_child=1 -3 -4
leaf_value=0.030912526823909971 0 -0.020846523449150695 0.0094402906868943735
leaf_weight=5.9902000874280947 6.3955421745777157 13.063589960336683 5.055218517780304
leaf_count=25 33 81 22
internal_value=0 -0.0148222 0.0239316
internal_weight=0 19.4591 11.0454
internal_count=161 114 47
is_linear=0
shrinkage=0.0186989


Tree=20
num_leaves=4
num_cat=0
split_feature=41 1 40
split_gain=30.1267 2.2534 1.87611
threshold=48.050000000000004 63.500000000000007 63.000000000000007
decision_type=2 2 2
left_child=2 -2 -1
right_child=1 -3 -4
leaf_value=0.028536108487398633 0 -0.018542861219554976 0.005109467986487131
leaf_weight=8.1271948814392108 5.4886799752712276 13.285388290882109 4.814582183957099
leaf_count=34 32 80 22
internal_value=0 -0.014335 0.022041
internal_weight=0 18.7741 12.9418
internal_count=168 112 56
is_linear=0
shrinkage=0.0186989


Tree=21
num_leaves=4
num_cat=0
split_feature=41 1 9
split_gain=29.1624 2.19874 1.74848
threshold=48.050000000000004 63.500000000000007 1.0000000180025095e-35
decision_type=2 2 2
left_child=2 -2 -1
right_child=1 -3 -4
leaf_value=0.027779543612272004 0 -0.018399351117986604 0.0047810362393269235
leaf_weight=8.2696892470121401 5.4886799752712276 13.144365057349203 4.7251719087362281
leaf_count=35 32 80 21
internal_value=0 -0.0142016 0.0215999
internal_weight=0 18.633 12.9949
internal_count=168 112 56
is_linear=0
shrinkage=0.0186989


Tree=22
num_leaves=4
num_cat=0
split_feature=41 1 40
split_gain=28.2296 2.14532 1.74259
threshold=48.050000000000004 63.500000000000007 63.000000000000007
decision_type=2 2 2
left_child=2 -2 -1
right_child=1 -3 -4
leaf_value=0.027410666654265625 0 -0.018257525897912061 0.0047378055021132784
leaf_weight=8.2035710811615008 5.4886799752712276 13.004462793469427 4.8450609296560279
leaf_count=34 32 80 22
internal_value=0 -0.0140698 0.021167
internal_weight=0 18.4931 13.0486
internal_count=168 112 56
is_linear=0
shrinkage=0.0186989


Tree=23
num_leaves=4
num_cat=0
split_feature=40 42 1
split_gain=24.0109 7.93879 0.467954
threshold=83.500000000000014 1.0000000180025095e-35 67.500000000000014
decision_type=2 2 2
left_child=1 -1 -3
right_child=-2 2 -4
leaf_value=0 -0.018306125650404466 0.031743304671556428 0.009386318415819779
leaf_weight=7.7449415773153349 13.067614451050757 5.6702831834554672 4.9657430797815323
leaf_count=39 82 25 22
internal_value=0 0.0142151 0.0242837
internal_weight=0 18.381 10.636
internal_count=168 86 47
is_linear=0
shrinkage=0.0186989


Tree=24
num_leaves=4
num_cat=0
split_feature=41 1 42
split_gain=26.6937 2.40736 1.30767
threshold=49.400000000000006 67.500000000000014 1.0000000180025095e-35
decision_type=2 2 2
left_child=1 -1 -2
right_child=2 -3 -4
leaf_value=0.03096395621416843 -0.017896797989829464 0.0078334858445443627 0
leaf_weight=5.657465338706972 12.456829249858858 7.5959017425775528 3.7800222039222708
leaf_count=24 78 33 22
internal_value=0 0.0201729 -0.0148663
internal_weight=0 13.2534 16.2369
internal_count=157 57 100
is_linear=0
shrinkage=0.0186989


Tree=25
num_leaves=4
num_cat=0
split_feature=41 1 41
split_gain=25.8688 2.24696 0.541451
threshold=49.400000000000006 67.500000000000014 62.350000000000009
decision_type=2 2 2
left_child=1 -1 -2
right_child=2 -3 -4
leaf_value=0.030271833882899356 -0.0048618609450501015 0.0076838549417220349 -0.01949672676249917
leaf_weight=5.6911391466856021 7.1262679398059872 7.609836146235466 8.978218272328375
leaf_count=24 42 33 58
internal_value=0 0.0197863 -0.0147356
internal_weight=0 13.301 16.1045
internal_count=157 57 100
is_linear=0
shrinkage=0.0186989


Tree=26
num_leaves=4
num_cat=0
split_feature=41 42 42
split_gain=25.0864 2.01903 1.30589
threshold=49.400000000000006 1.0000000180025095e-35 1.0000000180025095e-35
decision_type=2 2 2
left_child=1 -1 -2
right_child=2 -3 -4
leaf_value=0.0041384661792316906 -0.017660841342846945 0.026193496560121262 0
leaf_weight=5.3882831037044543 12.224783942103384 7.9568362832069397 3.7531957328319541
leaf_count=24 78 33 22
internal_value=0 0.0194125 -0.0146125
internal_weight=0 13.3451 15.978
internal_count=157 57 100
is_linear=0
shrinkage=0.0186989


Tree=27
num_leaves=4
num_cat=0
split_feature=41 1 42
split_gain=24.3169 2.10381 1.2724
threshold=49.400000000000006 67.500000000000014 1.0000000180025095e-35
decision_type=2 2 2
left_child=1 -1 -2
right_child=2 -3 -4
leaf_value=0.029175894263748309 -0.017525292013916623 0.0072652309588318951 0
leaf_weight=5.7385510355234164 12.094554647803305 7.6434995830059052 3.7531957328319541
leaf_count=24 78 33 22
internal_value=0 0.0190511 -0.0144837
internal_weight=0 13.3821 15.8478
internal_count=157 57 100
is_linear=0
shrinkage=0.0186989


Tree=28
num_leaves=3
num_cat=0
split_feature=41 40
split_gain=26.9402 5.04129
threshold=46.640606226763943 79.800000000000011
decision_type=2 2
left_child=-1 -2
right_child=1 -3
leaf_value=0.023760220490901235 0 -0.018495630252667792
leaf_weight=12.016935184597971 5.1131648421287563 11.830576106905935
leaf_count=50 27 80
internal_value=0 -0.0118946
internal_weight=0 16.9437
internal_count=157 107
is_linear=0
shrinkage=0.0186989


Tree=29
num_leaves=3
num_cat=0
split_feature=41 40
split_gain=25.9466 4.96725
threshold=46.640606226763943 79.800000000000011
decision_type=2 2
left_child=-1 -2
right_child=1 -3
leaf_value=0.023252497158823611 0 -0.018374109460377003
leaf_weight=12.061565026640894 5.1131648421287563 11.691169306635855
leaf_count=50 27 80
internal_value=0 -0.0117559
internal_weight=0 16.8043
internal_count=157 107
is_linear=0
shrinkage=0.0186989


Tree=30
num_leaves=4
num_cat=0
split_feature=40 38 42
split_gain=25.1409 3.06511 2.20467
threshold=75.600000000000009 51.750000000000007 1.0000000180025095e-35
decision_type=2 2 2
left_child=2 -2 -1
right_child=1 -3 -4
leaf_value=0.0035250925401136722 0 -0.017161047002867226 0.027777654223780757
leaf_weight=4.4690790325403222 3.8309182524681082 11.893441587686537 8.5751546174287796
leaf_count=21 20 80 36
internal_value=0 -0.0126264 0.0215895
internal_weight=0 15.7244 13.0442
internal_count=157 100 57
is_linear=0
shrinkage=0.0186989


Tree=31
num_leaves=4
num_cat=0
split_feature=40 42 41
split_gain=24.4649 7.37607 1.05867
threshold=80.200000000000017 1.0000000180025095e-35 56.500000000000007
decision_type=2 2 2
left_child=1 -1 -2
right_child=2 -3 -4
leaf_value=0 0 0.028328607337978224 -0.019089406234481975
leaf_weight=6.2579523026943216 3.5935480147600165 9.4296255558729172 9.3963882625102979
leaf_count=31 20 40 66
internal_value=0 0.0182961 -0.0155069
internal_weight=0 15.6876 12.9899
internal_count=157 71 86
is_linear=0
shrinkage=0.0186989


Tree=32
num_leaves=4
num_cat=0
split_feature=40 41 40
split_gain=20.0486 2.32197 1.04967
threshold=74.500000000000014 41.150000000000006 83.500000000000014
decision_type=2 2 2
left_child=1 -1 -2
right_child=2 -3 -4
leaf_value=0.022008547501034786 -0.00032532364774959466 0 -0.017272205501158079
leaf_weight=8.9147820770740527 4.6247433722019222 4.2063389718532553 11.497648954391478
leaf_count=36 26 21 78
internal_value=0 0.0166176 -0.0139166
internal_weight=0 13.1211 16.1224
internal_count=161 57 104
is_linear=0
shrinkage=0.0186989


Tree=33
num_leaves=4
num_cat=0
split_feature=40 41 38
split_gain=19.4648 2.20233 1.78975
threshold=74.500000000000014 41.150000000000006 50.500000000000007
decision_type=2 2 2
left_child=1 -1 -2
right_child=2 -3 -4
leaf_value=0.021590544960774803 0 0 -0.017196274409043037
leaf_weight=8.9282077550888079 3.7868135273456565 4.2063389718532553 12.212466567754744
leaf_count=36 20 21 84
internal_value=0 0.0163333 -0.0137954
internal_weight=0 13.1345 15.9993
internal_count=161 57 104
is_linear=0
shrinkage=0.0186989


Tree=34
num_leaves=4
num_cat=0
split_feature=40 41 38
split_gain=18.8877 2.08899 2.0355
threshold=74.500000000000014 41.150000000000006 49.100000000000009
decision_type=2 2 2
left_child=1 -1 -2
right_child=2 -3 -4
leaf_value=0.021185680014235882 0 0 -0.017173735085208985
leaf_weight=8.9393270909786242 3.6063087880611411 4.2063389718532553 12.259199216961859
leaf_count=36 19 21 85
internal_value=0 0.0160569 -0.01367
internal_weight=0 13.1457 15.8655
internal_count=161 57 104
is_linear=0
shrinkage=0.0186989


Tree=35
num_leaves=4
num_cat=0
split_feature=40 38 41
split_gain=18.3251 1.99851 1.98152
threshold=74.500000000000014 49.100000000000009 41.150000000000006
decision_type=2 2 2
left_child=2 -2 -1
right_child=1 -3 -4
leaf_value=0.020793249775768449 0 -0.017047587432167451 0
leaf_weight=8.9482530057430285 3.6063087880611411 12.12441512942314 4.2063389718532553
leaf_count=36 19 85 21
internal_value=0 -0.0135427 0.0157881
internal_weight=0 15.7307 13.1546
internal_count=161 104 57
is_linear=0
shrinkage=0.0186989


Tree=36
num_leaves=5
num_cat=0
split_feature=40 38 1 42
split_gain=15.6378 5.38286 4.78726 0.224587
threshold=70.500000000000014 48.650000000000006 66.500000000000014 1.0000000180025095e-35
decision_type=2 2 2 2
left_child=2 -2 -1 -3
right_child=1 3 -4 -5
leaf_value=0.029098174973303022 0.0039661865271220917 -0.019366708136523515 0.0012399908449274198 -0.0020407805818198673
leaf_weight=5.2113341838121432 3.8700954020023373 10.410784453153608 6.4991435408592224 3.6211042255163184
leaf_count=22 19 75 28 22
internal_value=0 -0.0110197 0.0162118 -0.016668
internal_weight=0 17.902 11.7105 14.0319
internal_count=166 116 50 97
is_linear=0
shrinkage=0.0186989


Tree=37
num_leaves=5
num_cat=0
split_feature=40 38 1 40
split_gain=15.1723 5.29547 4.57386 0.247731
threshold=70.500000000000014 48.650000000000006 66.500000000000014 80.200000000000017
decision_type=2 2 2 2
left_child=2 -2 -1 -3
right_child=1 3 -4 -5
leaf_value=0.028545065698028216 0.0038967584108926261 -0.0016403917866636489 0.0012184131611414884 -0.019185301472106751
leaf_weight=5.2237527668476122 3.8753619641065624 3.4837363958358756 6.5005074292421341 10.411138027906416
leaf_count=22 19 20 28 77
internal_value=0 -0.0109027 0.0159503 -0.0165573
internal_weight=0 17.7702 11.7243 13.8949
internal_count=166 116 50 97
is_linear=0
shrinkage=0.0186989


Tree=38
num_leaves=5
num_cat=0
split_feature=40 38 1 42
split_gain=14.7231 5.21044 4.37214 0.241033
threshold=70.500000000000014 48.650000000000006 66.500000000000014 1.0000000180025095e-35
decision_type=2 2 2 2
left_child=2 -2 -1 -3
right_child=1 3 -4 -5
leaf_value=0.028012767434170492 0.0038286335450315066 -0.019175325353919699 0.0011972148856618755 -0.0018330766689287768
leaf_weight=5.2340641319751757 3.8805202841758755 10.166876420378683 6.50184366106987 3.5906623452901831
leaf_count=22 19 75 28 22
internal_value=0 -0.0107876 0.0156962 -0.0164495
internal_weight=0 17.6381 11.7359 13.7575
internal_count=166 116 50 97
is_linear=0
shrinkage=0.0186989


Tree=39
num_leaves=5
num_cat=0
split_feature=40 42 38 1
split_gain=14.3183 6.48357 2.61478 1.36893
threshold=79.800000000000011 1.0000000180025095e-35 53.250000000000007 65.500000000000014
decision_type=2 2 2 2
left_child=1 -1 -2 -3
right_child=2 3 -4 -5
leaf_value=-0.00021260967440908256 0 0.029123327002472516 -0.018863213765194325 0.005321319054220318
leaf_weight=6.1501360982656488 3.5424676537513724 5.1522378325462341 9.7556072771549207 4.654207244515419
leaf_count=30 20 22 74 20
internal_value=0 0.011669 -0.0141038 0.0208695
internal_weight=0 15.9566 13.2981 9.80645
internal_count=166 72 94 42
is_linear=0
shrinkage=0.0186989


Tree=40
num_leaves=4
num_cat=0
split_feature=41 40 1
split_gain=15.7367 2.2463 2.15389
threshold=49.400000000000006 63.000000000000007 63.500000000000007
decision_type=2 2 2
left_child=1 -1 -2
right_child=2 -3 -4
leaf_value=0.022136788941917108 0 0.00098165742634961808 -0.016155842629520266
leaf_weight=7.9019079357385653 4.9317034780979148 5.3031091839075089 10.508943073451517
leaf_count=32 31 24 76
internal_value=0 0.0156409 -0.0115548
internal_weight=0 13.205 15.4406
internal_count=163 56 107
is_linear=0
shrinkage=0.0186989


Tree=41
num_leaves=5
num_cat=0
split_feature=41 40 42 27
split_gain=15.2705 2.13449 2.01215 1.58892
threshold=49.400000000000006 63.000000000000007 1.0000000180025095e-35 1.0000000180025095e-35
decision_type=2 2 2 2
left_child=1 -1 3 -2
right_child=2 -3 -4 -5
leaf_value=0.021747885939632394 -0.018908872432117967 0.00096483048032530846 0 0
leaf_weight=7.9028567820787448 8.7728091105818731 5.3044979423284531 3.7794453650712958 2.7778425216674796
leaf_count=32 64 24 23 20
internal_value=0 0.0153936 -0.0114365 -0.0151554
internal_weight=0 13.2074 15.3301 11.5507
internal_count=163 56 107 84
is_linear=0
shrinkage=0.0186989


Tree=42
num_leaves=5
num_cat=0
split_feature=40 42 38 40
split_gain=13.2423 5.91145 0.253379 0.237056
threshold=83.500000000000014 1.0000000180025095e-35 57.500000000000007 68.500000000000014
decision_type=2 2 2 2
left_child=1 3 -2 -1
right_child=2 -3 -4 -5
leaf_value=0.001497537718305056 -0.00015528092643066034 0.020120878580298467 -0.017765887184736606 -0.0040131555247080453
leaf_weight=3.866983294487004 3.1550198495388013 9.8405589014291763 7.5994913876056671 3.9674158096313477
leaf_count=17 20 42 60 24
internal_value=0 0.0108443 -0.0148261 0
internal_weight=0 17.675 10.7545 7.8344
internal_count=163 83 80 41
is_linear=0
shrinkage=0.0186989


Tree=43
num_leaves=4
num_cat=0
split_feature=41 1 40
split_gain=14.4668 2.09381 2.01202
threshold=49.400000000000006 63.500000000000007 63.000000000000007
decision_type=2 2 2
left_child=2 -2 -1
right_child=1 -3 -4
leaf_value=0.021115364881706351 0 -0.01586927902973314 0.0008274748237100814
leaf_weight=7.8958769440650958 4.8977108299732199 10.23977632075548 5.3120012283325195
leaf_count=32 31 76 24
internal_value=0 -0.0112535 0.0149354
internal_weight=0 15.1375 13.2079
internal_count=163 107 56
is_linear=0
shrinkage=0.0186989


Tree=44
num_leaves=4
num_cat=0
split_feature=41 1 41
split_gain=13.4114 2.45049 0.964209
threshold=48.050000000000004 64.500000000000014 37.20000000000001
decision_type=2 2 2
left_child=2 -2 -1
right_child=1 -3 -4
leaf_value=0.018881458280677801 0 -0.016164032587433652 0.001474560380125044
leaf_weight=7.903436020016672 5.6750688850879696 10.357488013803957 4.9684567600488663
leaf_count=32 36 75 22
internal_value=0 -0.0109679 0.0141584
internal_weight=0 16.0326 12.8719
internal_count=165 111 54
is_linear=0
shrinkage=0.0186989


Tree=45
num_leaves=4
num_cat=0
split_feature=41 1 41
split_gain=13.0195 2.40133 0.901846
threshold=48.050000000000004 64.500000000000014 37.20000000000001
decision_type=2 2 2
left_child=2 -2 -1
right_child=1 -3 -4
leaf_value=0.018558961685731502 0 -0.016037482904515343 0.0014493704473953373
leaf_weight=7.9002191126346606 5.675068885087966 10.249471016228197 4.9700453728437424
leaf_count=32 36 75 22
internal_value=0 -0.0108508 0.0139422
internal_weight=0 15.9245 12.8703
internal_count=165 111 54
is_linear=0
shrinkage=0.0186989


Tree=46
num_leaves=4
num_cat=0
split_feature=41 1 36
split_gain=12.6403 2.35306 0.928362
threshold=48.050000000000004 64.500000000000014 2.5050000000000003
decision_type=2 2 2
left_child=2 -2 -1
right_child=1 -3 -4
leaf_value=0.0045528909113385224 0 -0.015911823538717024 0.02150567357659755
leaf_weight=7.6197145283222216 5.675068885087966 10.142693169414995 5.2476240247488022
leaf_count=32 36 75 22
internal_value=0 -0.0107349 0.0137311
internal_weight=0 15.8178 12.8673
internal_count=165 111 54
is_linear=0
shrinkage=0.0186989


Tree=47
num_leaves=4
num_cat=0
split_feature=41 1 41
split_gain=12.2714 2.30566 0.926224
threshold=48.050000000000004 64.500000000000014 27.100000000000005
decision_type=2 2 2
left_child=2 -2 -1
right_child=1 -3 -4
leaf_value=0.021728153979983334 0 -0.015787023726761797 0.0047333171019575317
leaf_weight=4.9197162687778491 5.675068885087966 10.037156932055948 7.9567836821079254
leaf_count=20 36 75 34
internal_value=0 -0.0106201 0.0135163
internal_weight=0 15.7122 12.8765
internal_count=165 111 54
is_linear=0
shrinkage=0.0186989


Tree=48
num_leaves=4
num_cat=0
split_feature=41 9 1
split_gain=14.8504 2.41077 2.19723
threshold=48.050000000000004 1.0000000180025095e-35 64.500000000000014
decision_type=2 2 2
left_child=1 -1 -2
right_child=2 -3 -4
leaf_value=0.02204318575598126 0 4.8350310071350914e-06 -0.015868522644063073
leaf_weight=7.7777214795351046 5.8234699964523342 4.8912011981010437 10.363686166703699
leaf_count=32 37 21 79
internal_value=0 0.0155747 -0.0108808
internal_weight=0 12.6689 16.1872
internal_count=169 53 116
is_linear=0
shrinkage=0.0186989


Tree=49
num_leaves=4
num_cat=0
split_feature=41 9 1
split_gain=14.4154 2.2945 2.15169
threshold=48.050000000000004 1.0000000180025095e-35 64.500000000000014
decision_type=2 2 2
left_child=1 -1 -2
right_child=2 -3 -4
leaf_value=0.02166269866439453 0 4.7540972990070291e-06 -0.015746687894530362
leaf_weight=7.7762295603752154 5.8234699964523342 4.8912045061588287 10.253967538475989
leaf_count=32 37 21 79
internal_value=0 0.0153341 -0.0107688
internal_weight=0 12.6674 16.0774
internal_count=169 53 116
is_linear=0
shrinkage=0.0186989


Tree=50
num_leaves=4
num_cat=0
split_feature=41 9 1
split_gain=13.9949 2.18383 2.10696
threshold=48.050000000000004 1.0000000180025095e-35 64.500000000000014
decision_type=2 2 2
left_child=1 -1 -2
right_child=2 -3 -4
leaf_value=0.021293088202718455 0 4.6742367237016215e-06 -0.015625609654057671
leaf_weight=7.7730684429407138 5.8234699964523307 4.8912077099084854 10.145578041672705
leaf_count=32 37 21 79
internal_value=0 0.0150996 -0.0106577
internal_weight=0 12.6643 15.969
internal_count=169 53 116
is_linear=0
shrinkage=0.0186989


Tree=51
num_leaves=4
num_cat=0
split_feature=41 40 9
split_gain=13.5884 2.11747 2.07842
threshold=48.050000000000004 83.500000000000014 1.0000000180025095e-35
decision_type=2 2 2
left_child=2 -2 -1
right_child=1 -3 -4
leaf_value=0.020933804595722506 0 -0.016266876885588321 4.5959601003028696e-06
leaf_weight=7.768327474594118 6.7209554612636557 9.1410311311483365 4.8912109285593033
leaf_count=32 39 77 21
internal_value=0 -0.0105476 0.014871
internal_weight=0 15.862 12.6595
internal_count=169 116 53
is_linear=0
shrinkage=0.0186989


Tree=52
num_leaves=5
num_cat=0
split_feature=41 27 42 1
split_gain=12.0539 1.84406 1.02831 0.715683
threshold=48.050000000000004 1.0000000180025095e-35 1.0000000180025095e-35 67.500000000000014
decision_type=2 2 2 2
left_child=3 2 -2 -1
right_child=1 -3 -4 -5
leaf_value=0.020696025953446436 -0.017956495625028348 0 0 0.0044428691997252323
leaf_weight=5.5114682316780108 7.854933023452757 4.0262051299214354 2.6975410804152489 7.2203838527202606
leaf_count=23 64 29 16 30
internal_value=0 -0.0106263 -0.0145545 0.0137268
internal_weight=0 14.5787 10.5525 12.7319
internal_count=162 109 80 53
is_linear=0
shrinkage=0.0186989


Tree=53
num_leaves=5
num_cat=0
split_feature=41 40 40 27
split_gain=11.7166 2.15627 0.804071 0.24522
threshold=48.050000000000004 77.800000000000011 63.000000000000007 1.0000000180025095e-35
decision_type=2 2 2 2
left_child=2 -2 -1 -3
right_child=1 3 -4 -5
leaf_value=0.017967484854520453 0 -0.017571537873149048 0.0012940119229821194 0
leaf_weight=7.8117901682853716 4.3907276242971411 7.550570994615553 4.9149780422449112 2.5392084345221519
leaf_count=32 24 64 21 21
internal_value=0 -0.0105214 0.0135265 -0.0150701
internal_weight=0 14.4805 12.7268 10.0898
internal_count=162 109 53 85
is_linear=0
shrinkage=0.0186989


Tree=54
num_leaves=5
num_cat=0
split_feature=41 40 40 27
split_gain=11.3957 2.12354 0.753267 0.232005
threshold=48.050000000000004 77.800000000000011 63.000000000000007 1.0000000180025095e-35
decision_type=2 2 2 2
left_child=2 -2 -1 -3
right_child=1 3 -4 -5
leaf_value=0.017688140178649444 0 -0.017471676131579402 0.0012720276988365457 0
leaf_weight=7.7958116531372088 4.3907276242971411 7.4558386355638486 4.9161390364170074 2.5392084345221519
leaf_count=32 24 64 21 21
internal_value=0 -0.0104232 0.0133351 -0.0149718
internal_weight=0 14.3858 12.712 9.99505
internal_count=162 109 53 85
is_linear=0
shrinkage=0.0186989


Tree=55
num_leaves=5
num_cat=0
split_feature=41 40 1 27
split_gain=11.0848 2.09135 0.709234 0.21903
threshold=48.050000000000004 77.800000000000011 67.500000000000014 1.0000000180025095e-35
decision_type=2 2 2 2
left_child=2 -2 -1 -3
right_child=1 3 -4 -5
leaf_value=0.019983567347621294 0 -0.017372470043325781 0.0040289611833701187 0
leaf_weight=5.4818344265222567 4.3907276242971411 7.3622949346899969 7.2143875360488892 2.5392084345221519
leaf_count=23 24 64 30 21
internal_value=0 -0.0103259 0.0131478 -0.0148744
internal_weight=0 14.2922 12.6962 9.9015
internal_count=162 109 53 85
is_linear=0
shrinkage=0.0186989


Tree=56
num_leaves=4
num_cat=0
split_feature=41 40 40
split_gain=13.0168 2.16216 0.0451986
threshold=42.350000000000009 70.500000000000014 55.150000000000006
decision_type=2 2 2
left_child=2 -2 -1
right_child=1 -3 -4
leaf_value=0.019295092300688703 0 -0.015596468609161609 0.0037821975298530462
leaf_weight=4.8795454949140566 3.4716392606496838 12.839584790170191 5.1388646066188812
leaf_count=20 18 102 21
internal_value=0 -0.0121819 0.0140604
internal_weight=0 16.3112 10.0184
internal_count=161 120 41
is_linear=0
shrinkage=0.0186989


Tree=57
num_leaves=4
num_cat=0
split_feature=41 40 40
split_gain=12.6634 2.126 0.0197699
threshold=42.350000000000009 70.500000000000014 55.150000000000006
decision_type=2 2 2
left_child=2 -2 -1
right_child=1 -3 -4
leaf_value=0.019012113605389791 0 -0.015475023802480909 0.0037186465460789732
leaf_weight=4.8680504411458987 3.4716392606496838 12.704067349433897 5.1385660767555237
leaf_count=20 18 102 21
internal_value=0 -0.012058 0.0138754
internal_weight=0 16.1757 10.0066
internal_count=161 120 41
is_linear=0
shrinkage=0.0186989


Tree=58
num_leaves=3
num_cat=0
split_feature=41 40
split_gain=12.3201 2.09036
threshold=42.350000000000009 70.500000000000014
decision_type=2 2
left_child=-1 -2
right_child=1 -3
leaf_value=0.013694160930486591 0 -0.015354249556587374
leaf_weight=9.9941450655460375 3.4716392606496838 12.570259608328341
leaf_count=41 18 102
internal_value=0 -0.0119349
internal_weight=0 16.0419
internal_count=161 120
is_linear=0
shrinkage=0.0186989


Tree=59
num_leaves=4
num_cat=0
split_feature=41 40 40
split_gain=11.9429 2.05523 0.0388785
threshold=42.350000000000009 70.500000000000014 55.150000000000006
decision_type=2 2 2
left_child=2 -2 -1
right_child=1 -3 -4
leaf_value=0.018538074459850701 0 -0.015234122740463395 0.0034263041556988881
leaf_weight=4.8466604053974169 3.4716392606496802 12.438157103955744 5.1367474943399429
leaf_count=20 18 102 21
internal_value=0 -0.0118127 0.0134656
internal_weight=0 15.9098 9.98341
internal_count=161 120 41
is_linear=0
shrinkage=0.0186989


Tree=60
num_leaves=4
num_cat=0
split_feature=41 1 27
split_gain=8.24869 3.38564 2.39591
threshold=49.400000000000006 67.500000000000014 1.0000000180025095e-35
decision_type=2 2 2
left_child=1 -1 -2
right_child=2 -3 -4
leaf_value=0.020804893794549573 -0.014904385954057792 0 0
leaf_weight=5.8795253187418002 8.9693068042397481 7.8770878687500954 3.4862027093768111
leaf_count=25 72 34 25
internal_value=0 0.0105857 -0.00991456
internal_weight=0 13.7566 12.4555
internal_count=156 59 97
is_linear=0
shrinkage=0.0186989


Tree=61
num_leaves=4
num_cat=0
split_feature=41 1 27
split_gain=7.99983 3.26403 2.35653
threshold=49.400000000000006 67.500000000000014 1.0000000180025095e-35
decision_type=2 2 2
left_child=1 -1 -2
right_child=2 -3 -4
leaf_value=0.020488478016448926 -0.014782556390158198 0 0
leaf_weight=5.8674847483634966 8.8796087577939016 7.8770878687500954 3.4862027093768111
leaf_count=25 72 34 25
internal_value=0 0.0104349 -0.00979096
internal_weight=0 13.7446 12.3658
internal_count=156 59 97
is_linear=0
shrinkage=0.0186989


Tree=62
num_leaves=4
num_cat=0
split_feature=42 38 38
split_gain=6.90889 2.23143 1.99295
threshold=1.0000000180025095e-35 49.100000000000009 48.650000000000006
decision_type=2 2 2
left_child=2 -2 -1
right_child=1 -3 -4
leaf_value=0 0.017338813585289485 0 -0.013701253173472181
leaf_weight=5.8754786625504503 7.0255396515130997 5.085374116897583 8.0225535705685598
leaf_count=28 30 29 69
internal_value=0 0.0108828 -0.00795359
internal_weight=0 12.1109 13.898
internal_count=156 59 97
is_linear=0
shrinkage=0.0186989


Tree=63
num_leaves=4
num_cat=0
split_feature=41 1 27
split_gain=7.56249 3.14712 2.30999
threshold=49.400000000000006 67.500000000000014 1.0000000180025095e-35
decision_type=2 2 2
left_child=1 -1 -2
right_child=2 -3 -4
leaf_value=0.020049801959537143 -0.014592075202148705 0 0
leaf_weight=5.83874259889126 8.7324016839265806 7.8704181089997292 3.4739159047603598
leaf_count=25 72 34 25
internal_value=0 0.0101587 -0.00957823
internal_weight=0 13.7092 12.2063
internal_count=156 59 97
is_linear=0
shrinkage=0.0186989


Tree=64
num_leaves=5
num_cat=0
split_feature=40 1 41 38
split_gain=8.31608 3.85855 3.43735 0.0898305
threshold=83.500000000000014 64.500000000000014 37.20000000000001 55.150000000000006
decision_type=2 2 2 2
left_child=1 -1 -3 -2
right_child=3 2 -4 -5
leaf_value=0.018987459487427041 0 0.011311829489733178 -0.0087775553531393748 -0.01620458294471069
leaf_weight=6.4429806247353616 2.9113786071538907 5.1620956063270551 5.5300009474158287 6.1504191160202026
leaf_count=31 20 21 32 59
internal_value=0 0.00815323 0 -0.0134123
internal_weight=0 17.1351 10.6921 9.0618
internal_count=163 84 53 79
is_linear=0
shrinkage=0.0186989


Tree=65
num_leaves=5
num_cat=0
split_feature=41 1 42 10
split_gain=7.96299 3.12442 1.34795 0.23365
threshold=37.20000000000001 67.500000000000014 1.0000000180025095e-35 1.0000000180025095e-35
decision_type=2 2 2 2
left_child=-1 2 -2 -3
right_child=1 3 -4 -5
leaf_value=0.014682083745438253 -0.0054149130051479423 -0.00021743322334751499 0.0082027706831455122 -0.017951340956532266
leaf_weight=8.6284622699022311 4.4045890495181101 3.2194577306509 4.2778537422418594 5.5727401375770569
leaf_count=36 33 27 25 42
internal_value=0 -0.00667256 0 -0.0142348
internal_weight=0 17.4746 8.68244 8.7922
internal_count=163 127 58 69
is_linear=0
shrinkage=0.0186989


Tree=66
num_leaves=5
num_cat=0
split_feature=40 1 41 41
split_gain=7.99794 3.66905 3.19803 0.443736
threshold=83.500000000000014 64.500000000000014 37.20000000000001 57.400000000000006
decision_type=2 2 2 2
left_child=1 -1 -3 -2
right_child=3 2 -4 -5
leaf_value=0.01851077093906707 0 0.010895826246957108 -0.0085333218819588982 -0.016289002401263065
leaf_weight=6.4403395652771058 2.5994218289852125 5.1506253480911237 5.4795309901237488 6.3537684753537178
leaf_count=31 17 21 32 62
internal_value=0 0.00795761 0 -0.013287
internal_weight=0 17.0705 10.6302 8.95319
internal_count=163 84 53 79
is_linear=0
shrinkage=0.0186989


Tree=67
num_leaves=5
num_cat=0
split_feature=40 42 1 41
split_gain=7.78657 3.538 1.56137 0.430614
threshold=83.500000000000014 1.0000000180025095e-35 66.500000000000014 57.400000000000006
decision_type=2 2 2 2
left_child=1 -1 -3 -2
right_child=3 2 -4 -5
leaf_value=0 0 0.021826788802784672 0.00080622869217583247 -0.016195018148286465
leaf_weight=6.9130687937140509 2.5994218289852125 5.4396381974220276 4.6979826837778091 6.2751466184854507
leaf_count=38 17 25 21 62
internal_value=0 0.00782993 0.014715 -0.0131939
internal_weight=0 17.0507 10.1376 8.87457
internal_count=163 84 46 79
is_linear=0
shrinkage=0.0186989


Tree=68
num_leaves=4
num_cat=0
split_feature=40 1 38
split_gain=8.06452 4.72203 2.56977
threshold=79.800000000000011 67.500000000000014 51.750000000000007
decision_type=2 2 2
left_child=1 -1 -2
right_child=2 -3 -4
leaf_value=0.019880626639322468 0 0 -0.017177689286048962
leaf_weight=6.9236874878406542 2.845380485057829 7.7887403964996338 7.607067808508873
leaf_count=33 16 37 74
internal_value=0 0.00925271 -0.0117164
internal_weight=0 14.7124 10.4524
internal_count=160 70 90
is_linear=0
shrinkage=0.0186989


Tree=69
num_leaves=4
num_cat=0
split_feature=40 1 38
split_gain=7.8038 4.55983 2.80653
threshold=79.800000000000011 67.500000000000014 49.100000000000009
decision_type=2 2 2
left_child=1 -1 -2
right_child=2 -3 -4
leaf_value=0.019515477091398566 0 0 -0.017195538091705157
leaf_weight=6.9317902773618716 2.6305666640400869 7.7887403964996338 7.7237608954310417
leaf_count=33 14 37 76
internal_value=0 0.00907929 -0.0115994
internal_weight=0 14.7205 10.3543
internal_count=160 70 90
is_linear=0
shrinkage=0.0186989


Tree=70
num_leaves=4
num_cat=0
split_feature=40 1 38
split_gain=7.54722 4.40406 2.77346
threshold=79.800000000000011 67.500000000000014 49.100000000000009
decision_type=2 2 2
left_child=1 -1 -2
right_child=2 -3 -4
leaf_value=0.019159334564454279 0 0 -0.017104560374416319
leaf_weight=6.9389983117580432 2.6305666640400869 7.7887403964996338 7.6235824897885323
leaf_count=33 14 37 76
internal_value=0 0.00890948 -0.0114787
internal_weight=0 14.7277 10.2541
internal_count=160 70 90
is_linear=0
shrinkage=0.0186989


Tree=71
num_leaves=4
num_cat=0
split_feature=40 1 38
split_gain=7.29886 4.25439 2.74069
threshold=79.800000000000011 67.500000000000014 49.100000000000009
decision_type=2 2 2
left_child=1 -1 -2
right_child=2 -3 -4
leaf_value=0.018811834984584549 0 0 -0.017013991633297053
leaf_weight=6.9453554600477236 2.6305666640400869 7.7887403964996338 7.5247759371995926
leaf_count=33 14 37 76
internal_value=0 0.00874319 -0.0113585
internal_weight=0 14.7341 10.1553
internal_count=160 70 90
is_linear=0
shrinkage=0.0186989


Tree=72
num_leaves=4
num_cat=0
split_feature=41 36 27
split_gain=7.9661 2.36706 1.57384
threshold=49.400000000000006 2.5050000000000003 1.0000000180025095e-35
decision_type=2 2 2
left_child=1 -1 -2
right_child=2 -3 -4
leaf_value=0.00047951324302573245 -0.014107309085309579 0.021028780856129473 0
leaf_weight=7.1201062947511691 8.5517880693078023 4.7465997338294983 4.0793834850192061
leaf_count=31 78 21 31
internal_value=0 0.0110652 -0.0097863
internal_weight=0 11.8667 12.6312
internal_count=161 52 109
is_linear=0
shrinkage=0.0186989


Tree=73
num_leaves=4
num_cat=0
split_feature=41 36 27
split_gain=7.74487 2.27029 1.54348
threshold=49.400000000000006 2.5050000000000003 1.0000000180025095e-35
decision_type=2 2 2
left_child=1 -1 -2
right_child=2 -3 -4
leaf_value=0.00047120901479177598 -0.01399211375678722 0.020698145570201262 0
leaf_weight=7.120008125901224 8.4664032384753209 4.7412804961204529 4.0793834850192061
leaf_count=31 78 21 31
internal_value=0 0.0109147 -0.00967881
internal_weight=0 11.8613 12.5458
internal_count=161 52 109
is_linear=0
shrinkage=0.0186989


Tree=74
num_leaves=4
num_cat=0
split_feature=41 36 27
split_gain=7.53027 2.17751 1.51361
threshold=49.400000000000006 2.5050000000000003 1.0000000180025095e-35
decision_type=2 2 2
left_child=1 -1 -2
right_child=2 -3 -4
leaf_value=0.00046304886110767977 -0.013877430275773935 0.020375456992258064 0
leaf_weight=7.1199110895395297 8.3821905553340894 4.7352693676948547 4.0793834850192061
leaf_count=31 78 21 31
internal_value=0 0.0107673 -0.00957216
internal_weight=0 11.8552 12.4616
internal_count=161 52 109
is_linear=0
shrinkage=0.0186989


Tree=75
num_leaves=4
num_cat=0
split_feature=41 27 1
split_gain=7.32209 1.4842 0.999927
threshold=49.400000000000006 1.0000000180025095e-35 67.500000000000014
decision_type=2 2 2
left_child=2 -2 -1
right_child=1 -3 -4
leaf_value=0.017996055050325897 -0.013763248342212459 0 0.0017994816279153778
leaf_weight=4.7652730494737643 8.2991408184170705 4.0793834850192061 7.0831474140286446
leaf_count=21 78 31 31
internal_value=0 -0.00946634 0.010623
internal_weight=0 12.3785 11.8484
internal_count=161 109 52
is_linear=0
shrinkage=0.0186989


Tree=76
num_leaves=4
num_cat=0
split_feature=41 42 27
split_gain=8.00642 4.39985 1.64919
threshold=37.20000000000001 1.0000000180025095e-35 1.0000000180025095e-35
decision_type=2 2 2
left_child=-1 2 -2
right_child=1 -3 -4
leaf_value=0.016492874953059497 -0.016298153165522137 0.0051926079621657543 0
leaf_weight=7.968937203288081 8.6059626266360301 6.0225133225321761 3.3318710103631011
leaf_count=34 72 35 26
internal_value=0 -0.0051845 -0.0121941
internal_weight=0 17.9603 11.9378
internal_count=167 133 98
is_linear=0
shrinkage=0.0186989


Tree=77
num_leaves=5
num_cat=0
split_feature=41 40 41 1
split_gain=7.78625 2.511 0.582499 0.397359
threshold=42.350000000000009 83.500000000000014 27.100000000000005 65.500000000000014
decision_type=2 2 2 2
left_child=2 3 -1 -2
right_child=1 -3 -4 -5
leaf_value=0.019982442121960424 0.0048611251901809855 -0.014489905193435621 0.0037103678810171009 -0.0031771583479548427
leaf_weight=4.6188144236803073 3.4696305990219098 7.3164299055933952 6.6639640331268311 3.7627778798341751
leaf_count=20 19 76 28 24
internal_value=0 -0.00716716 0.0128787 0
internal_weight=0 14.5488 11.2828 7.23241
internal_count=167 119 48 43
is_linear=0
shrinkage=0.0186989


Tree=78
num_leaves=5
num_cat=0
split_feature=41 40 41 1
split_gain=7.57321 2.46157 0.549562 0.384289
threshold=42.350000000000009 83.500000000000014 27.100000000000005 65.500000000000014
decision_type=2 2 2 2
left_child=2 3 -1 -2
right_child=1 -3 -4 -5
leaf_value=0.019727662600673136 0.0047734166178216662 -0.014387960770735271 0.0036475397465122886 -0.0031302612330625416
leaf_weight=4.5984376668930071 3.4775695875287038 7.2352406308054924 6.6617015153169632 3.7562242522835732
leaf_count=20 19 76 28 24
internal_value=0 -0.00708021 0.0127186 0
internal_weight=0 14.469 11.2601 7.23379
internal_count=167 119 48 43
is_linear=0
shrinkage=0.0186989


Tree=79
num_leaves=5
num_cat=0
split_feature=41 40 41 1
split_gain=7.36666 2.41297 0.518017 0.371657
threshold=42.350000000000009 83.500000000000014 27.100000000000005 65.500000000000014
decision_type=2 2 2 2
left_child=2 3 -1 -2
right_child=1 -3 -4 -5
leaf_value=0.019478272537038866 0.0046874642549856894 -0.014286302390888822 0.0035857779356268278 -0.0030840054798571825
leaf_weight=4.5776228159666079 3.4853542298078519 7.1552268862724304 6.6594387143850327 3.7497671246528625
leaf_count=20 19 76 28 24
internal_value=0 -0.0069941 0.0125615 0
internal_weight=0 14.3903 11.2371 7.23512
internal_count=167 119 48 43
is_linear=0
shrinkage=0.0186989


Tree=80
num_leaves=4
num_cat=0
split_feature=41 27 41
split_gain=8.21782 1.92446 0.16431
threshold=43.500000000000007 1.0000000180025095e-35 31.000000000000004
decision_type=2 2 2
left_child=2 -2 -1
right_child=1 -3 -4
leaf_value=0.01618901277646629 -0.014466008771721578 0 0.0019650525324919755
leaf_weight=5.7610702216625231 8.6362739428877813 3.7275207638740531 5.0027332156896591
leaf_count=25 78 28 21
internal_value=0 -0.00984189 0.0119644
internal_weight=0 12.3638 10.7638
internal_count=152 106 46
is_linear=0
shrinkage=0.0186989


Tree=81
num_leaves=4
num_cat=0
split_feature=41 27 41
split_gain=7.98886 1.89054 0.13963
threshold=43.500000000000007 1.0000000180025095e-35 31.000000000000004
decision_type=2 2 2
left_child=2 -2 -1
right_child=1 -3 -4
leaf_value=0.015964985525394968 -0.014347605351915297 0 0.0019322381527886515
leaf_weight=5.740757107734682 8.5501757189631444 3.7275207638740531 5.0021138340234756
leaf_count=25 78 28 21
internal_value=0 -0.00972686 0.0118163
internal_weight=0 12.2777 10.7429
internal_count=152 106 46
is_linear=0
shrinkage=0.0186989


Tree=82
num_leaves=5
num_cat=0
split_feature=41 11 41 39
split_gain=7.76664 1.90469 0.116006 0.11584
threshold=43.500000000000007 1.0000000180025095e-35 31.000000000000004 2.9100000000000006
decision_type=2 2 2 2
left_child=2 -2 -1 -3
right_child=1 3 -4 -5
leaf_value=0.015745041183573411 -0.015352004346655837 0.0019295339187540329 0.0018999716361629126 -0.0032004126810541021
leaf_weight=5.7201544940471667 7.2642146274447423 2.7350379675626755 5.0014965534210205 2.1935024559497833
leaf_count=25 65 21 21 20
internal_value=0 -0.00961269 0.0116709 0
internal_weight=0 12.1928 10.7217 4.92854
internal_count=152 106 46 41
is_linear=0
shrinkage=0.0186989


Tree=83
num_leaves=5
num_cat=0
split_feature=41 11 39 41
split_gain=7.55709 1.86965 0.112478 0.0933883
threshold=43.500000000000007 1.0000000180025095e-35 2.9100000000000006 31.000000000000004
decision_type=2 2 2 2
left_child=3 -2 -3 -1
right_child=1 2 -4 -5
leaf_value=0.015529040130431359 -0.015238122084340925 0.0018977737303451845 -0.0031582484095943305 0.0018682437505482992
leaf_weight=5.6992890387773532 7.1865899041295034 2.7381928563117981 2.1887754872441292 5.0008817762136459
leaf_count=25 65 21 20 21
internal_value=0 -0.00950656 0 0.0115281
internal_weight=0 12.1136 4.92697 10.7002
internal_count=152 106 41 46
is_linear=0
shrinkage=0.0186989


Tree=84
num_leaves=5
num_cat=0
split_feature=41 27 41 1
split_gain=7.39137 2.34229 0.73114 0.023089
threshold=42.350000000000009 1.0000000180025095e-35 31.000000000000004 64.500000000000014
decision_type=2 2 2 2
left_child=2 3 -1 -2
right_child=1 -3 -4 -5
leaf_value=0.017004534858796209 -0.00096823238040367879 0 0.000986505188419598 -0.016903471728085893
leaf_weight=5.1916411221027392 3.4510666728019697 4.1717868670821181 5.4743271470069885 6.4151880741119385
leaf_count=23 26 31 23 64
internal_value=0 -0.00895326 0.011222 -0.0138116
internal_weight=0 14.038 10.666 9.86625
internal_count=167 121 46 90
is_linear=0
shrinkage=0.0186989


Tree=85
num_leaves=4
num_cat=0
split_feature=41 27 41
split_gain=7.2004 2.3098 0.69327
threshold=42.350000000000009 1.0000000180025095e-35 31.000000000000004
decision_type=2 2 2
left_child=2 -2 -1
right_child=1 -3 -4
leaf_value=0.016784629075362188 -0.013717798568395631 0 0.00096984645988191717
leaf_weight=5.1688919961452502 9.7860928624868375 4.1717868670821181 5.4739026129245758
leaf_count=23 90 31 23
internal_value=0 -0.00885959 0.0110892
internal_weight=0 13.9579 10.6428
internal_count=167 121 46
is_linear=0
shrinkage=0.0186989


Tree=86
num_leaves=5
num_cat=0
split_feature=41 27 41 1
split_gain=6.99462 2.26883 0.656793 0.0500305
threshold=42.350000000000009 1.0000000180025095e-35 31.000000000000004 64.500000000000014
decision_type=2 2 2 2
left_child=2 3 -1 -2
right_child=1 -3 -4 -5
leaf_value=0.016568634434779933 -0.00073867636374473709 0 0.00095346750269634749 -0.016721183826685193
leaf_weight=5.1459104120731372 3.4209215790033323 4.1717868670821181 5.4734829962253571 6.2740010842680931
leaf_count=23 26 31 23 64
internal_value=0 -0.00874241 0.0109588 -0.0135961
internal_weight=0 13.8667 10.6194 9.69492
internal_count=167 121 46 90
is_linear=0
shrinkage=0.0186989


Tree=87
num_leaves=5
num_cat=0
split_feature=41 27 41 1
split_gain=6.81492 2.23742 0.621648 0.0384726
threshold=42.350000000000009 1.0000000180025095e-35 31.000000000000004 64.500000000000014
decision_type=2 2 2 2
left_child=2 3 -1 -2
right_child=1 -3 -4 -5
leaf_value=0.016356412330821909 -0.00072709270047279732 0 0.00093736464113726946 -0.016621470821692776
leaf_weight=5.1227214485406893 3.4194071069359762 4.1717868670821181 5.4730682224035263 6.1977101787924767
leaf_count=23 26 31 23 64
internal_value=0 -0.00865065 0.0108306 -0.0135039
internal_weight=0 13.7889 10.5958 9.61712
internal_count=167 121 46 90
is_linear=0
shrinkage=0.0186989


Tree=88
num_leaves=6
num_cat=0
split_feature=40 41 1 1 1
split_gain=6.88348 3.09605 0.675101 0.434614 0.204826
threshold=83.500000000000014 48.050000000000004 65.500000000000014 68.500000000000014 72.500000000000014
decision_type=2 2 2 2 2
left_child=1 3 -3 -1 -2
right_child=4 2 -4 -5 -6
leaf_value=0.019493006404668393 -0.016347206647299075 0.0015474288150122877 -0.0079144317760293167 0.0025956029715352861 0
leaf_weight=4.7914538681507164 5.5787159428000441 3.312301777303218 3.0584770664572716 5.0037200003862381 2.0254569202661514
leaf_count=22 60 19 23 21 21
internal_value=0 0.00707502 -6.5743e-05 0.0136147 -0.013863
internal_weight=0 16.166 6.37078 9.79517 7.60417
internal_count=166 85 42 43 81
is_linear=0
shrinkage=0.0186989


Tree=89
num_leaves=6
num_cat=0
split_feature=40 41 1 1 1
split_gain=6.72598 3.01635 0.656788 0.405768 0.194976
threshold=83.500000000000014 48.050000000000004 65.500000000000014 68.500000000000014 72.500000000000014
decision_type=2 2 2 2 2
left_child=1 3 -3 -1 -2
right_child=4 2 -4 -5 -6
leaf_value=0.01926249972631483 -0.016247119304340345 0.0015216947551249952 -0.0078237198625210752 0.0025523095279648953 0
leaf_weight=4.7651016861200386 5.5122144445776931 3.3148177191615096 3.0427539348602295 5.0029904991388321 2.0254569202661514
leaf_count=22 60 19 23 21 21
internal_value=0 0.00699449 -1.4483e-05 0.0134582 -0.0137675
internal_weight=0 16.1257 6.35757 9.76809 7.53767
internal_count=166 85 42 43 81
is_linear=0
shrinkage=0.0186989


Tree=90
num_leaves=6
num_cat=0
split_feature=40 41 1 38 1
split_gain=6.57254 2.93915 0.63889 0.384693 0.185285
threshold=83.500000000000014 48.050000000000004 65.500000000000014 37.250000000000007 72.500000000000014
decision_type=2 2 2 2 2
left_child=1 3 -3 -1 -2
right_child=4 2 -4 -5 -6
leaf_value=0.0020754611319184421 -0.01614734783058704 0.0014964042944462257 -0.0077338415930334747 0.018628912728132503 0
leaf_weight=4.7258311063051277 5.4466560781002036 3.3172909542918196 3.0272395685315132 5.014935627579689 2.0254569202661514
leaf_count=21 60 19 23 22 21
internal_value=0 0.0069153 0 0.0133046 -0.0136727
internal_weight=0 16.0853 6.34453 9.74077 7.47211
internal_count=166 85 42 43 81
is_linear=0
shrinkage=0.0186989


Tree=91
num_leaves=6
num_cat=0
split_feature=40 41 1 1 1
split_gain=6.42062 2.85858 0.621469 0.409535 0.175749
threshold=83.500000000000014 48.050000000000004 65.500000000000014 68.500000000000014 72.500000000000014
decision_type=2 2 2 2 2
left_child=1 3 -3 -1 -2
right_child=4 2 -4 -5 -6
leaf_value=0.018895096815313768 -0.016047880412093388 0.0014715476682985776 -0.007644791219147436 0.0023435192948597183 0
leaf_weight=4.7249048054218346 5.3820316344499579 3.319722354412078 3.0119319632649422 5.0030135661363602 2.0254569202661514
leaf_count=22 60 19 23 21 21
internal_value=0 0.00683067 0 0.0131338 -0.0135784
internal_weight=0 16.0596 6.33165 9.72792 7.40749
internal_count=166 85 42 43 81
is_linear=0
shrinkage=0.0186989


Tree=92
num_leaves=5
num_cat=0
split_feature=40 1 40 38
split_gain=4.74243 2.9516 2.16752 0.729681
threshold=83.500000000000014 64.500000000000014 55.150000000000006 53.250000000000007
decision_type=2 2 2 2
left_child=1 -1 -3 -2
right_child=3 2 -4 -5
leaf_value=0.018002299002476851 0 0.011323105900637672 -0.0053977622722767701 -0.014704720899129085
leaf_weight=4.8237990140914944 2.0113811269402495 3.7009367644786817 6.6887826696038246 4.9864160418510437
leaf_count=24 13 16 39 61
internal_value=0 0.00672525 0 -0.0111783
internal_weight=0 15.2135 10.3897 6.9978
internal_count=153 79 55 74
is_linear=0
shrinkage=0.0186989


Tree=93
num_leaves=5
num_cat=0
split_feature=40 1 40 38
split_gain=4.6115 2.84366 2.09985 0.7174
threshold=83.500000000000014 64.500000000000014 55.150000000000006 53.250000000000007
decision_type=2 2 2 2
left_child=1 -1 -3 -2
right_child=3 2 -4 -5
leaf_value=0.017675357227953572 0 0.011156998687181632 -0.0053128489424226454 -0.01461315847079723
leaf_weight=4.8314846009016064 2.0113811269402495 3.6942382901906949 6.6777079403400421 4.9279094263911247
leaf_count=24 13 16 39 61
internal_value=0 0.0066196 0 -0.0110838
internal_weight=0 15.2034 10.3719 6.93929
internal_count=153 79 55 74
is_linear=0
shrinkage=0.0186989


Tree=94
num_leaves=5
num_cat=0
split_feature=40 1 40 38
split_gain=4.48431 2.74 2.03433 0.705267
threshold=83.500000000000014 64.500000000000014 55.150000000000006 53.250000000000007
decision_type=2 2 2 2
left_child=1 -1 -3 -2
right_child=3 2 -4 -5
leaf_value=0.017355944398868731 0 0.01099361741016856 -0.0052291885562850346 -0.014521778472793082
leaf_weight=4.8386752903461483 2.0113811269402495 3.6874562352895719 6.6667793169617653 4.8702739700675011
leaf_count=24 13 16 39 61
internal_value=0 0.00651579 0 -0.0109897
internal_weight=0 15.1929 10.3542 6.88166
internal_count=153 79 55 74
is_linear=0
shrinkage=0.0186989


Tree=95
num_leaves=5
num_cat=0
split_feature=40 42 1 38
split_gain=4.36073 2.6596 1.45822 0.693278
threshold=83.500000000000014 1.0000000180025095e-35 67.500000000000014 53.250000000000007
decision_type=2 2 2 2
left_child=1 -1 -3 -2
right_child=3 2 -4 -5
leaf_value=0 0 0.020983726316235726 9.2924590431016761e-05 -0.014430574990715322
leaf_weight=6.2827762812376031 2.0113811269402495 4.178379699587822 4.7208293527364731 4.8134993314743042
leaf_count=37 13 20 22 61
internal_value=0 0.00641377 0.0129127 -0.0108962
internal_weight=0 15.182 8.89921 6.82488
internal_count=153 79 42 74
is_linear=0
shrinkage=0.0186989


Tree=96
num_leaves=4
num_cat=0
split_feature=41 40 39
split_gain=5.89495 1.35412 0.758868
threshold=49.400000000000006 63.000000000000007 2.2000000000000006
decision_type=2 2 2
left_child=1 -1 -2
right_child=2 -3 -4
leaf_value=0.014192949771513905 0 0 -0.012064767876623087
leaf_weight=6.7037857770919818 2.5222443789243689 4.7982154935598373 8.6181155890226346
leaf_count=31 22 22 88
internal_value=0 0.00905969 -0.00956627
internal_weight=0 11.502 11.1404
internal_count=163 53 110
is_linear=0
shrinkage=0.0186989


Tree=97
num_leaves=4
num_cat=0
split_feature=41 40 39
split_gain=5.72399 1.31166 0.742714
threshold=49.400000000000006 63.000000000000007 2.2000000000000006
decision_type=2 2 2
left_child=1 -1 -2
right_child=2 -3 -4
leaf_value=0.014002012749721859 0 0 -0.01195111183809742
leaf_weight=6.6760683655738848 2.5222443789243689 4.7982154935598373 8.5434456430375558
leaf_count=31 22 22 88
internal_value=0 0.00893305 -0.00946123
internal_weight=0 11.4743 11.0657
internal_count=163 53 110
is_linear=0
shrinkage=0.0186989


Tree=98
num_leaves=4
num_cat=0
split_feature=41 40 39
split_gain=5.55804 1.2705 0.72683
threshold=49.400000000000006 63.000000000000007 2.2000000000000006
decision_type=2 2 2
left_child=1 -1 -2
right_child=2 -3 -4
leaf_value=0.01381399527046117 0 0 -0.011837997339405097
leaf_weight=6.6483158469200152 2.5222443789243689 4.7982154935598373 8.4698686152696592
leaf_count=31 22 22 88
internal_value=0 0.00880844 -0.00935695
internal_weight=0 11.4465 10.9921
internal_count=163 53 110
is_linear=0
shrinkage=0.0186989


Tree=99
num_leaves=4
num_cat=0
split_feature=41 40 39
split_gain=5.39696 1.23062 0.711212
threshold=49.400000000000006 63.000000000000007 2.2000000000000006
decision_type=2 2 2
left_child=1 -1 -2
right_child=2 -3 -4
leaf_value=0.013628815380459852 0 0 -0.011725422726523917
leaf_weight=6.6205465793609637 2.5222443789243689 4.7982154935598373 8.3973725698888284
leaf_count=31 22 22 88
internal_value=0 0.00868582 -0.00925344
internal_weight=0 11.4188 10.9196
internal_count=163 53 110
is_linear=0
shrinkage=0.0186989


Tree=100
num_leaves=4
num_cat=0
split_feature=41 47 27
split_gain=4.0519 2.81284 1.33831
threshold=48.050000000000004 1.0000000180025095e-35 1.0000000180025095e-35
decision_type=2 2 2
left_child=1 -1 -2
right_child=2 -3 -4
leaf_value=0 -0.012750938563680788 0.016491978599439325 0
leaf_weight=6.2075207680463809 7.3121104650199396 5.2759263813495636 3.0366431027650833
leaf_count=28 78 25 26
internal_value=0 0.00708352 -0.00862847
internal_weight=0 11.4834 10.3488
internal_count=157 53 104
is_linear=0
shrinkage=0.0186989


Tree=101
num_leaves=4
num_cat=0
split_feature=41 47 27
split_gain=3.91863 2.73886 1.3143
threshold=48.050000000000004 1.0000000180025095e-35 1.0000000180025095e-35
decision_type=2 2 2
left_child=1 -1 -2
right_child=2 -3 -4
leaf_value=0 -0.012638637417455325 0.016271496112072379 0
leaf_weight=6.2075207680463809 7.244771156460045 5.2552405297756195 3.0366431027650833
leaf_count=28 78 25 26
internal_value=0 0.00696067 -0.00852202
internal_weight=0 11.4628 10.2814
internal_count=157 53 104
is_linear=0
shrinkage=0.0186989


Tree=102
num_leaves=4
num_cat=0
split_feature=41 47 27
split_gain=3.78953 2.66702 1.29063
threshold=48.050000000000004 1.0000000180025095e-35 1.0000000180025095e-35
decision_type=2 2 2
left_child=1 -1 -2
right_child=2 -3 -4
leaf_value=0 -0.012526822144320672 0.016054593697215042 0
leaf_weight=6.2075207680463809 7.1784059144556505 5.2344393879175186 3.0366431027650833
leaf_count=28 78 25 26
internal_value=0 0.00683979 -0.00841636
internal_weight=0 11.442 10.215
internal_count=157 53 104
is_linear=0
shrinkage=0.0186989


Tree=103
num_leaves=4
num_cat=0
split_feature=41 36 27
split_gain=3.66446 2.62625 1.26732
threshold=48.050000000000004 2.5050000000000003 1.0000000180025095e-35
decision_type=2 2 2
left_child=1 -1 -2
right_child=2 -3 -4
leaf_value=0 -0.012415489149162171 0.01668128294408042 0
leaf_weight=6.7381969839334506 7.1130044125020486 4.6828651279211044 3.0366431027650833
leaf_count=31 78 22 26
internal_value=0 0.00672085 -0.00831149
internal_weight=0 11.4211 10.1496
internal_count=157 53 104
is_linear=0
shrinkage=0.0186989


Tree=104
num_leaves=4
num_cat=0
split_feature=41 36 1
split_gain=5.01753 1.73092 0.878492
threshold=48.050000000000004 2.5050000000000003 63.500000000000007
decision_type=2 2 2
left_child=1 -1 -2
right_child=2 -3 -4
leaf_value=0 0 0.016443716921850152 -0.01348216613429452
leaf_weight=7.0967709049582499 3.4963932633399946 4.6699360609054565 6.325434360653162
leaf_count=32 29 22 75
internal_value=0 0.00810329 -0.00953867
internal_weight=0 11.7667 9.82183
internal_count=158 54 104
is_linear=0
shrinkage=0.0186989


Tree=105
num_leaves=4
num_cat=0
split_feature=41 1 47
split_gain=4.88478 0.859756 0.566947
threshold=48.050000000000004 63.500000000000007 1.0000000180025095e-35
decision_type=2 2 2
left_child=2 -2 -1
right_child=1 -3 -4
leaf_value=0.00011749740556311971 0 -0.013379766612675705 0.013064313782426663
leaf_weight=6.5420159026980418 3.4963932633399946 6.2595855854451656 5.2115625292062759
leaf_count=29 29 75 25
internal_value=0 -0.00944581 0.0079955
internal_weight=0 9.75598 11.7536
internal_count=158 104 54
is_linear=0
shrinkage=0.0186989


Tree=106
num_leaves=4
num_cat=0
split_feature=41 36 1
split_gain=4.76189 1.66023 0.841311
threshold=48.050000000000004 2.5050000000000003 63.500000000000007
decision_type=2 2 2
left_child=1 -1 -2
right_child=2 -3 -4
leaf_value=0 0 0.016089742871207444 -0.013277657370225009
leaf_weight=7.0910282731056231 3.4963932633399946 4.6463334113359451 6.1947123631834984
leaf_count=32 29 22 75
internal_value=0 0.00790153 -0.00935363
internal_weight=0 11.7374 9.69111
internal_count=158 54 104
is_linear=0
shrinkage=0.0186989


Tree=107
num_leaves=4
num_cat=0
split_feature=41 36 1
split_gain=4.63595 1.60274 0.823155
threshold=48.050000000000004 2.5050000000000003 63.500000000000007
decision_type=2 2 2
left_child=1 -1 -2
right_child=2 -3 -4
leaf_value=0 0 0.015862487756865246 -0.013175835596614885
leaf_weight=7.0910282731056231 3.4963932633399946 4.6329558491706848 6.1308034807443619
leaf_count=32 29 22 75
internal_value=0 0.00779652 -0.00926213
internal_weight=0 11.724 9.6272
internal_count=158 54 104
is_linear=0
shrinkage=0.0186989


Tree=108
num_leaves=5
num_cat=0
split_feature=40 42 38 1
split_gain=4.29655 2.89084 1.15814 0.0616828
threshold=83.500000000000014 1.0000000180025095e-35 50.500000000000007 67.500000000000014
decision_type=2 2 2 2
left_child=1 -1 -2 -3
right_child=2 3 -4 -5
leaf_value=0 0 0.018483410794562311 -0.014296981742700002 0.0025689814905275467
leaf_weight=6.3401637449860582 1.6355586946010578 4.819300189614296 4.7953398749232292 4.38067626953125
leaf_count=38 11 25 67 21
internal_value=0 0.00721759 -0.00993445 0.0137646
internal_weight=0 15.5401 6.4309 9.19998
internal_count=162 84 78 46
is_linear=0
shrinkage=0.0186989


Tree=109
num_leaves=5
num_cat=0
split_feature=40 42 38 1
split_gain=4.16882 2.82619 1.14319 0.0361244
threshold=83.500000000000014 1.0000000180025095e-35 50.500000000000007 67.500000000000014
decision_type=2 2 2 2
left_child=1 -1 -2 -3
right_child=2 3 -4 -5
leaf_value=0 0 0.018218822884242321 -0.014207760432670968 0.0025265278835864147
leaf_weight=6.3401637449860582 1.6355586946010578 4.8061560913920403 4.7392820976674557 4.3804462999105453
leaf_count=38 11 25 67 21
internal_value=0 0.00710713 -0.00983101 0.0135913
internal_weight=0 15.5268 6.37484 9.1866
internal_count=162 84 78 46
is_linear=0
shrinkage=0.0186989


Tree=110
num_leaves=5
num_cat=0
split_feature=40 3 42 38
split_gain=4.04485 2.76605 2.37299 1.12838
threshold=83.500000000000014 5.5000000000000009 1.0000000180025095e-35 50.500000000000007
decision_type=2 2 2 2
left_child=1 2 -1 -2
right_child=3 -3 -4 -5
leaf_value=0 0 -0.0018556532872361538 0.018723048525293072 -0.0141186520631636
leaf_weight=4.5353933200240153 1.6355586946010578 4.2152778506278983 6.7626176327466965 4.6840839572250843
leaf_count=28 11 23 33 67
internal_value=0 0.0069985 0.0121055 -0.00972797
internal_weight=0 15.5133 11.298 6.31964
internal_count=162 84 61 78
is_linear=0
shrinkage=0.0186989


Tree=111
num_leaves=5
num_cat=0
split_feature=40 3 42 38
split_gain=3.9124 2.69629 2.29768 1.11369
threshold=83.500000000000014 5.5000000000000009 1.0000000180025095e-35 50.500000000000007
decision_type=2 2 2 2
left_child=1 2 -1 -2
right_child=3 -3 -4 -5
leaf_value=0 0 -0.0018256458404038057 0.018459809076076538 -0.014029653344745052
leaf_weight=4.5353933200240153 1.6355586946010578 4.2137040644884101 6.7390380650758743 4.6297343000769615
leaf_count=28 11 23 33 67
internal_value=0 0.00687132 0.01193 -0.00962534
internal_weight=0 15.4881 11.2744 6.26529
internal_count=162 84 61 78
is_linear=0
shrinkage=0.0186989


Tree=112
num_leaves=6
num_cat=0
split_feature=40 42 1 3 41
split_gain=4.34979 1.9324 1.06032 0.487696 0.150511
threshold=83.500000000000014 1.0000000180025095e-35 73.500000000000014 3.5000000000000004 49.400000000000006
decision_type=2 2 2 2 2
left_child=1 4 -2 -3 -1
right_child=2 3 -4 -5 -6
leaf_value=0 -0.016229958291287254 0.015419543822345698 0 0 -0.0037006551316510253
leaf_weight=3.8260543048381814 5.2122436799108973 4.5551365613937378 1.4715191684663294 4.1249883621931076 3.2804271131753922
leaf_count=16 68 22 18 22 27
internal_value=0 0.00476082 -0.0125998 0.0106394 0
internal_weight=0 15.7866 6.68376 8.68012 7.10648
internal_count=173 87 86 44 43
is_linear=0
shrinkage=0.0186989


Tree=113
num_leaves=6
num_cat=0
split_feature=40 42 1 3 41
split_gain=4.23677 1.88455 1.04618 0.455833 0.146059
threshold=83.500000000000014 1.0000000180025095e-35 73.500000000000014 3.5000000000000004 49.400000000000006
decision_type=2 2 2 2 2
left_child=1 4 -2 -3 -1
right_child=2 3 -4 -5 -6
leaf_value=0 -0.016131298189650294 0.015194119477976916 0 0 -0.0036493867141601387
leaf_weight=3.8260543048381814 5.1500873714685431 4.5447193831205368 1.4715191684663294 4.1249883621931076 3.2722870856523514
leaf_count=16 68 22 18 22 27
internal_value=0 0.00469978 -0.0124899 0.0105093 0
internal_weight=0 15.768 6.62161 8.66971 7.09834
internal_count=173 87 86 44 43
is_linear=0
shrinkage=0.0186989


Tree=114
num_leaves=5
num_cat=0
split_feature=40 9 42 1
split_gain=4.12666 1.84957 2.06635 1.03218
threshold=83.500000000000014 1.0000000180025095e-35 1.0000000180025095e-35 73.500000000000014
decision_type=2 2 2 2
left_child=1 2 -1 -2
right_child=3 -3 -4 -5
leaf_value=0 -0.016032771169392845 -0.0010656019872994876 0.016510452646376694 0
leaf_weight=4.6676770225167292 5.0888760052621356 5.357783928513526 5.7240201979875565 1.4715191684663294
leaf_count=28 68 30 29 18
internal_value=0 0.00463974 0.00951213 -0.0123805
internal_weight=0 15.7495 10.3917 6.5604
internal_count=173 87 57 86
is_linear=0
shrinkage=0.0186989


Tree=115
num_leaves=5
num_cat=0
split_feature=40 9 42 1
split_gain=4.00346 1.8004 2.00478 1.0183
threshold=83.500000000000014 1.0000000180025095e-35 1.0000000180025095e-35 73.500000000000014
decision_type=2 2 2 2
left_child=1 2 -1 -2
right_child=3 -3 -4 -5
leaf_value=0 -0.015934373659379074 -0.0010477583444723584 0.016273147844553006 0
leaf_weight=4.6676770225167292 5.0285969302058211 5.3567254319787017 5.7072561234235764 1.4715191684663294
leaf_count=28 68 30 29 18
internal_value=0 0.00454307 0.00936538 -0.0122714
internal_weight=0 15.7317 10.3749 6.50012
internal_count=173 87 57 86
is_linear=0
shrinkage=0.0186989


Tree=116
num_leaves=5
num_cat=0
split_feature=42 48 1 38
split_gain=2.45357 2.6298 1.32378 0.367378
threshold=1.0000000180025095e-35 1.5000000000000002 66.500000000000014 53.750000000000007
decision_type=2 2 2 2
left_child=1 -1 -2 -3
right_child=2 3 -4 -5
leaf_value=-0.014631759933605238 0.011844611828158406 0.0060250994405563882 0 0
leaf_weight=5.6039036475121975 5.9962967038154602 2.9761570766568184 4.5185173824429512 2.6651946827769279
leaf_count=56 37 17 24 32
internal_value=0 -0.00582479 0.00642507 0
internal_weight=0 11.2453 10.5148 5.64135
internal_count=166 105 61 49
is_linear=0
shrinkage=0.0186989


Tree=117
num_leaves=5
num_cat=0
split_feature=42 48 1 38
split_gain=2.36989 2.56395 1.28384 0.35556
threshold=1.0000000180025095e-35 1.5000000000000002 66.500000000000014 53.750000000000007
decision_type=2 2 2 2
left_child=1 -1 -2 -3
right_child=2 3 -4 -5
leaf_value=-0.014483345495130261 0.011648059044884888 0.0059245216261083521 0 0
leaf_weight=5.5616293027997017 5.9929841607809067 2.9795998111367226 4.5185173824429512 2.6651946827769279
leaf_count=56 37 17 24 32
internal_value=0 -0.00574273 0.0063071 0
internal_weight=0 11.2064 10.5115 5.64479
internal_count=166 105 61 49
is_linear=0
shrinkage=0.0186989


Tree=118
num_leaves=5
num_cat=0
split_feature=40 1 1 41
split_gain=4.01692 2.95464 0.361184 0.313153
threshold=83.500000000000014 64.500000000000014 72.500000000000014 46.640606226763943
decision_type=2 2 2 2
left_child=1 -1 -2 -3
right_child=2 3 -4 -5
leaf_value=0.015081917570864635 -0.014794955462034503 0.00094952374173953359 0 -0.005092542730604146
leaf_weight=5.8759612292051342 4.4603213258087626 6.1826931089162809 1.7320976518094537 3.4252007231116295
leaf_count=32 61 27 20 26
internal_value=0 0.00518501 -0.0120027 0
internal_weight=0 15.4839 6.19242 9.60789
internal_count=166 85 81 53
is_linear=0
shrinkage=0.0186989


Tree=119
num_leaves=5
num_cat=0
split_feature=40 1 1 41
split_gain=3.91259 2.85881 0.352276 0.303937
threshold=83.500000000000014 64.500000000000014 72.500000000000014 46.640606226763943
decision_type=2 2 2 2
left_child=1 -1 -2 -3
right_child=2 3 -4 -5
leaf_value=0.014842728163094596 -0.014697247267187363 0.00093336177620483908 0 -0.0050245693281837237
leaf_weight=5.8681429401040104 4.4102267026901236 6.1818852573633176 1.7320976518094537 3.414333775639534
leaf_count=32 61 27 20 26
internal_value=0 0.00510146 -0.0119094 0
internal_weight=0 15.4644 6.14232 9.59622
internal_count=166 85 81 53
is_linear=0
shrinkage=0.0186989


Tree=120
num_leaves=4
num_cat=0
split_feature=40 42 38
split_gain=3.46723 2.46809 1.41974
threshold=80.200000000000017 1.0000000180025095e-35 48.650000000000006
decision_type=2 2 2
left_child=1 -1 -2
right_child=2 -3 -4
leaf_value=0 0 0.013109597847129324 -0.014058475613665727
leaf_weight=5.6498604640364656 1.9231697097420681 8.4374104142189026 4.6821528375148773
leaf_count=33 11 43 70
internal_value=0 0.00683177 -0.00868067
internal_weight=0 14.0873 6.60532
internal_count=157 76 81
is_linear=0
shrinkage=0.0186989


Tree=121
num_leaves=4
num_cat=0
split_feature=40 42 38
split_gain=3.34374 2.39947 1.40102
threshold=80.200000000000017 1.0000000180025095e-35 48.650000000000006
decision_type=2 2 2
left_child=1 -1 -2
right_child=2 -3 -4
leaf_value=0 0 0.012900903355995025 -0.013970132699953028
leaf_weight=5.6498604640364656 1.9231697097420681 8.4228122234344482 4.6277252398431301
leaf_count=33 11 43 70
internal_value=0 0.00669738 -0.00857506
internal_weight=0 14.0727 6.55089
internal_count=157 76 81
is_linear=0
shrinkage=0.0186989


Tree=122
num_leaves=5
num_cat=0
split_feature=40 3 42 38
split_gain=3.22426 2.34637 2.53627 1.38247
threshold=80.200000000000017 5.5000000000000009 1.0000000180025095e-35 48.650000000000006
decision_type=2 2 2 2
left_child=1 2 -1 -2
right_child=3 -3 -4 -5
leaf_value=0 0 -0.0016469927486886138 0.018540610908984539 -0.013881883950903687
leaf_weight=4.1350184008479136 1.9231697097420681 3.7195175886154166 6.2034702897071838 4.574140403419733
leaf_count=25 11 20 31 70
internal_value=0 0.00656524 0.0114894 -0.0084699
internal_weight=0 14.058 10.3385 6.49731
internal_count=157 76 56 81
is_linear=0
shrinkage=0.0186989


Tree=123
num_leaves=5
num_cat=0
split_feature=40 3 42 38
split_gain=3.10862 2.2869 2.46479 1.36407
threshold=80.200000000000017 5.5000000000000009 1.0000000180025095e-35 48.650000000000006
decision_type=2 2 2 2
left_child=1 2 -1 -2
right_child=3 -3 -4 -5
leaf_value=0 0 -0.0016205096384060932 0.018289369880553748 -0.013793726969988747
leaf_weight=4.1350184008479136 1.9231697097420681 3.7188129276037207 6.1790508180856705 4.5213870070874691
leaf_count=25 11 20 31 70
internal_value=0 0.00643733 0.0113178 -0.0083652
internal_weight=0 14.0329 10.3141 6.44456
internal_count=157 76 56 81
is_linear=0
shrinkage=0.0186989


Tree=124
num_leaves=6
num_cat=0
split_feature=41 1 1 41 41
split_gain=3.08368 1.67828 0.998153 0.464353 0.20099
threshold=27.100000000000005 66.500000000000014 75.500000000000014 49.400000000000006 61.250000000000007
decision_type=2 2 2 2 2
left_child=-1 3 -3 -2 -5
right_child=1 2 -4 4 -6
leaf_value=0.010820776341918628 0.0058848187149659484 -0.014337094359034285 0 -0.0060346237610512726 0
leaf_weight=3.8913779109716442 2.9424377679824856 6.9608153738081437 2.6692380346357822 2.4929439350962639 2.324995644390583
leaf_count=20 15 66 22 19 26
internal_value=0 -0.00583187 -0.0108388 0 -0.00276007
internal_weight=0 17.3904 9.63005 7.76038 4.81794
internal_count=168 148 88 60 45
is_linear=0
shrinkage=0.0186989


Tree=125
num_leaves=5
num_cat=0
split_feature=40 3 1 38
split_gain=3.65314 1.74686 1.45495 1.08588
threshold=77.800000000000011 5.5000000000000009 69.500000000000014 46.250000000000007
decision_type=2 2 2 2
left_child=1 2 -1 -2
right_child=3 -3 -4 -5
leaf_value=0.01568540807555216 0 -0.0034699139901005595 0 -0.01551480645508988
leaf_weight=4.4273445755243319 2.4512291401624662 3.744519315659999 4.7173146530985832 5.8681376166641712
leaf_count=25 13 20 24 86
internal_value=0 0.00344844 0.00860579 -0.0114686
internal_weight=0 12.8892 9.14466 8.31937
internal_count=168 69 49 99
is_linear=0
shrinkage=0.0186989


Tree=126
num_leaves=5
num_cat=0
split_feature=40 1 38 39
split_gain=3.55484 1.70987 1.06955 0.451764
threshold=77.800000000000011 64.500000000000014 46.250000000000007 1.9100000000000001
decision_type=2 2 2 2
left_child=1 -1 -2 -3
right_child=2 3 -4 -5
leaf_value=0.01219830569169633 0 0.0016799097805174363 -0.015427825494029062 -0.0057509140463015383
leaf_weight=4.4832993149757412 2.4512291401624662 4.6212344840168935 5.7947368323802948 3.7714411914348602
leaf_count=25 13 22 86 22
internal_value=0 0.00337341 -0.0113721 0
internal_weight=0 12.876 8.24597 8.39268
internal_count=168 69 99 44
is_linear=0
shrinkage=0.0186989


Tree=127
num_leaves=4
num_cat=0
split_feature=40 1 38
split_gain=3.471 1.66166 0.665291
threshold=75.600000000000009 66.500000000000014 46.250000000000007
decision_type=2 2 2
left_child=1 -1 -2
right_child=2 -3 -4
leaf_value=0.011726973866616886 0 0 -0.013637399415620768
leaf_weight=5.0012032240629214 2.6148865371942502 6.940988190472126 6.474875770509243
leaf_count=28 14 35 91
internal_value=0 0.00383711 -0.0105591
internal_weight=0 11.9422 9.08976
internal_count=168 63 105
is_linear=0
shrinkage=0.0186989


Tree=128
num_leaves=5
num_cat=0
split_feature=40 3 42 38
split_gain=2.24691 1.76249 1.54944 1.24173
threshold=80.200000000000017 5.5000000000000009 1.0000000180025095e-35 46.250000000000007
decision_type=2 2 2 2
left_child=1 2 -1 -2
right_child=3 -3 -4 -5
leaf_value=0 0 -0.0041403523741156681 0.014036993912471004 -0.014158665048792565
leaf_weight=4.7312753088772315 1.9829818382859219 3.652319833636283 5.7636134922504425 4.7209254465997219
leaf_count=28 10 20 29 75
internal_value=0 0.00330508 0.00798316 -0.00927404
internal_weight=0 14.1472 10.4949 6.70391
internal_count=162 77 57 85
is_linear=0
shrinkage=0.0186989


Tree=129
num_leaves=5
num_cat=0
split_feature=40 3 42 38
split_gain=2.17248 1.71311 1.50435 1.22497
threshold=80.200000000000017 5.5000000000000009 1.0000000180025095e-35 46.250000000000007
decision_type=2 2 2 2
left_child=1 2 -1 -2
right_child=3 -3 -4 -5
leaf_value=0 0 -0.0040754490969374443 0.01383828231271461 -0.014070405618678856
leaf_weight=4.7312753088772315 1.9829818382859219 3.6500792801380149 5.7453035563230515 4.6657556034624577
leaf_count=28 10 20 29 75
internal_value=0 0.00322613 0.00785957 -0.00917268
internal_weight=0 14.1267 10.4766 6.64874
internal_count=162 77 57 85
is_linear=0
shrinkage=0.0186989


Tree=130
num_leaves=5
num_cat=0
split_feature=41 1 1 40
split_gain=2.11269 1.34882 1.18409 0.0185749
threshold=49.400000000000006 67.500000000000014 63.500000000000007 99.050000000000011
decision_type=2 2 2 2
left_child=1 -1 -2 -4
right_child=2 -3 3 -5
leaf_value=0.012067969954226657 0 0 -0.014170678331227801 0
leaf_weight=4.2094374001026171 3.6775835156440717 7.3406103402376175 4.0982874371111393 1.3746560513973234
leaf_count=22 32 34 49 25
internal_value=0 0.00429392 -0.00728434 -0.0124094
internal_weight=0 11.55 9.15053 5.47294
internal_count=162 56 106 74
is_linear=0
shrinkage=0.0186989


Tree=131
num_leaves=5
num_cat=0
split_feature=40 3 42 38
split_gain=2.09393 1.67499 1.43859 1.19548
threshold=80.200000000000017 5.5000000000000009 1.0000000180025095e-35 46.250000000000007
decision_type=2 2 2 2
left_child=1 2 -1 -2
right_child=3 -3 -4 -5
leaf_value=0 0 -0.0040469993573565141 0.013625268069888362 -0.01396035222598415
leaf_weight=4.7145029343664664 1.9830287471413601 3.6376714035868636 5.714209571480751 4.5933190211653709
leaf_count=28 10 20 29 75
internal_value=0 0.00315213 0.00776216 -0.00906636
internal_weight=0 14.0664 10.4287 6.57635
internal_count=162 77 57 85
is_linear=0
shrinkage=0.0186989


Tree=132
num_leaves=6
num_cat=0
split_feature=40 36 41 37 1
split_gain=1.7408 1.80555 1.58451 0.724032 0.609813
threshold=86.500000000000014 3.0950000000000002 29.150000000000002 92.500000000000014 66.500000000000014
decision_type=2 2 2 2 2
left_child=1 2 -1 -2 -4
right_child=3 -3 4 -5 -6
leaf_value=0.0080548025332408801 0 0.013252782970809791 0 -0.014061481353248379 -0.0094938748729137094
leaf_weight=3.422054752707484 1.5105577893555153 3.4908570013940325 2.9659764990210515 3.3888691775500774 5.081954050809145
leaf_count=18 22 23 18 48 32
internal_value=0 0.00227831 0 -0.00983308 -0.00585847
internal_weight=0 14.9608 11.47 4.89943 8.04793
internal_count=161 91 68 70 50
is_linear=0
shrinkage=0.0186989


Tree=133
num_leaves=6
num_cat=0
split_feature=40 36 41 37 1
split_gain=1.69423 1.74068 1.53435 0.712138 0.593162
threshold=86.500000000000014 3.0950000000000002 29.150000000000002 92.500000000000014 66.500000000000014
decision_type=2 2 2 2 2
left_child=1 2 -1 -2 -4
right_child=3 -3 4 -5 -6
leaf_value=0.0079488278188027759 0 0.013000941519632946 0 -0.013954254450193196 -0.0093550338313860351
leaf_weight=3.4104430526495007 1.5105577893555153 3.5027185417711726 2.9659764990210515 3.3556887172162533 5.0694040879607201
leaf_count=18 22 23 18 48 32
internal_value=0 0.00224917 0 -0.00972985 -0.00576222
internal_weight=0 14.9485 11.4458 4.86625 8.03538
internal_count=161 91 68 70 50
is_linear=0
shrinkage=0.0186989


Tree=134
num_leaves=6
num_cat=0
split_feature=40 36 41 37 1
split_gain=1.64888 1.67823 1.48576 0.700401 0.576972
threshold=86.500000000000014 3.0950000000000002 29.150000000000002 92.500000000000014 66.500000000000014
decision_type=2 2 2 2 2
left_child=1 2 -1 -2 -4
right_child=3 -3 4 -5 -6
leaf_value=0.007844150483770046 0 0.012754795637358252 0 -0.013847382198323417 -0.0092181212692782014
leaf_weight=3.3989446461200741 1.5105577893555153 3.5142955258488646 2.9659764990210515 3.3230036795139313 5.0569673031568527
leaf_count=18 22 23 18 48 32
internal_value=0 0.00222042 0 -0.0096273 -0.0056674
internal_weight=0 14.9362 11.4219 4.83356 8.02294
internal_count=161 91 68 70 50
is_linear=0
shrinkage=0.0186989


Tree=135
num_leaves=6
num_cat=0
split_feature=40 1 41 41 37
split_gain=1.6047 1.63471 0.993746 0.899575 0.68882
threshold=86.500000000000014 67.500000000000014 37.20000000000001 49.400000000000006 92.500000000000014
decision_type=2 2 2 2 2
left_child=1 3 -3 -1 -2
right_child=4 2 -4 -5 -6
leaf_value=0.015057706221358724 0 0.0010358942350680964 -0.0090813999468791033 0 -0.01374086808318776
leaf_weight=3.5859968662261981 1.5105577893555153 4.0228834450244904 3.8331196643412113 3.4817764237523079 3.2908068895339966
leaf_count=20 22 18 30 23 48
internal_value=0 0.00219207 -0.00153973 0.00905802 -0.00952545
internal_weight=0 14.9238 7.856 7.06777 4.80136
internal_count=161 91 48 43 70
is_linear=0
shrinkage=0.0186989


Tree=136
num_leaves=4
num_cat=0
split_feature=42 38 3
split_gain=3.19229 1.69456 0.95054
threshold=1.0000000180025095e-35 48.650000000000006 4.5000000000000009
decision_type=2 2 2
left_child=1 -1 -2
right_child=2 -3 -4
leaf_value=0 0.012316149175840575 -0.014376272859639534 0
leaf_weight=5.246626541018486 5.4089284874498844 4.9306713119149208 3.3122630082070827
leaf_count=26 32 77 22
internal_value=0 -0.00710912 0.00785916
internal_weight=0 10.1773 8.72119
internal_count=157 103 54
is_linear=0
shrinkage=0.0186989


Tree=137
num_leaves=4
num_cat=0
split_feature=42 38 3
split_gain=3.09247 1.66575 0.919948
threshold=1.0000000180025095e-35 48.650000000000006 4.5000000000000009
decision_type=2 2 2
left_child=1 -1 -2
right_child=2 -3 -4
leaf_value=0 0.012114865221149415 -0.014288198470799839 0
leaf_weight=5.246626541018486 5.4053509198129177 4.8723141588270664 3.3122630082070827
leaf_count=26 32 77 22
internal_value=0 -0.0070246 0.007728
internal_weight=0 10.1189 8.71761
internal_count=157 103 54
is_linear=0
shrinkage=0.0186989


Tree=138
num_leaves=4
num_cat=0
split_feature=42 38 9
split_gain=2.99575 1.63733 0.817481
threshold=1.0000000180025095e-35 48.650000000000006 1.0000000180025095e-35
decision_type=2 2 2
left_child=1 -1 -2
right_child=2 -3 -4
leaf_value=0 0.011589236702097204 -0.01420021576368055 0
leaf_weight=5.246626541018486 5.5541082695126534 4.8148563019931316 3.1598552316427231
leaf_count=26 35 77 19
internal_value=0 -0.00694078 0.00759908
internal_weight=0 10.0615 8.71396
internal_count=157 103 54
is_linear=0
shrinkage=0.0186989


Tree=139
num_leaves=4
num_cat=0
split_feature=42 38 3
split_gain=2.90341 1.60929 0.896036
threshold=1.0000000180025095e-35 48.650000000000006 4.5000000000000009
decision_type=2 2 2
left_child=1 -1 -2
right_child=2 -3 -4
leaf_value=0 0.011810582957305702 -0.014112322129775338 0
leaf_weight=5.246626541018486 5.398862149566412 4.7582858242094517 3.303018856793642
leaf_count=26 32 77 22
internal_value=0 -0.00685767 0.00747921
internal_weight=0 10.0049 8.70188
internal_count=157 103 54
is_linear=0
shrinkage=0.0186989


Tree=140
num_leaves=5
num_cat=0
split_feature=28 3 40 42
split_gain=1.84362 2.01293 1.58098 0.804669
threshold=1.0000000180025095e-35 5.5000000000000009 69.450000000000017 1.0000000180025095e-35
decision_type=2 2 2 2
left_child=1 2 -1 -4
right_child=-2 -3 3 -5
leaf_value=0.0070307594264665844 0.0091668813226387941 -0.013635198354859749 -0.010890527597330349 0
leaf_weight=5.2287409752607399 2.9549956992268553 5.2982365638017646 4.0570946000516415 2.1678511165082455
leaf_count=27 19 48 55 15
internal_value=0 -0.0047202 0 -0.00626648
internal_weight=0 16.7519 11.4537 6.22495
internal_count=164 145 97 70
is_linear=0
shrinkage=0.0186989


Tree=141
num_leaves=7
num_cat=0
split_feature=9 3 40 41 41 40
split_gain=1.7729 1.89741 2.47825 0.325438 0.249755 0.175238
threshold=1.0000000180025095e-35 5.5000000000000009 70.500000000000014 39.750000000000007 58.300000000000004 77.300000000000011
decision_type=2 2 2 2 2 2
left_child=1 2 -1 -2 -4 -3
right_child=3 5 4 -5 -6 -7
leaf_value=0.017144515436011358 0 -0.0078480618608135697 2.9679456416658762e-05 -0.012429628710780082 -0.0060910813098966473 0
leaf_weight=4.2750591561198252 2.4814397990703574 2.6240347921848297 1.8623753376305106 4.2339380867779255 1.7913481965661047 2.3792674355208874
leaf_count=23 11 14 14 42 30 30
internal_value=0 0.00141213 0.00808731 -0.00928347 0 -0.00492473
internal_weight=0 12.9321 7.92878 6.71538 3.65372 5.0033
internal_count=164 111 67 53 44 44
is_linear=0
shrinkage=0.0186989


Tree=142
num_leaves=6
num_cat=0
split_feature=28 3 9 37 39
split_gain=1.78971 1.91479 1.51529 2.06824 0.016746
threshold=1.0000000180025095e-35 5.5000000000000009 1.0000000180025095e-35 70.500000000000014 2.6100000000000003
decision_type=2 2 2 2 2
left_child=1 2 3 -1 -5
right_child=-2 -3 -4 4 -6
leaf_value=0.016038486840749547 0.0090418756340840609 -0.01336911788582445 -0.0080575872910904362 0 -0.0014937331127078883
leaf_weight=3.0312882885336929 2.9484078027307978 5.2679579816758624 4.4986373409628868 1.7775542177259924 2.0618803724646568
leaf_count=17 19 48 36 16 28
internal_value=0 -0.00465413 0 0.00520321 0
internal_weight=0 16.6373 11.3694 6.87072 3.83943
internal_count=164 145 97 61 44
is_linear=0
shrinkage=0.0186989


Tree=143
num_leaves=6
num_cat=0
split_feature=28 3 9 37 39
split_gain=1.74074 1.85368 1.46231 2.0187 0.016272
threshold=1.0000000180025095e-35 5.5000000000000009 1.0000000180025095e-35 70.500000000000014 2.6100000000000003
decision_type=2 2 2 2 2
left_child=1 2 3 -1 -5
right_child=-2 -3 -4 4 -6
leaf_value=0.015842392661589794 0.0088930303139000688 -0.013195112306182982 -0.0079400071831585151 0 -0.001473080386037415
leaf_weight=3.0185068473219925 2.9510878585278979 5.245253659784793 4.488315537571907 1.7775542177259924 2.0595976263284683
leaf_count=17 19 48 36 16 28
internal_value=0 -0.00460062 0 0.00509924 0
internal_weight=0 16.5892 11.344 6.85566 3.83715
internal_count=164 145 97 61 44
is_linear=0
shrinkage=0.0186989


Tree=144
num_leaves=6
num_cat=0
split_feature=40 36 39 36 48
split_gain=1.92279 1.57635 1.71309 1.79279 0.522878
threshold=86.500000000000014 3.0300000000000007 2.3150000000000004 2.0900000000000003 3.5000000000000004
decision_type=2 2 2 2 2
left_child=1 2 3 -1 -2
right_child=4 -3 -4 -5 -6
leaf_value=0 -0.012541874283661667 0.014571383636257068 -0.0090788358578492642 0.014006256536275172 0
leaf_weight=4.4136576540768164 2.9629567600786677 3.4532120898365966 3.553355995565652 3.9570662155747414 1.450399827212095
leaf_count=23 47 25 28 21 18
internal_value=0 0.00434866 0 0.00539229 -0.00864309
internal_weight=0 15.3773 11.9241 8.37072 4.41336
internal_count=162 97 72 44 65
is_linear=0
shrinkage=0.0186989


Tree=145
num_leaves=6
num_cat=0
split_feature=40 36 39 36 48
split_gain=1.86169 1.52564 1.65352 1.74509 0.513827
threshold=86.500000000000014 3.0300000000000007 2.3150000000000004 2.0900000000000003 3.5000000000000004
decision_type=2 2 2 2 2
left_child=1 2 3 -1 -2
right_child=4 -3 -4 -5 -6
leaf_value=0 -0.012441189741411503 0.01429835078998578 -0.0089566520970903625 0.013796792262129582 0
leaf_weight=4.4136576540768164 2.9358892403542987 3.4639834575355044 3.5422557443380347 3.9506248012185097 1.450399827212095
leaf_count=23 47 25 28 21 18
internal_value=0 0.00426418 0 0.00528018 -0.00855059
internal_weight=0 15.3705 11.9065 8.36428 4.38629
internal_count=162 97 72 44 65
is_linear=0
shrinkage=0.0186989


Tree=146
num_leaves=6
num_cat=0
split_feature=40 36 39 36 48
split_gain=1.80237 1.47679 1.59593 1.69875 0.504904
threshold=86.500000000000014 3.0300000000000007 2.3150000000000004 2.0900000000000003 3.5000000000000004
decision_type=2 2 2 2 2
left_child=1 2 3 -1 -2
right_child=4 -3 -4 -5 -6
leaf_value=0 -0.012340873412611073 0.014031263639490718 -0.0088358895620532507 0.013590782441555559 0
leaf_weight=4.4136576540768164 2.909232895821332 3.4745190031826487 3.531316388398408 3.9441019631922245 1.450399827212095
leaf_count=23 47 25 28 21 18
internal_value=0 0.00418104 0 0.00516988 -0.00845876
internal_weight=0 15.3636 11.8891 8.35776 4.35963
internal_count=162 97 72 44 65
is_linear=0
shrinkage=0.0186989


Tree=147
num_leaves=6
num_cat=0
split_feature=40 36 41 48 37
split_gain=1.74478 1.4543 1.79791 0.496108 0.0260411
threshold=86.500000000000014 2.5050000000000003 49.400000000000006 3.5000000000000004 62.750000000000007
decision_type=2 2 2 2 2
left_child=1 4 -3 -2 -1
right_child=3 2 -4 -5 -6
leaf_value=0 -0.012240928949271214 0.018590026470182958 0 0 -0.0013658529056208603
leaf_weight=3.7427519187331217 2.8829814866185179 3.502126418054103 3.7932403087615967 1.450399827212095 4.3184051141142845
leaf_count=19 47 19 32 18 27
internal_value=0 0.00409923 0.00993759 -0.00836761 0
internal_weight=0 15.3565 7.29537 4.33338 8.06116
internal_count=162 97 51 65 46
is_linear=0
shrinkage=0.0186989


Tree=148
num_leaves=7
num_cat=0
split_feature=42 39 36 36 36 3
split_gain=1.51635 1.22624 1.26313 1.05476 0.892888 0.0801758
threshold=1.0000000180025095e-35 1.8400000000000001 3.0950000000000002 3.4750000000000005 2.1150000000000007 3.5000000000000004
decision_type=2 2 2 2 2 2
left_child=1 -1 -3 -4 -2 -6
right_child=4 2 3 -5 5 -7
leaf_value=0.002541053639429343 0 -0.013204286425520061 0.0096972084184037809 -0.0081824597886609261 0.012620357417096672 0
leaf_weight=2.2268293946981439 3.1418124064803123 5.2972214110195619 1.7485776543617251 1.7002848759293554 3.8401084393262863 3.1861617974936962
leaf_count=11 19 59 17 24 23 21
internal_value=0 -0.00383027 -0.00789346 0 0.00579991 0.00941841
internal_weight=0 10.9729 8.74608 3.44886 10.1681 7.02627
internal_count=174 111 100 41 63 44
is_linear=0
shrinkage=0.0186989


Tree=149
num_leaves=6
num_cat=0
split_feature=40 1 41 37 41
split_gain=1.72902 1.61605 1.07785 0.646459 0.540895
threshold=86.500000000000014 67.500000000000014 37.20000000000001 92.500000000000014 49.400000000000006
decision_type=2 2 2 2 2
left_child=1 4 -3 -2 -1
right_child=3 2 -4 -5 -6
leaf_value=0.014997538242266628 0 0.0039550747203083905 -0.0076965431661575046 -0.012979161270049552 0
leaf_weight=3.7894698008894983 1.457738522440194 4.6101392209529859 4.4338791966438293 3.0345578603446484 3.7730666473507881
leaf_count=22 23 21 37 47 24
internal_value=0 0.00361734 0 -0.00866934 0.00985884
internal_weight=0 16.6066 9.04402 4.4923 7.56254
internal_count=174 104 58 70 46
is_linear=0
shrinkage=0.0186989


Tree=150
num_leaves=6
num_cat=0
split_feature=40 1 41 41 48
split_gain=1.68475 1.57711 1.04542 0.51843 0.496157
threshold=86.500000000000014 67.500000000000014 37.20000000000001 49.400000000000006 3.5000000000000004
decision_type=2 2 2 2 2
left_child=1 3 -3 -1 -2
right_child=4 2 -4 -5 -6
leaf_value=0.014834218322105953 -0.012368155571597695 0.0038931630296378315 -0.0075948914814886808 0 0
leaf_weight=3.765964560210711 2.9860387071967116 4.6048697382211667 4.4168919660151005 3.7730666473507881 1.47848130390048
leaf_count=22 50 21 37 24 20
internal_value=0 0.00358243 0 0.00975667 -0.0085714
internal_weight=0 16.5608 9.02176 7.53903 4.46452
internal_count=174 104 58 46 70
is_linear=0
shrinkage=0.0186989


Tree=151
num_leaves=6
num_cat=0
split_feature=40 36 40 41 48
split_gain=1.64328 1.51711 1.46881 0.922239 0.48745
threshold=86.500000000000014 2.5050000000000003 55.150000000000006 49.400000000000006 3.5000000000000004
decision_type=2 2 2 2 2
left_child=1 2 -1 -3 -2
right_child=4 3 -4 -5 -6
leaf_value=0.0055869955853756195 -0.01226933308765946 0.015909496328423312 -0.0083695605434189434 0 0
leaf_weight=4.0886531397700363 2.9585923682898274 3.6567455381155005 4.69668785110116 4.0734025426208973 1.47848130390048
leaf_count=21 50 20 29 34 20
internal_value=0 0.003548 0 0.00948121 -0.00848096
internal_weight=0 16.5155 8.78534 7.73015 4.43707
internal_count=174 104 50 54 70
is_linear=0
shrinkage=0.0186989


Tree=152
num_leaves=5
num_cat=0
split_feature=41 3 9 40
split_gain=1.59186 1.64561 1.92522 0.508825
threshold=59.500000000000007 5.5000000000000009 1.0000000180025095e-35 75.600000000000009
decision_type=2 2 2 2
left_child=1 2 -1 -2
right_child=3 -3 -4 -5
leaf_value=0.014508142197572377 0 -0.0029526719861710394 0 -0.01185630101761407
leaf_weight=5.9535984732210654 1.4234992489218701 4.4503341205418101 4.5290106385946274 3.4771162196993828
leaf_count=36 9 30 28 65
internal_value=0 0.00327969 0.00795166 -0.00844842
internal_weight=0 14.9329 10.4826 4.90062
internal_count=168 94 64 74
is_linear=0
shrinkage=0.0186989


Tree=153
num_leaves=5
num_cat=0
split_feature=41 3 9 40
split_gain=1.53717 1.5955 1.86918 0.500827
threshold=59.500000000000007 5.5000000000000009 1.0000000180025095e-35 75.600000000000009
decision_type=2 2 2 2
left_child=1 2 -1 -2
right_child=3 -3 -4 -5
leaf_value=0.014282023838089686 0 -0.0029053973764777549 0 -0.011769215252174142
leaf_weight=5.943765655159952 1.4234992489218701 4.4473545141518107 4.5290106385946274 3.4418391771614552
leaf_count=36 9 30 28 65
internal_value=0 0.00319404 0.00781251 -0.00836202
internal_weight=0 14.9201 10.4728 4.86534
internal_count=168 94 64 74
is_linear=0
shrinkage=0.0186989


Tree=154
num_leaves=5
num_cat=0
split_feature=41 3 9 40
split_gain=1.4843 1.5469 1.81484 0.492923
threshold=59.500000000000007 5.5000000000000009 1.0000000180025095e-35 75.600000000000009
decision_type=2 2 2 2
left_child=1 2 -1 -2
right_child=3 -3 -4 -5
leaf_value=0.014059523062540043 0 -0.0028588594064555403 0 -0.011682302789161211
leaf_weight=5.9339211918413657 1.4234992489218701 4.4444181099534026 4.5290106385946274 3.4071188680827618
leaf_count=36 9 30 28 65
internal_value=0 0.00310977 0.00767563 -0.00827612
internal_weight=0 14.9073 10.4629 4.83062
internal_count=168 94 64 74
is_linear=0
shrinkage=0.0186989


Tree=155
num_leaves=5
num_cat=0
split_feature=41 3 9 40
split_gain=1.43321 1.49976 1.76215 0.485112
threshold=59.500000000000007 5.5000000000000009 1.0000000180025095e-35 75.600000000000009
decision_type=2 2 2 2
left_child=1 2 -1 -2
right_child=3 -3 -4 -5
leaf_value=0.013840562507557512 0 -0.0028130474748089586 0 -0.011595567266333455
leaf_weight=5.9240731559693831 1.4234992489218701 4.4415242709219447 4.5290106385946274 3.3729468882083893
leaf_count=36 9 30 28 65
internal_value=0 0.00302685 0.00754099 -0.0081907
internal_weight=0 14.8946 10.4531 4.79645
internal_count=168 94 64 74
is_linear=0
shrinkage=0.0186989


Tree=156
num_leaves=4
num_cat=0
split_feature=41 3 9
split_gain=2.79365 1.40725 1.51838
threshold=59.500000000000007 5.5000000000000009 1.0000000180025095e-35
decision_type=2 2 2
left_child=1 2 -1
right_child=-2 -3 -4
leaf_value=0.015412574838231207 -0.009873629925250137 0 0
leaf_weight=6.0158079564571398 4.1562301423400632 4.2803087905049315 4.0425063669681549
leaf_count=37 69 30 24
internal_value=0 0.00601809 0.00985611
internal_weight=0 14.3386 10.0583
internal_count=160 91 61
is_linear=0
shrinkage=0.0186989


Tree=157
num_leaves=5
num_cat=0
split_feature=41 3 9 37
split_gain=2.70801 1.37219 1.47008 0.00918146
threshold=59.500000000000007 5.5000000000000009 1.0000000180025095e-35 104.50000000000001
decision_type=2 2 2 2
left_child=1 2 -1 -2
right_child=3 -3 -4 -5
leaf_value=0.015186408546626185 -0.01128757149424572 0 0 0
leaf_weight=5.9997617006301898 2.9800568036735049 4.2803087905049315 4.0425063669681549 1.1436672061681745
leaf_count=37 49 30 24 20
internal_value=0 0.00590825 0.00970775 -0.00977901
internal_weight=0 14.3226 10.0423 4.12372
internal_count=160 91 61 69
is_linear=0
shrinkage=0.0186989


Tree=158
num_leaves=5
num_cat=0
split_feature=41 3 9 37
split_gain=2.63116 1.33808 1.42328 0.00622767
threshold=59.500000000000007 5.5000000000000009 1.0000000180025095e-35 104.50000000000001
decision_type=2 2 2 2
left_child=1 2 -1 -2
right_child=3 -3 -4 -5
leaf_value=0.014963560925737814 -0.011195850626309673 0 0 0
leaf_weight=5.9837804101407546 2.9531510155647984 4.2803087905049315 4.0425063669681549 1.1436672061681745
leaf_count=37 49 30 24 20
internal_value=0 0.00580017 0.00956171 -0.00970109
internal_weight=0 14.3066 10.0263 4.09682
internal_count=160 91 61 69
is_linear=0
shrinkage=0.0186989


Tree=159
num_leaves=5
num_cat=0
split_feature=41 3 9 37
split_gain=2.55649 1.30487 1.37792 0.00333702
threshold=59.500000000000007 5.5000000000000009 1.0000000180025095e-35 104.50000000000001
decision_type=2 2 2 2
left_child=1 2 -1 -2
right_child=3 -3 -4 -5
leaf_value=0.014743962379783974 -0.011104492288608469 0 0 0
leaf_weight=5.9678728580474871 2.9266484826803199 4.2803087905049315 4.0425063669681549 1.1436672061681745
leaf_count=37 49 30 24 20
internal_value=0 0.00569381 0.00941795 -0.00962374
internal_weight=0 14.2907 10.0104 4.07032
internal_count=160 91 61 69
is_linear=0
shrinkage=0.0186989


Tree=160
num_leaves=6
num_cat=0
split_feature=3 41 1 1 1
split_gain=1.97876 2.42351 1.03772 0.748062 0.364375
threshold=5.5000000000000009 41.150000000000006 67.500000000000014 64.500000000000014 72.500000000000014
decision_type=2 2 2 2 2
left_child=1 -1 -2 -3 -5
right_child=2 3 -4 4 -6
leaf_value=0.01351196452891245 0 0.0033116975026367202 -0.015726501920063567 -0.010998472968360108 0
leaf_weight=5.7581799626350421 3.5293983854353419 2.1959376409649849 2.4617477040737867 2.4048217609524727 1.6066998615860937
leaf_count=31 31 18 24 30 22
internal_value=0 0.00494857 -0.00766553 -0.000177527 -0.00711468
internal_weight=0 11.9656 5.99115 6.20746 4.01152
internal_count=156 101 55 70 52
is_linear=0
shrinkage=0.0186989


Tree=161
num_leaves=6
num_cat=0
split_feature=3 41 1 1 1
split_gain=1.92241 2.35436 1.01378 0.728315 0.356994
threshold=5.5000000000000009 41.150000000000006 67.500000000000014 64.500000000000014 72.500000000000014
decision_type=2 2 2 2 2
left_child=1 -1 -2 -3 -5
right_child=2 3 -4 4 -6
leaf_value=0.013343191732972538 0 0.0032587444708408386 -0.015576559735422059 -0.010897473510022427 0
leaf_weight=5.7293642982840556 3.5293983854353419 2.1990003772079945 2.4445451069623232 2.3871047645807271 1.6066998615860937
leaf_count=31 31 18 24 30 22
internal_value=0 0.00487813 -0.00757533 -0.000125112 -0.0070342
internal_weight=0 11.9222 5.97394 6.19281 3.9938
internal_count=156 101 55 70 52
is_linear=0
shrinkage=0.0186989


Tree=162
num_leaves=6
num_cat=0
split_feature=3 41 1 1 1
split_gain=1.86771 2.28731 0.990367 0.709 0.349751
threshold=5.5000000000000009 41.150000000000006 67.500000000000014 64.500000000000014 72.500000000000014
decision_type=2 2 2 2 2
left_child=1 -1 -2 -3 -5
right_child=2 3 -4 4 -6
leaf_value=0.013176565764814151 0 0.0032066861862566206 -0.015427932862322783 -0.010797157148216541 0
leaf_weight=5.7007099688053149 3.5293983854353419 2.2020131200551987 2.4275222439318895 2.3696220256388192 1.6066998615860937
leaf_count=31 31 18 24 30 22
internal_value=0 0.00480861 -0.00748628 -7.33748e-05 -0.00695451
internal_weight=0 11.879 5.95692 6.17834 3.97632
internal_count=156 101 55 70 52
is_linear=0
shrinkage=0.0186989


Tree=163
num_leaves=6
num_cat=0
split_feature=3 41 1 1 1
split_gain=1.81461 2.22231 0.967472 0.69011 0.342641
threshold=5.5000000000000009 41.150000000000006 67.500000000000014 64.500000000000014 72.500000000000014
decision_type=2 2 2 2 2
left_child=1 -1 -2 -3 -5
right_child=2 3 -4 4 -6
leaf_value=0.013012040088840137 0 0.0031555075118852409 -0.015280606111556714 -0.010697520955259783 0
leaf_weight=5.6722250580787676 3.5293983854353419 2.2049767561256886 2.4106780346482992 2.35237092897296 1.6066998615860937
leaf_count=31 31 18 24 30 22
internal_value=0 0.00473998 -0.00739834 -2.23071e-05 -0.00687562
internal_weight=0 11.8363 5.94008 6.16405 3.95907
internal_count=156 101 55 70 52
is_linear=0
shrinkage=0.0186989


Tree=164
num_leaves=5
num_cat=0
split_feature=9 41 1 36
split_gain=1.38504 2.12573 1.47364 1.4252
threshold=1.0000000180025095e-35 62.350000000000009 66.500000000000014 2.5050000000000003
decision_type=2 2 2 2
left_child=1 3 -2 -1
right_child=2 -3 -4 -5
leaf_value=0 0 -0.008669749154505588 -0.014083113672413508 0.015697689924500314
leaf_weight=5.1172895394265669 2.4345040246844283 2.3627129774540654 4.1767913121730089 3.833672508597374
leaf_count=30 19 47 35 30
internal_value=0 0.00227617 -0.00769408 0.00784127
internal_weight=0 11.3137 6.6113 8.95096
internal_count=161 107 54 60
is_linear=0
shrinkage=0.0186989


Tree=165
num_leaves=6
num_cat=0
split_feature=41 1 41 37 37
split_gain=1.24226 1.19381 0.960385 1.38779 0.185353
threshold=62.350000000000009 66.500000000000014 29.150000000000002 73.750000000000014 77.500000000000014
decision_type=2 2 2 2 2
left_child=1 4 -3 -4 -1
right_child=-2 2 3 -5 -6
leaf_value=0 -0.010862851758101751 0.0022628682560449126 -0.016006922830808634 0 0.011260478980122451
leaf_weight=2.9725838750600841 3.0597598720341912 2.9400452226400358 2.6960953660309315 3.1609216518700123 3.0583351217210293
leaf_count=21 61 14 17 29 19
internal_value=0 0.000749581 -0.00184255 -0.00738014 0.00773315
internal_weight=0 14.828 8.79706 5.85702 6.03092
internal_count=161 100 60 46 40
is_linear=0
shrinkage=0.0186989


Tree=166
num_leaves=5
