tree
version=v4
num_class=1
num_tree_per_iteration=1
label_index=0
max_feature_idx=48
objective=binary sigmoid:1
feature_names=Sex Age_at_diagnosis Binary_diagnosis Final_diagnosis TOBACCO Comorbidities Pathology_Pattern_Binary Multidsciplinary_committee Pirfenidone Nintedanib Antifibrotic_Drug Prednisone Mycophenolate Extrapulmonary_affectation Associated_lung_cancer Other_cancer Blood_count_abnormality_at_diagnosis Anemia Thrombocytopenia Thrombocytosis Lymphocytosis Lymphopenia Neutrophilia Neutropenia Leukocytosis Leukopenia Hematologic_Disease Liver_abnormality LDH ALT AST ALP GGT Transaminitis Cholestasis Liver_disease FVC_(L)_at_diagnosis FVC_(%)_at_diagnosis DLCO_(%)_at_diagnosis FVC_(L)_1_year_after_diagnosis FVC_(%)_1_year_after_diagnosis DLCO_(%)_1_year_after_diagnosis RadioWorsening2y Type_of_family_history 1st_degree_relative 2nd_degree_relative More_than_1_relative Genetic_mutation_studied_in_patient Severity_of_telomere_shortening
feature_infos=[0:1] [36:92] [0:1] [1:18] [0:2] [0:1] [0:1] [0:1] [0:1] [0:1] [0:1] [0:1] [0:1] [0:1] none [0:1] [0:1] [0:1] none none none none none none none none none [0:1] [0:1] [0:1] [0:1] none [0:1] [0:1] [0:1] none [0.85999999999999999:5.6500000000000004] [34:150] [18.899999999999999:145] [0.69999999999999996:5.8499999999999996] [28:143] [-9:118.59999999999999] [0:3] [0:1] [0:1] none [0:1] [0:1] [0:6]
tree_sizes=961 753 759 856 859 854 954 856 861 857 853 1068 1055 1062 962 966 1065 859 968 856 754 958 866 965 955 965 863 862 760 1062 1038 967

Tree=0
num_leaves=8
num_cat=0
split_feature=40 47 44 39 3 36 40
split_gain=44.4051 9.97869 5.04049 5.56743 3.84973 2.31724 2.67374
threshold=75.600000000000009 1.0000000180025095e-35 1.0000000180025095e-35 2.3150000000000004 2.5000000000000004 2.6950000000000007 92.500000000000014
decision_type=2 2 2 2 2 2 2
left_child=2 5 3 -1 -3 -2 -7
right_child=1 4 -4 -5 -6 6 -8
leaf_value=-0.015306639205720673 -0.49021403123050711 -0.3200264923731887 0.066713886339644202 -0.24734763211573418 -0.123688092769055 -0.28863155449338823 -0.44903670047931032
leaf_weight=5.6630159616470355 7.1403244733810451 4.6781436204910296 6.4016702175140372 3.9394893646240234 4.1857074499130249 4.6781436204910261 4.9243617057800293
leaf_count=23 29 19 26 16 17 19 20
internal_value=-0.247241 -0.356259 -0.0369171 -0.109449 -0.227091 -0.424393 -0.372677
internal_weight=0 25.6067 16.0042 9.60251 8.86385 16.7428 9.60251
internal_count=169 104 65 39 36 68 39
is_linear=0
shrinkage=1


Tree=1
num_leaves=6
num_cat=0
split_feature=42 38 40 40 38
split_gain=67.2527 9.42113 4.09423 1.20463 0.291613
threshold=1.0000000180025095e-35 48.650000000000006 82.500000000000014 88.500000000000014 60.500000000000007
decision_type=2 2 2 2 2
left_child=1 -1 -2 4 -3
right_child=2 3 -4 -5 -6
leaf_value=0.012944897750082217 0.30418074495134911 -0.1851040669830121 0.12321439525877562 -0.23264189778495009 -0.11928073455113827
leaf_weight=6.8405832797288921 11.452775299549101 3.9111615270376223 4.1728466004133216 9.5704033821821195 5.3382447063922882
leaf_count=28 46 16 17 40 22
internal_value=0 -0.138357 0.257382 -0.193172 -0.149486
internal_weight=0 25.6604 15.6256 18.8198 9.24941
internal_count=169 106 63 78 38
is_linear=0
shrinkage=0.150913


Tree=2
num_leaves=6
num_cat=0
split_feature=42 41 27 41 43
split_gain=49.765 6.45631 2.8878 2.12454 1.97659
threshold=1.0000000180025095e-35 48.050000000000004 1.0000000180025095e-35 56.500000000000007 1.0000000180025095e-35
decision_type=2 2 2 2 2
left_child=1 -1 4 -2 -3
right_child=3 2 -4 -5 -6
leaf_value=0.019870340097062462 0.26356224057073219 -0.2368142674003883 -0.063198158324267242 0.13931694570356679 -0.10937831765236938
leaf_weight=5.6075429916381863 10.023845598101614 9.7169901281595248 5.1012189984321585 5.4414564520120612 4.4574445933103553
leaf_count=23 41 42 22 22 19
internal_value=0 -0.122013 -0.163249 0.221485 -0.198224
internal_weight=0 24.8832 19.2757 15.4653 14.1744
internal_count=169 106 83 63 61
is_linear=0
shrinkage=0.150913


Tree=3
num_leaves=7
num_cat=0
split_feature=42 41 43 41 41 41
split_gain=37.6448 5.0968 2.45531 1.90317 1.27445 0.13937
threshold=1.0000000180025095e-35 48.050000000000004 1.0000000180025095e-35 56.500000000000007 65.500000000000014 64.65000000000002
decision_type=2 2 2 2 2 2
left_child=1 -1 5 -2 -4 -3
right_child=3 2 4 -5 -6 -7
leaf_value=0.016902453169418991 0.23700610893732774 -0.22111213774872704 -0.017389979527847842 0.1191029075412058 -0.14167985259158694 -0.16493237444451819
leaf_weight=5.6189112365245846 9.5175467729568464 4.8614431172609347 3.9638482332229605 5.4268152415752402 3.5910323262214661 5.9583561718463898
leaf_count=23 41 22 17 22 16 28
internal_value=0 -0.108297 -0.146541 0.195706 -0.0781112 -0.19266
internal_weight=0 23.9936 18.3747 14.9444 7.55488 10.8198
internal_count=169 106 83 63 33 50
is_linear=0
shrinkage=0.150913


Tree=4
num_leaves=7
num_cat=0
split_feature=42 38 46 41 38 38
split_gain=28.938 5.47573 1.93169 1.79976 0.351389 0.733907
threshold=1.0000000180025095e-35 48.650000000000006 1.0000000180025095e-35 56.500000000000007 64.250000000000014 78.550000000000011
decision_type=2 2 2 2 2 2
left_child=1 -1 4 -2 -3 -6
right_child=3 2 -4 -5 5 -7
leaf_value=0.016865048033878345 0.21826990740251753 -0.20964689060572167 -0.053599788909623663 0.10259214163854372 -0.093245011320314347 -0.1992991612270848
leaf_weight=6.7673453539609936 8.8391034752130491 5.1467737704515475 4.2445715963840476 5.3742075264453879 3.7197685539722443 3.1576396971940994
leaf_count=28 41 25 19 22 18 16
internal_value=0 -0.096781 -0.143937 0.175983 -0.174757 -0.14499
internal_weight=0 23.0361 16.2688 14.2133 12.0242 6.87741
internal_count=169 106 78 63 59 34
is_linear=0
shrinkage=0.150913


Tree=5
num_leaves=7
num_cat=0
split_feature=42 40 40 39 40 37
split_gain=22.4715 4.24958 4.09158 1.85793 4.21441 0.680127
threshold=1.0000000180025095e-35 66.90000000000002 86.500000000000014 2.8150000000000004 88.500000000000014 88.500000000000014
decision_type=2 2 2 2 2 2
left_child=1 -1 -2 5 -5 -3
right_child=2 3 -4 4 -6 -7
leaf_value=0.05436493914040607 0.21076485570239203 -0.21458292460111039 0.022534137607064384 0.034218934723428851 -0.15734450561197091 -0.11422798788516049
leaf_weight=3.9018857330083874 9.7152790725231153 4.3465454280376461 3.6680530458688727 4.5579412430524808 5.8464049100875854 3.4301498532295227
leaf_count=16 48 21 15 21 30 18
internal_value=0 -0.0867793 0.160029 -0.117348 -0.0738432 -0.173151
internal_weight=0 22.0829 13.3833 18.181 10.4043 7.7767
internal_count=169 106 63 90 51 39
is_linear=0
shrinkage=0.150913


Tree=6
num_leaves=8
num_cat=0
split_feature=41 1 9 27 37 48 39
split_gain=14.5075 2.9066 2.596 1.57778 0.569998 0.27395 0.0741463
threshold=48.050000000000004 63.500000000000007 1.0000000180025095e-35 1.0000000180025095e-35 79.65000000000002 1.5000000000000002 2.0100000000000002
decision_type=2 2 2 2 2 2 2
left_child=2 -2 6 4 -3 -6 -1
right_child=1 3 -4 -5 5 -7 -8
leaf_value=0.21182413657415208 0.0050886111507915787 -0.086613029622555529 0.032596224195784083 -0.034213219528947632 -0.19548930435790485 -0.12270191275374659 0.1500353687919149
leaf_weight=3.751032814383505 6.4345716387033489 3.4469457715749723 3.9745175540447235 4.2067850977182379 4.5411673039197922 3.2892370074987411 3.1968866586685181
leaf_count=20 30 18 19 21 26 18 16
internal_value=0 -0.07987 0.131979 -0.115053 -0.144308 -0.167644 0.186922
internal_weight=0 21.9187 10.9224 15.4841 11.2774 7.8304 6.94792
internal_count=168 113 55 83 62 44 36
is_linear=0
shrinkage=0.150913


Tree=7
num_leaves=7
num_cat=0
split_feature=42 40 40 3 48 41
split_gain=16.3989 3.871 3.78404 1.18434 0.887956 0.496051
threshold=1.0000000180025095e-35 69.450000000000017 86.500000000000014 4.5000000000000009 2.5000000000000004 65.500000000000014
decision_type=2 2 2 2 2 2
left_child=1 -1 -2 4 -3 -5
right_child=2 3 -4 5 -6 -7
leaf_value=0.042658036798848699 0.19365524143207785 -0.19386508539903105 0.0027959806151343939 -0.020567125342721794 -0.095366124661626028 -0.10601492601677512
leaf_weight=3.9921347200870541 7.862637326121332 5.7317769229412097 3.3963949829339981 2.9321126490831366 4.1121131032705307 3.5245306491851807
leaf_count=17 46 33 14 15 22 21
internal_value=0 -0.0890748 0.136938 -0.12154 -0.154681 -0.0686738
internal_weight=0 20.2927 11.259 16.3005 9.84389 6.45664
internal_count=168 108 60 91 55 36
is_linear=0
shrinkage=0.150913


Tree=8
num_leaves=7
num_cat=0
split_feature=42 40 41 27 39 36
split_gain=12.9217 3.36721 3.23271 1.76337 0.75664 0.0639423
threshold=1.0000000180025095e-35 86.500000000000014 48.050000000000004 1.0000000180025095e-35 3.6700000000000004 2.4450000000000007
decision_type=2 2 2 2 2 2
left_child=2 -2 -1 4 5 -4
right_child=1 -3 3 -5 -6 -7
leaf_value=0.030241474643814166 0.1855237681171468 0.0023903381588786868 -0.13097506082878532 -0.031539114432434935 -0.068705772577731236 -0.186971154606483
leaf_weight=4.5171377807855633 7.0391964316368121 3.395179808139801 2.6953712403774244 4.3231580406427375 2.4928751289844513 5.2736790478229523
leaf_count=19 46 14 17 23 16 33
internal_value=0 0.126879 -0.0804901 -0.114423 -0.147685 -0.170661
internal_weight=0 10.4344 19.3022 14.7851 10.4619 7.96905
internal_count=168 60 108 89 66 50
is_linear=0
shrinkage=0.150913


Tree=9
num_leaves=7
num_cat=0
split_feature=42 38 40 40 36 38
split_gain=10.2088 3.49868 3.0217 1.60973 0.914332 0.131268
threshold=1.0000000180025095e-35 48.650000000000006 86.500000000000014 79.800000000000011 3.7050000000000005 75.90000000000002
decision_type=2 2 2 2 2 2
left_child=1 -1 -2 -3 5 -5
right_child=2 3 -4 4 -6 -7
leaf_value=0.030709187914228515 0.17890420905031823 -0.014023271979701634 0.0020434479688434619 -0.18431406734947742 -0.051411210493910182 -0.1222824537381836
leaf_weight=5.2367840856313732 6.2637969776988047 2.9353239834308615 3.3941313028335571 5.2929965108633024 2.2271474972367287 2.6858493983745575
leaf_count=23 46 16 14 35 15 19
internal_value=0 -0.0727718 0.117797 -0.114056 -0.142101 -0.165952
internal_weight=0 18.3781 9.65793 13.1413 10.206 7.97885
internal_count=168 108 60 85 69 54
is_linear=0
shrinkage=0.150913


Tree=10
num_leaves=7
num_cat=0
split_feature=42 38 41 48 41 41
split_gain=8.07595 2.82526 1.7181 0.789516 2.93383 1.26421
threshold=1.0000000180025095e-35 48.650000000000006 56.500000000000007 2.5000000000000004 65.500000000000014 75.500000000000014
decision_type=2 2 2 2 2 2
left_child=1 -1 -2 5 -5 -3
right_child=2 3 -4 4 -6 -7
leaf_value=0.026094495641523479 0.1707943119079274 -0.17761260600985865 0.03692102340035254 0.048006177709125762 -0.17343909546520533 -0.032237276197450974
leaf_weight=5.2540388703346279 4.7328976243734378 5.0605328753590566 4.2076780647039413 2.7567276209592819 2.4672054722905159 1.9855696335434911
leaf_count=23 41 38 19 15 18 14
internal_value=0 -0.0657744 0.109428 -0.105136 -0.057865 -0.138237
internal_weight=0 17.5241 8.94058 12.27 5.22393 7.0461
internal_count=168 108 60 85 33 52
is_linear=0
shrinkage=0.150913


Tree=11
num_leaves=9
num_cat=0
split_feature=41 42 43 41 40 37 41 38
split_gain=6.44156 4.66182 2.73597 2.3038 1.98893 1.28421 0.436941 0.00158458
threshold=37.20000000000001 1.0000000180025095e-35 1.0000000180025095e-35 62.350000000000009 86.500000000000014 95.200000000000017 62.350000000000009 36.20000000000001
decision_type=2 2 2 2 2 2 2 2
left_child=7 2 5 -4 -3 6 -2 -1
right_child=1 4 3 -5 -6 -7 -8 -9
leaf_value=0.13118023443341423 -0.20353265198346512 0.17086627020230202 0.076452428035393108 -0.11471894192301023 -0.0036362605508949235 -0.050363950380698769 -0.10479973240243647 0.19159425524397933
leaf_weight=2.3818367868661907 4.1548046320676821 2.5005802139639846 3.3753619715571395 2.302817739546299 3.3636360615491867 3.0528355985879898 2.1286070123314857 1.7846458554267881
leaf_count=19 27 20 17 16 14 24 17 14
internal_value=0 -0.0403246 -0.0847696 -0.00156056 0.0725148 -0.134457 -0.173172 0.162488
internal_weight=0 20.8786 15.0144 5.67818 5.86422 9.33625 6.28341 4.16648
internal_count=168 135 101 33 34 68 44 33
is_linear=0
shrinkage=0.150913


Tree=12
num_leaves=9
num_cat=0
split_feature=36 40 8 48 48 40 37 1
split_gain=3.60369 3.67275 1.65057 1.90114 4.43497 1.93932 1.59291 1.14967
threshold=4.3100000000000014 56.300000000000004 1.0000000180025095e-35 1.5000000000000002 3.5000000000000004 100.50000000000001 86.15000000000002 68.500000000000014
decision_type=2 2 2 2 2 2 2 2
left_child=1 -1 3 5 -5 6 -3 -4
right_child=-2 2 7 4 -6 -7 -8 -9
leaf_value=0.12552858336626216 0.17849199649479505 -0.1439851454277804 0.09269118277095087 0.14077045968916196 -0.11119972159528575 -0.23898675740790484 0.025951505182048897 -0.038200955765085538
leaf_weight=3.2564759999513688 2.1728642284870139 2.6944507360458392 2.6684172078967086 2.4741636887192726 3.959914468228817 2.260521799325943 2.1719045713543892 3.2326364517211914
leaf_count=24 11 19 17 14 27 14 18 24
internal_value=0 -0.0196195 -0.0446732 -0.0734894 -0.0131432 -0.126495 -0.0690289 0.0213734
internal_weight=0 22.7185 19.462 13.561 6.43408 7.12688 4.86636 5.90105
internal_count=168 157 133 92 41 51 37 41
is_linear=0
shrinkage=0.150913


Tree=13
num_leaves=9
num_cat=0
split_feature=36 40 47 4 39 36 40 38
split_gain=2.6505 2.82943 1.39733 2.59295 1.1725 2.39004 1.38122 0.218458
threshold=4.3100000000000014 56.300000000000004 1.0000000180025095e-35 1.5000000000000002 3.4050000000000007 2.4850000000000008 83.500000000000014 53.750000000000007
decision_type=2 2 2 2 2 2 2 2
left_child=1 -1 4 -4 5 7 -7 -3
right_child=-2 2 3 -5 -6 6 -8 -9
leaf_value=0.11367527269525879 0.15243330791389242 -0.080532762212564182 0.11158762003597904 -0.069685452612078647 -0.17200666937058676 0.11714766435012061 -0.040464972643180996 -0.15420662037074293
leaf_weight=3.0813365057110849 2.1813412159681311 2.6521081551909464 3.2083716541528693 3.7611786872148514 2.0335804075002661 2.0750603824853897 2.8446883894503117 2.4181513115763664
leaf_count=24 11 13 19 24 18 16 23 20
internal_value=0 -0.0174099 -0.0394027 0.0139925 -0.0703374 -0.0475195 0.0269118 -0.119001
internal_weight=0 22.0745 18.9931 6.96955 12.0236 9.99001 4.91975 5.07026
internal_count=168 157 133 43 90 72 39 33
is_linear=0
shrinkage=0.150913


Tree=14
num_leaves=8
num_cat=0
split_feature=8 36 40 37 40 40 43
split_gain=2.39637 2.51347 3.29311 4.22964 1.99977 1.45688 1.69197
threshold=1.0000000180025095e-35 2.1150000000000007 109.10000000000001 97.100000000000009 71.600000000000009 83.500000000000014 1.0000000180025095e-35
decision_type=2 2 2 2 2 2 2
left_child=1 -1 3 5 -2 6 -3
right_child=4 2 -4 -5 -6 -7 -8
leaf_value=-0.13076287618258475 0.17097457868353688 -0.053676116255876614 -0.13928384076176151 0.20132793557476078 0.0084175559695144932 -0.12460647206184647 0.12553905590739001
leaf_weight=4.3008629158139291 2.6514234878122798 2.5592964179813844 2.7359215766191474 2.6628879010677338 4.6459157541394234 1.9641816876828668 2.0366155803203583
leaf_count=29 20 19 18 18 31 17 16
internal_value=0 -0.033647 0.00213592 0.0456397 0.0696894 -0.0199196 0.026577
internal_weight=0 16.2598 11.9589 9.22298 7.29734 6.56009 4.59591
internal_count=168 117 88 70 51 52 35
is_linear=0
shrinkage=0.150913


Tree=15
num_leaves=8
num_cat=0
split_feature=42 40 7 27 40 39 39
split_gain=4.69753 2.89403 1.77474 1.33795 1.8543 3.58139 0.226463
threshold=1.0000000180025095e-35 105.50000000000001 1.0000000180025095e-35 1.0000000180025095e-35 92.500000000000014 2.8150000000000004 2.0900000000000003
decision_type=2 2 2 2 2 2 2
left_child=2 6 -1 4 5 -4 -2
right_child=1 -3 3 -5 -6 -7 -8
leaf_value=-0.16615489710577497 0.099362631730486303 -0.040023046831178473 -0.10731147781023211 0.040034068040005713 -0.16642613367673439 0.11767005299829594 0.18567842674417886
leaf_weight=2.3237322643399247 1.7216094732284535 2.3325038105249405 3.8016160354018194 4.521028809249402 2.4993516094982624 2.6006796583533287 3.3389718979597092
leaf_count=17 20 10 24 27 26 16 28
internal_value=0 0.0969489 -0.0478315 -0.0258165 -0.0595752 -0.0150991 0.159891
internal_weight=0 7.39309 15.7464 13.4227 8.90165 6.4023 5.06058
internal_count=168 58 110 93 66 40 48
is_linear=0
shrinkage=0.150913


Tree=16
num_leaves=9
num_cat=0
split_feature=42 38 38 41 36 38 41 37
split_gain=3.69584 1.38005 1.37889 4.85506 1.30066 0.848603 1.61223 1.46095
threshold=1.0000000180025095e-35 53.250000000000007 68.250000000000014 56.500000000000007 2.0900000000000003 60.500000000000007 77.500000000000014 90.500000000000014
decision_type=2 2 2 2 2 2 2 2
left_child=1 4 3 -2 -1 -3 7 -7
right_child=2 5 -4 -5 -6 6 -8 -9
leaf_value=-0.084428086780211228 0.15833674124639963 -0.16775178888699846 0.16835131514069943 -0.16756513209394769 0.050721861076458971 -0.07346791048755337 -0.1626175348530087 0.099690208051676762
leaf_weight=2.2849051356315639 2.5278238654136649 1.9914185404777507 2.8184133544564247 1.5831352621316908 4.8040398843586445 2.5310181193053722 1.9705137163400648 1.7749432511627672
leaf_count=11 35 18 16 7 27 20 20 14
internal_value=0 -0.0425066 0.0892505 0.0310853 0.00615592 -0.0839215 -0.0541756 -0.000820766
internal_weight=0 15.3568 6.92937 4.11096 7.08895 8.26789 6.27648 4.30596
internal_count=168 110 58 42 38 72 54 34
is_linear=0
shrinkage=0.150913


Tree=17
num_leaves=7
num_cat=0
split_feature=42 40 27 40 39 39
split_gain=2.93799 2.1969 1.5282 1.31725 2.23049 0.179606
threshold=1.0000000180025095e-35 105.50000000000001 1.0000000180025095e-35 92.500000000000014 2.8150000000000004 2.0900000000000003
decision_type=2 2 2 2 2 2
left_child=2 5 3 4 -1 -2
right_child=1 -3 -4 -5 -6 -7
leaf_value=-0.1072491960142333 0.08808063946143925 -0.033395054793452693 0.030500102652979613 -0.16216949724861043 0.057006192201916016 0.17330836426265961
leaf_weight=4.2961824536323565 1.4608682021498669 2.3075619488954544 4.8566396683454505 2.581214714795351 3.1521919742226601 2.6730466783046722
leaf_count=29 20 10 29 32 20 28
internal_value=0 0.082833 -0.0381599 -0.0715681 -0.0376857 0.147227
internal_weight=0 6.44148 14.8862 10.0296 7.44837 4.13391
internal_count=168 58 110 81 49 48
is_linear=0
shrinkage=0.150913


Tree=18
num_leaves=8
num_cat=0
split_feature=42 38 40 38 11 43 39
split_gain=2.7646 2.48506 1.6499 1.02199 0.473666 0.423889 0.227593
threshold=1.0000000180025095e-35 53.250000000000007 105.50000000000001 44.100000000000009 1.0000000180025095e-35 1.0000000180025095e-35 2.0900000000000003
decision_type=2 2 2 2 2 2 2
left_child=1 3 6 -1 5 -3 -2
right_child=2 4 -4 -5 -6 -7 -8
leaf_value=-0.028247453048571777 0.074936534331755636 -0.11313775309688927 -0.030873436658655808 0.084500214844874008 -0.16453245466524358 -0.025326542931581635 0.16919870962883204
leaf_weight=3.9581775963306445 1.3144960552453988 2.8291297145187855 1.8506570011377332 3.1819155178964138 2.0121324807405472 2.4556889198720455 2.3977971412241459
leaf_count=19 21 31 8 19 22 18 27
internal_value=0 -0.0406445 0.0833726 0.0223309 -0.101853 -0.0742748 0.13997
internal_weight=0 14.437 5.56295 7.14009 7.29695 5.28482 3.71229
internal_count=165 109 56 38 71 49 48
is_linear=0
shrinkage=0.150913


Tree=19
num_leaves=7
num_cat=0
split_feature=40 37 16 40 39 3
split_gain=1.68503 1.91148 1.42368 1.05911 1.35846 2.22483
threshold=56.300000000000004 101.20000000000002 1.0000000180025095e-35 92.500000000000014 2.5350000000000006 2.5000000000000004
decision_type=2 2 2 2 2 2
left_child=-1 2 3 4 -2 -6
right_child=1 -3 -4 -5 5 -7
leaf_value=0.1028757704917051 -0.11490153833211153 0.070398494870510669 0.052033494573921209 -0.17092236989001405 -0.084601239806730427 0.1201843394022746
leaf_weight=2.6781662199646261 3.8122026249766368 3.688759919255971 2.366753425449132 2.0064873583614817 2.62237698584795 2.0243040435016155
leaf_count=27 30 30 20 19 23 16
internal_value=0 -0.0234951 -0.0510706 -0.0749244 -0.0497002 0.00503149
internal_weight=0 16.5209 12.8321 10.4654 8.45888 4.64668
internal_count=165 138 108 88 69 39
is_linear=0
shrinkage=0.150913


Tree=20
num_leaves=6
num_cat=0
split_feature=41 43 41 3 39
split_gain=2.34551 2.23119 1.63874 1.30358 0.519276
threshold=37.20000000000001 1.0000000180025095e-35 60.20000000000001 5.5000000000000009 1.7450000000000003
decision_type=2 2 2 2 2
left_child=4 3 -3 -2 -1
right_child=1 2 -4 -5 -6
leaf_value=0.040754050009084178 -0.1485685440045586 0.090867104468857873 -0.038309530748320095 -0.013770700166495793 0.16613820741705351
leaf_weight=1.5785438008606463 3.9284579530358288 3.9879393056035042 4.7609315030276775 2.8416541330516338 1.6595847830176351
leaf_count=15 44 29 31 28 18
internal_value=0 -0.029328 0.0208122 -0.0935904 0.109502
internal_weight=0 15.519 8.74887 6.77011 3.23813
internal_count=165 132 60 72 33
is_linear=0
shrinkage=0.150913


Tree=21
num_leaves=8
num_cat=0
split_feature=42 41 43 36 37 41 39
split_gain=2.03547 1.5333 2.41634 1.3695 1.14941 0.887789 0.451237
threshold=1.0000000180025095e-35 37.20000000000001 1.0000000180025095e-35 1.9350000000000003 96.500000000000014 60.20000000000001 3.6700000000000004
decision_type=2 2 2 2 2 2 2
left_child=1 -1 4 -2 -3 -4 -5
right_child=3 2 5 6 -6 -7 -8
leaf_value=0.07550611391853275 -0.047370295833023886 -0.17235185605034314 0.070504691284959467 0.1668193952995399 -0.019492412466992234 -0.047783073077912575 0.050523555658233299
leaf_weight=2.2312632054090527 1.3767818510532368 3.8355225566774589 2.7887945994734764 2.1767812147736554 1.6546687260270116 2.7262068949639797 1.4498372338712213
leaf_count=10 14 42 15 34 21 21 8
internal_value=0 -0.0352061 -0.0584448 0.0765853 -0.128138 0.0119237 0.124183
internal_weight=0 13.2365 11.0052 5.0034 5.49019 5.515 3.62662
internal_count=165 109 99 56 63 36 42
is_linear=0
shrinkage=0.150913


Tree=22
num_leaves=7
num_cat=0
split_feature=41 43 0 39 38 1
split_gain=1.52972 1.2166 1.23847 1.17208 0.804187 0.844064
threshold=31.000000000000004 1.0000000180025095e-35 1.0000000180025095e-35 3.1150000000000007 73.850000000000009 66.500000000000014
decision_type=2 2 2 2 2 2
left_child=-1 4 -3 -4 5 -2
right_child=1 2 3 -5 -6 -7
leaf_value=0.10965541995550078 -0.0065787288942212394 -0.052373029343941509 0.14502196454805596 0.00086786480735501638 0.017385341636086366 -0.14243022631480054
leaf_weight=2.2186386939138201 1.5625612773001165 3.4835546612739563 2.1146245207637548 3.0748124569654465 1.7155479304492471 3.2861493565142155
leaf_count=26 15 22 23 18 23 38
internal_value=0 -0.0211199 0.0157847 0.0620715 -0.0695426 -0.100352
internal_weight=0 15.2373 8.67299 5.18944 6.56426 4.84871
internal_count=165 139 63 41 76 53
is_linear=0
shrinkage=0.150913


Tree=23
num_leaves=8
num_cat=0
split_feature=42 36 41 43 3 41 1
split_gain=1.50555 1.08151 1.01166 1.74947 0.636114 0.566583 0.487573
threshold=1.0000000180025095e-35 1.9350000000000003 37.20000000000001 1.0000000180025095e-35 5.5000000000000009 60.20000000000001 60.500000000000007
decision_type=2 2 2 2 2 2 2
left_child=2 -2 -1 4 -4 -5 -3
right_child=1 6 3 5 -6 -7 -8
leaf_value=0.059387294684364544 -0.040576241353404666 0.042993976168788597 -0.16159311564566448 0.054480321454154462 -0.044838379085997346 -0.040696333669518955 0.16578417927160308
leaf_weight=2.1956135630607632 1.355496373027562 1.4706102330237629 2.7991501018404943 2.7703483402729034 1.9635068364441393 2.6619186475872993 1.7990545332431791
leaf_count=10 14 15 40 15 23 21 27
internal_value=0 0.0690251 -0.0307152 -0.0508112 -0.116312 0.00762204 0.114863
internal_weight=0 4.62516 12.3905 10.1949 4.76266 5.43227 3.26966
internal_count=165 56 109 99 63 36 42
is_linear=0
shrinkage=0.150913


Tree=24
num_leaves=8
num_cat=0
split_feature=8 36 40 37 40 1 40
split_gain=3.09859 2.13539 2.22589 2.54622 1.66205 0.71368 0.502479
threshold=1.0000000180025095e-35 1.9900000000000002 88.500000000000014 108.30000000000001 70.500000000000014 69.500000000000014 84.500000000000014
decision_type=2 2 2 2 2 2 2
left_child=1 -1 5 -4 -2 -3 -6
right_child=4 2 3 -5 6 -7 -8
leaf_value=-0.16954440524418582 0.21220957706592627 0.12168467632089813 -0.19252202397246504 0.03241331498275641 -0.033995053658176178 -0.0079057519791381429 0.07829094601067077
leaf_weight=2.5761047061532727 1.5594974197447307 2.2175005078315722 2.284215310588479 2.09785414673388 1.5558068640530112 1.5755494050681589 1.8338280320167539
leaf_count=22 17 26 26 18 18 20 15
internal_value=0 -0.0532119 -0.0142538 -0.0865455 0.0895355 0.0688567 0.02683
internal_weight=0 10.7512 8.17512 4.38207 4.94913 3.79305 3.38963
internal_count=162 112 90 44 50 46 33
is_linear=0
shrinkage=0.150913


Tree=25
num_leaves=8
num_cat=0
split_feature=42 42 40 38 37 43 36
split_gain=3.28378 5.49943 1.31814 1.33759 0.526851 0.484024 1.08268
threshold=2.0000000000000004 1.0000000180025095e-35 86.500000000000014 44.100000000000009 79.65000000000002 1.0000000180025095e-35 3.1900000000000008
decision_type=2 2 2 2 2 2 2
left_child=1 2 3 -1 -5 6 -4
right_child=-2 -3 5 4 -6 -7 -8
leaf_value=-0.091801310582125692 -0.2121416328193641 0.17687170297594332 0.049257671630572167 0.0055687493942888876 0.11157677659756206 -0.16843229798029613 -0.15298504684308842
leaf_weight=2.1410913020372373 1.4636808633804328 3.4899597549810997 1.0752012338489296 2.6209295131266117 1.7415548805147407 1.6335102897137406 1.0942068006843326
leaf_count=12 8 53 17 20 17 16 19
internal_value=0 0.0165925 -0.0390032 0.00235527 0.0503166 -0.107999 -0.054741
internal_weight=0 13.7965 10.3065 6.50358 4.36248 3.80292 2.16941
internal_count=162 154 101 49 37 52 36
is_linear=0
shrinkage=0.150913


Tree=26
num_leaves=7
num_cat=0
split_feature=42 42 8 36 39 37
split_gain=2.53325 4.5828 1.83475 1.40319 1.62355 0.0314726
threshold=2.0000000000000004 1.0000000180025095e-35 1.0000000180025095e-35 1.9900000000000002 2.9950000000000006 99.000000000000014
decision_type=2 2 2 2 2 2
left_child=1 2 3 -1 -5 -6
right_child=-2 -3 -4 4 5 -7
leaf_value=-0.21362965097106787 -0.18986274459508393 0.17189350468792283 0.04999398787677635 0.034471807734986405 -0.15987557647905118 -0.088651688030381898
leaf_weight=1.3342378456145505 1.4081518277525908 3.0847101481631389 3.6084792129695415 2.7543930914252996 1.1995631083846094 1.1767366137355564
leaf_count=10 8 53 31 28 16 16
internal_value=0 0.0147492 -0.0347393 -0.0823884 -0.0434864 -0.131769
internal_weight=0 13.1581 10.0734 6.46493 5.13069 2.3763
internal_count=162 154 101 70 60 32
is_linear=0
shrinkage=0.150913


Tree=27
num_leaves=7
num_cat=0
split_feature=42 42 8 38 41 41
split_gain=1.96519 3.84317 1.42216 0.943203 1.13634 1.68229
threshold=2.0000000000000004 1.0000000180025095e-35 1.0000000180025095e-35 37.250000000000007 49.400000000000006 70.950000000000017
decision_type=2 2 2 2 2 2
left_child=1 2 3 -1 -5 -6
right_child=-2 -3 -4 4 5 -7
leaf_value=-0.21064240187925737 -0.17124939133741529 0.1673612694244199 0.042138280640795271 0.055379501316835569 -0.16719488611646383 0.036373536563969959
leaf_weight=0.87369872629642298 1.3447516150772578 2.7221074616536489 3.6549613028764725 1.588548459112644 2.3521820660680537 1.388879621401429
leaf_count=4 8 53 31 10 31 25
internal_value=0 0.0128172 -0.0312648 -0.0748049 -0.0477286 -0.0924104
internal_weight=0 12.5804 9.85827 6.20331 5.32961 3.74106
internal_count=162 154 101 70 66 56
is_linear=0
shrinkage=0.150913


Tree=28
num_leaves=6
num_cat=0
split_feature=42 42 8 37 37
split_gain=1.53339 3.22659 1.10798 1.14184 0.679547
threshold=2.0000000000000004 1.0000000180025095e-35 1.0000000180025095e-35 99.000000000000014 62.750000000000007
decision_type=2 2 2 2 2
left_child=1 2 3 4 -1
right_child=-2 -3 -4 -5 -6
leaf_value=-0.019232141189261403 -0.15501196447310742 0.16319544448095366 0.035590311881910357 0.027417358666659699 -0.15399467842852171
leaf_weight=1.3254172056913356 1.2802116647362716 2.3989785043522707 3.6945097707211971 1.865035720169544 2.7192905135452747
leaf_count=7 8 53 31 25 38
internal_value=0 0.0112677 -0.028134 -0.0682102 -0.112266
internal_weight=0 12.0032 9.60425 5.90974 4.04471
internal_count=162 154 101 70 45
is_linear=0
shrinkage=0.150913


Tree=29
num_leaves=9
num_cat=0
split_feature=40 37 36 40 4 42 40 1
split_gain=1.3427 2.23326 1.45121 1.58314 1.18789 0.523582 0.430367 0.117855
threshold=100.50000000000001 95.200000000000017 1.8300000000000003 69.450000000000017 1.0000000180025095e-35 1.0000000180025095e-35 56.300000000000004 69.500000000000014
decision_type=2 2 2 2 2 2 2 2
left_child=1 2 -1 6 -5 -2 -4 -6
right_child=5 -3 3 4 7 -7 -8 -9
leaf_value=-0.14466404783906184 -0.15315940368030101 0.17128393647681775 0.17374225072609509 0.055924819561013119 -0.13569271617367754 -0.026504946428672991 0.040113920803817718 -0.055328498240201002
leaf_weight=1.4034915883094052 1.4415687164291751 1.727815195918083 1.1912205563858154 1.7063696291297672 1.2890965733677151 1.6228069290518758 1.1935597416013477 1.166784608736634
leaf_count=16 24 20 17 18 19 10 17 21
internal_value=0 0.022155 -0.0122212 0.0181157 -0.037624 -0.0904829 0.113135 -0.10294
internal_weight=0 9.67834 7.95052 6.54703 4.16225 3.06438 2.38478 2.45588
internal_count=162 128 108 92 58 34 34 40
is_linear=0
shrinkage=0.150913


Tree=30
num_leaves=9
num_cat=0
split_feature=39 36 41 38 39 1 39 41
split_gain=1.28667 1.58804 0.924287 1.04641 1.11817 1.40782 1.19655 0.239933
threshold=1.7450000000000003 4.1400000000000006 38.500000000000007 46.250000000000007 3.1150000000000007 72.500000000000014 2.8150000000000004 64.65000000000002
decision_type=2 2 2 2 2 2 2 2
left_child=-1 2 -2 -4 5 6 -5 -6
right_child=1 -3 3 4 7 -7 -8 -9
leaf_value=0.12351462350983333 0.07943795772830381 0.1265030884927483 -0.16651391500427337 0 -0.14241339340131384 -0.11809028571379294 0.17937097043646899 -0.047682576423651736
leaf_weight=2.0078983744606385 1.4512034272775043 1.680614280514418 1.2594067119061927 2.1396220037713651 1.254799032583833 1.0606202753260729 1.2832558192312715 1.6113375108689068
leaf_count=24 23 13 10 30 15 23 13 25
internal_value=0 -0.0036324 -0.0268913 -0.0459489 -0.0225121 0.0242086 0.0715442 -0.0941596
internal_weight=0 11.7409 10.0602 8.60904 7.34963 4.4835 3.42288 2.86614
internal_count=176 152 139 116 106 66 43 40
is_linear=0
shrinkage=0.150913


Tree=31
num_leaves=8
num_cat=0
split_feature=39 36 9 1 1 41 41
split_gain=0.989924 1.30845 0.916586 0.725548 0.882016 0.513386 0.789208
threshold=1.9450000000000001 4.1400000000000006 1.0000000180025095e-35 74.500000000000014 70.500000000000014 64.65000000000002 49.400000000000006
decision_type=2 2 2 2 2 2 2
left_child=2 3 -1 4 5 6 -2
right_child=1 -3 -4 -5 -6 -7 -8
leaf_value=0.15966358627115473 0.025206685019503169 0.10928481020659868 -0.0085349706072172828 -0.13548091228711143 0.060294985436525839 0.0088681405427202837 -0.13343109044779297
leaf_weight=1.6425475096330056 0.95415835082530831 1.6727528832852829 1.2065329821780324 1.1845474308356641 2.39092783536762 2.1060065589845181 2.1795378904789686
leaf_count=26 20 13 11 23 27 28 28
internal_value=0 -0.00791648 0.0904782 -0.0316318 -0.0132738 -0.0478552 -0.0854309
internal_weight=0 10.4879 2.84908 8.81518 7.63063 5.2397 3.1337
internal_count=176 139 37 126 103 76 48
is_linear=0
shrinkage=0.150913


end of trees

feature_importances:
FVC_(%)_1_year_after_diagnosis=34
DLCO_(%)_1_year_after_diagnosis=31
RadioWorsening2y=25
DLCO_(%)_at_diagnosis=19
FVC_(L)_1_year_after_diagnosis=19
FVC_(L)_at_diagnosis=16
FVC_(%)_at_diagnosis=14
Type_of_family_history=10
Age_at_diagnosis=9
Pirfenidone=6
Final_diagnosis=5
Liver_abnormality=5
Severity_of_telomere_shortening=5
TOBACCO=2
Nintedanib=2
Genetic_mutation_studied_in_patient=2
Sex=1
Multidsciplinary_committee=1
Prednisone=1
Blood_count_abnormality_at_diagnosis=1
1st_degree_relative=1
More_than_1_relative=1

parameters:
[boosting: gbdt]
[objective: binary]
[metric: binary_logloss]
[tree_learner: serial]
[device_type: cpu]
[data_sample_strategy: bagging]
[data: ]
[valid: ]
[num_iterations: 789]
[learning_rate: 0.150913]
[num_leaves: 129]
[num_threads: 0]
[seed: 0]
[deterministic: 0]
[force_col_wise: 0]
[force_row_wise: 0]
[histogram_pool_size: -1]
[max_depth: -1]
[min_data_in_leaf: 16]
[min_sum_hessian_in_leaf: 0.168912]
[bagging_fraction: 0.892898]
[pos_bagging_fraction: 1]
[neg_bagging_fraction: 1]
[bagging_freq: 6]
[bagging_seed: 3]
[feature_fraction: 0.694096]
[feature_fraction_bynode: 1]
[feature_fraction_seed: 2]
[extra_trees: 0]
[extra_seed: 6]
[early_stopping_round: 0]
[early_stopping_min_delta: 0]
[first_metric_only: 0]
[max_delta_step: 0]
[lambda_l1: 0.0131709]
[lambda_l2: 0.128769]
[linear_lambda: 0]
[min_gain_to_split: 0]
[drop_rate: 0.1]
[max_drop: 50]
[skip_drop: 0.5]
[xgboost_dart_mode: 0]
[uniform_drop: 0]
[drop_seed: 4]
[top_rate: 0.2]
[other_rate: 0.1]
[min_data_per_group: 100]
[max_cat_threshold: 32]
[cat_l2: 10]
[cat_smooth: 10]
[max_cat_to_onehot: 4]
[top_k: 20]
[monotone_constraints: ]
[monotone_constraints_method: basic]
[monotone_penalty: 0]
[feature_contri: ]
[forcedsplits_filename: ]
[refit_decay_rate: 0.9]
[cegb_tradeoff: 1]
[cegb_penalty_split: 0]
[cegb_penalty_feature_lazy: ]
[cegb_penalty_feature_coupled: ]
[path_smooth: 0]
[interaction_constraints: ]
[verbosity: 1]
[saved_feature_importance_type: 0]
[use_quantized_grad: 0]
[num_grad_quant_bins: 4]
[quant_train_renew_leaf: 0]
[stochastic_rounding: 1]
[linear_tree: 0]
[max_bin: 432]
[max_bin_by_feature: ]
[min_data_in_bin: 3]
[bin_construct_sample_cnt: 200000]
[data_random_seed: 1]
[is_enable_sparse: 1]
[enable_bundle: 1]
[use_missing: 1]
[zero_as_missing: 0]
[feature_pre_filter: 1]
[pre_partition: 0]
[two_round: 0]
[header: 0]
[label_column: ]
[weight_column: ]
[group_column: ]
[ignore_column: ]
[categorical_feature: ]
[forcedbins_filename: ]
[precise_float_parser: 0]
[parser_config_file: ]
[objective_seed: 5]
[num_class: 1]
[is_unbalance: 0]
[scale_pos_weight: 1]
[sigmoid: 1]
[boost_from_average: 1]
[reg_sqrt: 0]
[alpha: 0.9]
[fair_c: 1]
[poisson_max_delta_step: 0.7]
[tweedie_variance_power: 1.5]
[lambdarank_truncation_level: 30]
[lambdarank_norm: 1]
[label_gain: ]
[lambdarank_position_bias_regularization: 0]
[eval_at: ]
[multi_error_top_k: 1]
[auc_mu_weights: ]
[num_machines: 1]
[local_listen_port: 12400]
[time_out: 120]
[machine_list_filename: ]
[machines: ]
[gpu_platform_id: -1]
[gpu_device_id: -1]
[gpu_use_dp: 0]
[num_gpu: 1]

end of parameters

pandas_categorical:[]
