tree
version=v4
num_class=1
num_tree_per_iteration=1
label_index=0
max_feature_idx=44
objective=binary sigmoid:1
feature_names=Sex Age_at_diagnosis Binary_diagnosis Final_diagnosis TOBACCO Comorbidities Pathology_Pattern_Binary Multidsciplinary_committee Pirfenidone Nintedanib Antifibrotic_Drug Prednisone Mycophenolate Extrapulmonary_affectation Associated_lung_cancer Other_cancer Blood_count_abnormality_at_diagnosis Anemia Thrombocytopenia Thrombocytosis Lymphocytosis Lymphopenia Neutrophilia Neutropenia Leukocytosis Leukopenia Hematologic_Disease Liver_abnormality LDH ALT AST ALP GGT Transaminitis Cholestasis Liver_disease FVC_(L)_at_diagnosis FVC_(%)_at_diagnosis DLCO_(%)_at_diagnosis Type_of_family_history 1st_degree_relative 2nd_degree_relative More_than_1_relative Genetic_mutation_studied_in_patient Severity_of_telomere_shortening
feature_infos=[-1.611258466588724:0.62063289083417517] [-2.992122471728047:2.4800232711877936] [-1.0954451150103321:0.91287092917527701] [-0.76327373705089219:4.0511056480379697] [-1.2254967288505061:0.82982065496155333] [-1.7507762253652943:0.57117522245959951] [-1.2782029638916539:0.78234836583023626] [-2.2876479915697989:0.43713018947193599] [-0.66216428358945678:1.5101992432741995] [-0.67892378070001347:1.4729193886373175] [-1.1821319289469754:0.8459292702556338] [-0.77349246815376171:1.292837411057002] [-0.37449152518985579:2.6702873970059282] [-0.41964345453112639:2.3829753310874682] none [-0.36514837167011077:2.7386127875258306] [-0.56293996878060104:1.776388345929897] none none none none none none none none none none [-0.62063289083417517:1.611258466588724] [-0.36514837167011077:2.7386127875258306] none none none [-0.37449152518985579:2.6702873970059282] [-0.34606427010299129:2.8896366553599777] [-0.38371768763464764:2.606082628518648] none [-2.2254748989377529:3.2142037323603798] [-2.475962869611338:3.2321905741408963] [-1.9018406537036909:3.8943329343426067] [-0.9128709291752769:1.0954451150103321] [-0.87415727612153782:1.1439589045541112] none [-0.53819622110694265:1.8580583823930161] [-0.74721705904866309:1.3382992102364117] [-1.0976139210056801:2.221854594812037]
tree_sizes=451 457 454 457 450 550 433 435 525 432 437 437 435 438 434 350 438 438 440 523 519 440 436 441 434 437 353 519 433 435 437 441 431 350 436 431 440 353 437 439 440 355 443 443 443 432 436 516 438 414 434 513 434 515 503 422 352 437 423 352 351 423 436

Tree=0
num_leaves=3
num_cat=0
split_feature=1 40
split_gain=4.24728 1.85457
threshold=-0.30490804440330371 1.0000000180025095e-35
decision_type=2 2
left_child=-1 -2
right_child=1 -3
leaf_value=-0.17103928973694846 -0.3243097053181998 -0.24724110289327039
leaf_weight=9.110069155693056 11.818468093872072 5.1705797910690299
leaf_count=37 48 21
internal_value=-0.247241 -0.292327
internal_weight=0 16.989
internal_count=106 69
is_linear=0
shrinkage=1


Tree=1
num_leaves=3
num_cat=0
split_feature=37 39
split_gain=5.10207 2.89992
threshold=-0.64541711006320746 1.0000000180025095e-35
decision_type=2 2
left_child=-1 -2
right_child=1 -3
leaf_value=0.094165733641809524 -0.088961002777963732 0.0011439861026767749
leaf_weight=7.1436951160430935 11.486181497573854 7.4133003652095786
leaf_count=29 47 30
internal_value=0 -0.0429918
internal_weight=0 18.8995
internal_count=106 77
is_linear=0
shrinkage=0.173752


Tree=2
num_leaves=3
num_cat=0
split_feature=38 39
split_gain=3.38861 2.8812
threshold=-0.53438494994177688 1.0000000180025095e-35
decision_type=2 2
left_child=-1 -2
right_child=1 -3
leaf_value=0.0765071146139083 -0.086082747476967453 0.0064683471181952905
leaf_weight=7.6378125846385982 10.121878832578659 8.1763325482606888
leaf_count=31 42 33
internal_value=0 -0.0339821
internal_weight=0 18.2982
internal_count=106 75
is_linear=0
shrinkage=0.173752


Tree=3
num_leaves=3
num_cat=0
split_feature=37 39
split_gain=3.42062 1.89266
threshold=-0.86685409710532002 1.0000000180025095e-35
decision_type=2 2
left_child=-1 -2
right_child=1 -3
leaf_value=0.089494479821458972 -0.066512439235042964 0.00063603722348052586
leaf_weight=5.2378741055727032 12.151789113879204 8.4239397943019867
leaf_count=21 51 34
internal_value=0 -0.027604
internal_weight=0 20.5757
internal_count=106 85
is_linear=0
shrinkage=0.173752


Tree=4
num_leaves=3
num_cat=0
split_feature=1 38
split_gain=2.4654 2.47534
threshold=-0.30490804440330371 -0.32294642095674136
decision_type=2 2
left_child=-1 -2
right_child=1 -3
leaf_value=0.06280681611525632 0.010104026881266897 -0.077749699041763889
leaf_weight=9.1492548733949679 6.583856642246249 9.9069355577230436
leaf_count=37 27 42
internal_value=0 -0.0286558
internal_weight=0 16.4908
internal_count=106 69
is_linear=0
shrinkage=0.173752


Tree=5
num_leaves=4
num_cat=0
split_feature=37 44 44
split_gain=2.56441 1.32998 0.241285
threshold=-0.64541711006320746 -0.82099154468753688 0.83874271322132177
decision_type=2 2 2
left_child=-1 -2 -3
right_child=1 2 -4
leaf_value=0.071215597715963141 -0.068512446118733847 0.024034382567460478 -0.0066576262849472479
leaf_weight=7.207924127578738 6.4343671649694505 6.6055458933114952 5.2433608323335648
leaf_count=29 28 27 22
internal_value=0 -0.0248249 0
internal_weight=0 18.2833 11.8489
internal_count=106 77 49
is_linear=0
shrinkage=0.173752


Tree=6
num_leaves=3
num_cat=0
split_feature=44 44
split_gain=1.76424 1.13568
threshold=-0.82099154468753688 0.83874271322132177
decision_type=2 2
left_child=-1 -2
right_child=1 -3
leaf_value=-0.041231473269112764 0.065508692822625142 0
leaf_weight=8.2864674180746096 9.8538022339344042 7.2279215306043616
leaf_count=36 40 30
internal_value=0 0.0368915
internal_weight=0 17.0817
internal_count=106 70
is_linear=0
shrinkage=0.173752


Tree=7
num_leaves=3
num_cat=0
split_feature=38 40
split_gain=1.7233 1.51052
threshold=-0.53438494994177688 1.0000000180025095e-35
decision_type=2 2
left_child=-1 -2
right_child=1 -3
leaf_value=0.056258157687106056 -0.062247490191445008 0
leaf_weight=7.6422376781702068 9.500521183013916 8.1700107455253601
leaf_count=31 42 33
internal_value=0 -0.0222958
internal_weight=0 17.6705
internal_count=106 75
is_linear=0
shrinkage=0.173752


Tree=8
num_leaves=4
num_cat=0
split_feature=37 43 37
split_gain=1.81485 1.06766 0.0857887
threshold=-0.86685409710532002 1.0000000180025095e-35 -1.0000000180025095e-35
decision_type=2 2 2
left_child=-1 2 -2
right_child=1 -3 -4
leaf_value=0.066916539652909224 0 0 -0.056830093414951377
leaf_weight=5.1888953745365169 5.1563323885202452 6.650358408689498 8.1353228092193568
leaf_count=21 22 27 36
internal_value=0 -0.0181203 -0.0467889
internal_weight=0 19.942 13.2917
internal_count=106 85 58
is_linear=0
shrinkage=0.173752


Tree=9
num_leaves=3
num_cat=0
split_feature=38 44
split_gain=3.71651 0.518757
threshold=-0.29996397215402015 0.28549796058503546
decision_type=2 2
left_child=-1 -2
right_child=1 -3
leaf_value=0.071947405415004259 -0.06692033668136653 0
leaf_weight=8.5085012167692202 7.4989912509918195 4.869059145450592
leaf_count=35 33 21
internal_value=0 -0.0484362
internal_weight=0 12.3681
internal_count=89 54
is_linear=0
shrinkage=0.173752


Tree=10
num_leaves=3
num_cat=0
split_feature=37 10
split_gain=2.29991 0.989698
threshold=-0.64541711006320746 1.0000000180025095e-35
decision_type=2 2
left_child=-1 -2
right_child=1 -3
leaf_value=0.068168004698169207 -0.065959520730551918 0
leaf_weight=5.6307540386915234 6.0523798465728733 9.0795965641736984
leaf_count=23 27 39
internal_value=0 -0.0306395
internal_weight=0 15.132
internal_count=89 66
is_linear=0
shrinkage=0.173752


Tree=11
num_leaves=3
num_cat=0
split_feature=37 10
split_gain=1.88789 0.845404
threshold=-0.64541711006320746 1.0000000180025095e-35
decision_type=2 2
left_child=-1 -2
right_child=1 -3
leaf_value=0.062207633370546578 -0.060436535570316148 0
leaf_weight=5.5994836688041714 5.9434364587068531 9.0795965641736984
leaf_count=23 27 39
internal_value=0 -0.0274055
internal_weight=0 15.023
internal_count=89 66
is_linear=0
shrinkage=0.173752


Tree=12
num_leaves=3
num_cat=0
split_feature=38 44
split_gain=2.38639 0.384983
threshold=-0.29996397215402015 0.28549796058503546
decision_type=2 2
left_child=-1 -2
right_child=1 -3
leaf_value=0.058073375829609489 -0.055115394135155163 0
leaf_weight=8.4138666391372698 7.2218619436025602 4.8403428494930267
leaf_count=35 33 21
internal_value=0 -0.0388962
internal_weight=0 12.0622
internal_count=89 54
is_linear=0
shrinkage=0.173752


Tree=13
num_leaves=3
num_cat=0
split_feature=37 39
split_gain=1.37939 0.851913
threshold=-0.64541711006320746 1.0000000180025095e-35
decision_type=2 2
left_child=-1 -2
right_child=1 -3
leaf_value=0.053485390924457865 -0.051877568953765586 0
leaf_weight=5.5049005597829845 8.4446703791618329 6.3884746879339209
leaf_count=23 40 26
internal_value=0 -0.0234426
internal_weight=0 14.8331
internal_count=89 66
is_linear=0
shrinkage=0.173752


Tree=14
num_leaves=3
num_cat=0
split_feature=38 10
split_gain=1.75667 0.28104
threshold=-0.29996397215402015 1.0000000180025095e-35
decision_type=2 2
left_child=-1 -2
right_child=1 -3
leaf_value=0.05069152507510731 -0.051253835457113366 0
leaf_weight=8.317401200532915 4.9893965721130353 6.8244875222444534
leaf_count=35 24 30
internal_value=0 -0.032785
internal_weight=0 11.8139
internal_count=89 54
is_linear=0
shrinkage=0.173752


Tree=15
num_leaves=2
num_cat=0
split_feature=38
split_gain=1.43717
threshold=-0.29996397215402015
decision_type=2
left_child=-1
right_child=-2
leaf_value=0.045383778807053396 -0.030361445606919706
leaf_weight=8.2872587889432925 11.722126841545103
leaf_count=35 54
internal_value=0
internal_weight=0
internal_count=89
is_linear=0
shrinkage=0.173752


Tree=16
num_leaves=3
num_cat=0
split_feature=37 39
split_gain=0.860113 0.725977
threshold=-0.64541711006320746 1.0000000180025095e-35
decision_type=2 2
left_child=-1 -2
right_child=1 -3
leaf_value=0.04293701066345923 -0.046099711484767533 0
leaf_weight=5.3492961227893856 8.1742491126060468 6.3445883095264426
leaf_count=23 40 26
internal_value=0 -0.0181716
internal_weight=0 14.5188
internal_count=89 66
is_linear=0
shrinkage=0.173752


Tree=17
num_leaves=3
num_cat=0
split_feature=38 10
split_gain=1.04453 0.278012
threshold=-0.29996397215402015 1.0000000180025095e-35
decision_type=2 2
left_child=-1 -2
right_child=1 -3
leaf_value=0.039874862053313913 -0.043227469705465427 0
leaf_weight=8.1804138123989123 4.7761617600917798 6.7180849462747574
leaf_count=35 24 30
internal_value=0 -0.0247816
internal_weight=0 11.4942
internal_count=89 54
is_linear=0
shrinkage=0.173752


Tree=18
num_leaves=3
num_cat=0
split_feature=40 36
split_gain=0.556496 0.161363
threshold=1.0000000180025095e-35 -0.067773562932230497
decision_type=2 2
left_child=1 -1
right_child=-2 -3
leaf_value=0 0.025612630882626393 -0.031553820359433063
leaf_weight=4.4421334862709045 9.7089500427246094 6.7384636849164963
leaf_count=21 41 32
internal_value=0 -0.0206967
internal_weight=0 11.1806
internal_count=94 53
is_linear=0
shrinkage=0.173752


Tree=19
num_leaves=4
num_cat=0
split_feature=38 36 1
split_gain=0.447949 0.635092 0.0354019
threshold=-0.51370074601932758 -0.067773562932230497 0.08595950866211341
decision_type=2 2 2
left_child=-1 -2 -3
right_child=1 2 -4
leaf_value=0.027633588671996629 0 0 -0.051337108888097185
leaf_weight=6.7034915536642101 5.4597076475620279 4.5022224634885752 4.1588365733623505
leaf_count=29 25 20 20
internal_value=0 -0.0151434 -0.0412622
internal_weight=0 14.1208 8.66106
internal_count=94 65 40
is_linear=0
shrinkage=0.173752


Tree=20
num_leaves=4
num_cat=0
split_feature=38 36 1
split_gain=0.358429 0.575769 0.0143723
threshold=-0.51370074601932758 -0.067773562932230497 0.08595950866211341
decision_type=2 2 2
left_child=-1 -2 -3
right_child=1 2 -4
leaf_value=0.024989349763181602 0 0 -0.047802928670964924
leaf_weight=6.6778272837400463 5.4597076475620279 4.5022224634885752 4.082076832652092
leaf_count=29 25 20 20
internal_value=0 -0.0132941 -0.038826
internal_weight=0 14.044 8.5843
internal_count=94 65 40
is_linear=0
shrinkage=0.173752


Tree=21
num_leaves=3
num_cat=0
split_feature=40 36
split_gain=0.419684 0.0882343
threshold=1.0000000180025095e-35 -0.067773562932230497
decision_type=2 2
left_child=1 -1
right_child=-2 -3
leaf_value=0 0.022500743029133158 -0.02578710476909462
leaf_weight=4.4246578067541122 9.6525040566921234 6.5458723157644272
leaf_count=21 41 32
internal_value=0 -0.0178426
internal_weight=0 10.9705
internal_count=94 53
is_linear=0
shrinkage=0.173752


Tree=22
num_leaves=3
num_cat=0
split_feature=38 36
split_gain=0.283727 0.497998
threshold=-0.51370074601932758 -0.067773562932230497
decision_type=2 2
left_child=-1 -2
right_child=1 -3
leaf_value=0.022287123709467345 0 -0.03600713951412074
leaf_weight=6.6347491294145611 5.4666580110788354 8.4643114358186686
leaf_count=29 25 40
internal_value=0 -0.0118472
internal_weight=0 13.931
internal_count=94 65
is_linear=0
shrinkage=0.173752


Tree=23
num_leaves=3
num_cat=0
split_feature=40 36
split_gain=0.333395 0.0528777
threshold=1.0000000180025095e-35 -0.067773562932230497
decision_type=2 2
left_child=1 -1
right_child=-2 -3
leaf_value=0 0.020737560193224456 -0.021335267547426106
leaf_weight=4.4164238572120667 9.6199650913476944 6.4114057421684265
leaf_count=21 41 32
internal_value=0 -0.0151727
internal_weight=0 10.8278
internal_count=94 53
is_linear=0
shrinkage=0.173752


Tree=24
num_leaves=3
num_cat=0
split_feature=37 36
split_gain=0.217116 0.127196
threshold=0.59955083930689179 0.06282414951020901
decision_type=2 2
left_child=1 -1
right_child=-2 -3
leaf_value=0.022740467971204905 -0.016593439774271079 0
leaf_weight=8.5885097682476061 6.6462698578834525 5.1633018106222144
leaf_count=39 31 24
internal_value=0 0.0131787
internal_weight=0 13.7518
internal_count=94 63
is_linear=0
shrinkage=0.173752


Tree=25
num_leaves=3
num_cat=0
split_feature=37 39
split_gain=0.169768 0.984564
threshold=0.59955083930689179 1.0000000180025095e-35
decision_type=2 2
left_child=1 -1
right_child=-2 -3
leaf_value=0 -0.015020144579630846 0.053622171486473962
leaf_weight=7.7580402493476885 6.6147021204233161 5.9895885437726974
leaf_count=37 31 26
internal_value=0 0.0113913
internal_weight=0 13.7476
internal_count=94 63
is_linear=0
shrinkage=0.173752


Tree=26
num_leaves=2
num_cat=0
split_feature=40
split_gain=0.214032
threshold=1.0000000180025095e-35
decision_type=2
left_child=-1
right_child=-2
leaf_value=-0.013956732397150557 0.015084559605660131
leaf_weight=10.738470613956451 9.5469754040241241
leaf_count=53 41
internal_value=0
internal_weight=0
internal_count=94
is_linear=0
shrinkage=0.173752


Tree=27
num_leaves=4
num_cat=0
split_feature=38 1 39
split_gain=1.4149 1.70222 0.239079
threshold=-0.39189376736490517 -0.10947426787059519 1.0000000180025095e-35
decision_type=2 2 2
left_child=2 -2 -1
right_child=1 -3 -4
leaf_value=0 0 -0.081454002847869175 0.041818233279790527
leaf_weight=4.5790693908929843 4.4727658480405807 7.5422492921352369 4.3810753226280212
leaf_count=20 20 38 20
internal_value=0 -0.0438933 0.0259571
internal_weight=0 12.015 8.96014
internal_count=98 58 40
is_linear=0
shrinkage=0.173752


Tree=28
num_leaves=3
num_cat=0
split_feature=38 1
split_gain=1.09015 1.4778
threshold=-0.39189376736490517 -0.10947426787059519
decision_type=2 2
left_child=-1 -2
right_child=1 -3
leaf_value=0.023819941803114045 0 -0.074514914471820765
leaf_weight=8.9031140804290789 4.4727658480405807 7.3177728652954084
leaf_count=40 20 38
internal_value=0 -0.0382844
internal_weight=0 11.7905
internal_count=98 58
is_linear=0
shrinkage=0.173752


Tree=29
num_leaves=3
num_cat=0
split_feature=38 1
split_gain=0.823927 1.28449
threshold=-0.39189376736490517 -0.10947426787059519
decision_type=2 2
left_child=-1 -2
right_child=1 -3
leaf_value=0.021284156337628909 0 -0.068224647170288324
leaf_weight=8.8569518923759478 4.4727658480405807 7.1036793738603574
leaf_count=40 20 38
internal_value=0 -0.0332086
internal_weight=0 11.5764
internal_count=98 58
is_linear=0
shrinkage=0.173752


Tree=30
num_leaves=3
num_cat=0
split_feature=38 36
split_gain=0.617263 0.233582
threshold=-0.39189376736490517 -0.14158966126926145
decision_type=2 2
left_child=-1 -2
right_child=1 -3
leaf_value=0.019017893119052484 -0.045579072481683941 0
leaf_weight=8.8142523914575595 4.7210506349802017 6.6532315611839277
leaf_count=40 24 34
internal_value=0 -0.0286059
internal_weight=0 11.3743
internal_count=98 58
is_linear=0
shrinkage=0.173752


Tree=31
num_leaves=3
num_cat=0
split_feature=43 4
split_gain=0.528179 0.660155
threshold=1.0000000180025095e-35 -1.0000000180025095e-35
decision_type=2 2
left_child=1 -1
right_child=-2 -3
leaf_value=-0.053934559061411709 0.018933356921514356 0
leaf_weight=5.5329959988594064 7.7540956735610953 6.7823609113693246
leaf_count=27 35 36
internal_value=0 -0.0253984
internal_weight=0 12.3154
internal_count=98 63
is_linear=0
shrinkage=0.173752


Tree=32
num_leaves=3
num_cat=0
split_feature=38 1
split_gain=0.502049 1.04578
threshold=-0.39189376736490517 -0.10947426787059519
decision_type=2 2
left_child=-1 -2
right_child=1 -3
leaf_value=0.017706158500745726 0 -0.05940187302302221
leaf_weight=8.7730919867754 4.4448218196630478 6.7979524061083776
leaf_count=40 20 38
internal_value=0 -0.0255966
internal_weight=0 11.2428
internal_count=98 58
is_linear=0
shrinkage=0.173752


Tree=33
num_leaves=2
num_cat=0
split_feature=38
split_gain=0.367545
threshold=-0.39189376736490517
decision_type=2
left_child=-1
right_child=-2
leaf_value=0.015821035219187957 -0.02162725165299606
leaf_weight=8.7360192537307757 11.060355745255945
leaf_count=40 58
internal_value=0
internal_weight=0
internal_count=98
is_linear=0
shrinkage=0.173752


Tree=34
num_leaves=3
num_cat=0
split_feature=38 1
split_gain=0.289297 0.882498
threshold=-0.39189376736490517 -0.10947426787059519
decision_type=2 2
left_child=-1 -2
right_child=1 -3
leaf_value=0.014135896338468604 0 -0.052667769333903693
leaf_weight=8.7021390199661273 4.4212216436862946 6.5484397709369642
leaf_count=40 20 38
internal_value=0 -0.0191892
internal_weight=0 10.9697
internal_count=98 58
is_linear=0
shrinkage=0.173752


Tree=35
num_leaves=3
num_cat=0
split_feature=4 37
split_gain=0.324738 0.2083
threshold=-0.7116673828974911 -0.22960765661746277
decision_type=2 2
left_child=-1 -2
right_child=1 -3
leaf_value=-0.023403665429507604 0.02835568687633333 0
leaf_weight=7.4951663315296182 6.1607059240341195 5.8204282075166693
leaf_count=37 29 32
internal_value=0 0.0128749
internal_weight=0 11.9811
internal_count=98 61
is_linear=0
shrinkage=0.173752


Tree=36
num_leaves=3
num_cat=0
split_feature=1 44
split_gain=0.1979 0.00525274
threshold=1.0000000180025095e-35 1.0000000180025095e-35
decision_type=2 2
left_child=-1 -2
right_child=1 -3
leaf_value=0.0031874863650242159 -0.023545276604931921 0
leaf_weight=8.6425663381814974 5.6061776354908925 4.3331247866153717
leaf_count=38 32 21
internal_value=0 -0.0196282
internal_weight=0 9.9393
internal_count=91 53
is_linear=0
shrinkage=0.173752


Tree=37
num_leaves=2
num_cat=0
split_feature=1
split_gain=0.168789
threshold=1.0000000180025095e-35
decision_type=2
left_child=-1
right_child=-2
leaf_value=0.0028417941388875251 -0.018165256352891734
leaf_weight=8.6425053328275698 9.9006010144948942
leaf_count=38 53
internal_value=0
internal_weight=0
internal_count=91
is_linear=0
shrinkage=0.173752


Tree=38
num_leaves=3
num_cat=0
split_feature=37 37
split_gain=0.113264 0.252762
threshold=-0.64541711006320746 0.62907577091250688
decision_type=2 2
left_child=-1 -2
right_child=1 -3
leaf_value=0.0033013328581295459 -0.029903984184885043 0
leaf_weight=5.6781147271394756 7.0212829858064634 5.8131507560610771
leaf_count=27 36 28
internal_value=0 -0.0135277
internal_weight=0 12.8344
internal_count=91 64
is_linear=0
shrinkage=0.173752


Tree=39
num_leaves=3
num_cat=0
split_feature=1 37
split_gain=0.114149 0.280092
threshold=1.0000000180025095e-35 -0.20992436888038649
decision_type=2 2
left_child=-1 -2
right_child=1 -3
leaf_value=0.0034107871358927629 0 -0.033730582153324883
leaf_weight=8.6375379562377947 4.7075116634368896 5.1163731440901739
leaf_count=38 22 31
internal_value=0 -0.0147856
internal_weight=0 9.82388
internal_count=91 53
is_linear=0
shrinkage=0.173752


Tree=40
num_leaves=3
num_cat=0
split_feature=1 37
split_gain=0.0862816 0.245672
threshold=1.0000000180025095e-35 -0.20992436888038649
decision_type=2 2
left_child=-1 -2
right_child=1 -3
leaf_value=0.0030409534656199722 0 -0.031080343912499132
leaf_weight=8.6375084966421145 4.7075116634368896 5.0388444438576681
leaf_count=38 22 31
internal_value=0 -0.0128717
internal_weight=0 9.74636
internal_count=91 53
is_linear=0
shrinkage=0.173752


Tree=41
num_leaves=2
num_cat=0
split_feature=43
split_gain=0.0555678
threshold=1.0000000180025095e-35
decision_type=2
left_child=-1
right_child=-2
leaf_value=-0.010048959239334567 0.0024422852216542234
leaf_weight=10.649649590253832 7.6624244824051848
leaf_count=56 35
internal_value=0
internal_weight=0
internal_count=91
is_linear=0
shrinkage=0.173752


Tree=42
num_leaves=3
num_cat=0
split_feature=8 43
split_gain=0.0601517 0.168482
threshold=1.0000000180025095e-35 -1.0000000180025095e-35
decision_type=2 2
left_child=1 -1
right_child=-2 -3
leaf_value=-0.022787272293120546 0.0048393680511238137 0
leaf_weight=7.5922818258404741 5.8245515823364249 4.8780171647667894
leaf_count=41 27 23
internal_value=0 -0.0093882
internal_weight=0 12.4703
internal_count=91 64
is_linear=0
shrinkage=0.173752


Tree=43
num_leaves=3
num_cat=0
split_feature=1 44
split_gain=0.0488895 0.0269358
threshold=1.0000000180025095e-35 1.0000000180025095e-35
decision_type=2 2
left_child=-1 -2
right_child=1 -3
leaf_value=0.0036755275812079347 -0.014108788263121928 0
leaf_weight=8.6309981495142001 5.3578985929489118 4.2769027948379517
leaf_count=38 32 21
internal_value=0 -0.00932077
internal_weight=0 9.6348
internal_count=91 53
is_linear=0
shrinkage=0.173752


Tree=44
num_leaves=3
num_cat=0
split_feature=8 44
split_gain=0.0384607 0.284194
threshold=1.0000000180025095e-35 1.0000000180025095e-35
decision_type=2 2
left_child=1 -1
right_child=-2 -3
leaf_value=-0.027953072595945924 0.0044495345487988967 0
leaf_weight=6.9838692396879214 5.8205768764019004 5.4377308189868927
leaf_count=38 27 26
internal_value=0 -0.00731416
internal_weight=0 12.4216
internal_count=91 64
is_linear=0
shrinkage=0.173752


Tree=45
num_leaves=3
num_cat=0
split_feature=1 11
split_gain=1.05058 0.0703815
threshold=1.0000000180025095e-35 1.0000000180025095e-35
decision_type=2 2
left_child=-1 -2
right_child=1 -3
leaf_value=0.059082967742794791 -0.013149854643365129 0
leaf_weight=8.7984911352396029 7.0847270563244802 4.2999026775360107
leaf_count=41 37 23
internal_value=0 0
internal_weight=0 11.3846
internal_count=101 60
is_linear=0
shrinkage=0.173752


Tree=46
num_leaves=3
num_cat=0
split_feature=0 3
split_gain=1.25986 0.710526
threshold=1.0000000180025095e-35 -0.33847555601363966
decision_type=2 2
left_child=-1 -2
right_child=1 -3
leaf_value=-0.001205491600543054 0 0.075023594741257776
leaf_weight=4.7079498171806344 7.6827673166990289 7.7675635218620291
leaf_count=23 40 38
internal_value=0 0.0499621
internal_weight=0 15.4503
internal_count=101 78
is_linear=0
shrinkage=0.173752


Tree=47
num_leaves=4
num_cat=0
split_feature=43 38 39
split_gain=1.07946 0.0492117 0.261026
threshold=1.0000000180025095e-35 -0.81706907021524799 1.0000000180025095e-35
decision_type=2 2 2
left_child=1 -1 -3
right_child=-2 2 -4
leaf_value=0 0.055132831002031639 -0.030918884137909174 0
leaf_weight=3.247111290693284 8.5743742734193802 4.5941829681396467 3.7557874619960785
leaf_count=15 40 29 17
internal_value=0 0 -0.01047
internal_weight=0 11.5971 8.34997
internal_count=101 61 46
is_linear=0
shrinkage=0.173752


Tree=48
num_leaves=3
num_cat=0
split_feature=0 3
split_gain=0.992748 0.552109
threshold=1.0000000180025095e-35 -0.33847555601363966
decision_type=2 2
left_child=-1 -2
right_child=1 -3
leaf_value=-0.0013324955271265839 0 0.064497982426566583
leaf_weight=4.6836741417646417 7.6419369354844102 7.7461297810077658
leaf_count=23 40 38
internal_value=0 0.0425045
internal_weight=0 15.3881
internal_count=101 78
is_linear=0
shrinkage=0.173752


Tree=49
num_leaves=3
num_cat=0
split_feature=44 38
split_gain=0.793354 0.41377
threshold=-0.82099154468753688 0.42398316513169904
decision_type=2 2
left_child=-1 -2
right_child=1 -3
leaf_value=0 0.050100101425464644 0
leaf_weight=4.1940900310874012 11.162598386406897 4.7123048380017272
leaf_count=26 52 23
internal_value=0 0.036827
internal_weight=0 15.8749
internal_count=101 75
is_linear=0
shrinkage=0.173752


Tree=50
num_leaves=3
num_cat=0
split_feature=0 1
split_gain=0.741469 0.485852
threshold=1.0000000180025095e-35 0.18367639692846771
decision_type=2 2
left_child=-1 -2
right_child=1 -3
leaf_value=-0.0032401420682321609 0.054969233418813018 0
leaf_weight=4.68223910778761 7.8158854842185974 7.4996453002095222
leaf_count=23 39 39
internal_value=0 0.034675
internal_weight=0 15.3155
internal_count=101 78
is_linear=0
shrinkage=0.173752


Tree=51
num_leaves=4
num_cat=0
split_feature=3 10 38
split_gain=0.659096 1.30586 0.13592
threshold=-0.33847555601363966 1.0000000180025095e-35 -0.29996397215402015
decision_type=2 2 2
left_child=2 -2 -1
right_child=1 -3 -4
leaf_value=0 0 0.081195535002468594 -0.019311402056104314
leaf_weight=3.5291710793972015 6.6456214115023595 3.9766442626714706 5.7999833673238772
leaf_count=17 35 18 31
internal_value=0 0.0365109 0
internal_weight=0 10.6223 9.32915
internal_count=101 53 48
is_linear=0
shrinkage=0.173752


Tree=52
num_leaves=3
num_cat=0
split_feature=0 1
split_gain=0.58294 0.39923
threshold=1.0000000180025095e-35 0.18367639692846771
decision_type=2 2
left_child=-1 -2
right_child=1 -3
leaf_value=-0.0039250540721397949 0.048368568892173648 0
leaf_weight=4.6735544726252565 7.7251106649637222 7.505973294377327
leaf_count=23 39 39
internal_value=0 0.0298384
internal_weight=0 15.2311
internal_count=101 78
is_linear=0
shrinkage=0.173752


Tree=53
num_leaves=4
num_cat=0
split_feature=43 3 44
split_gain=0.53231 0.444879 0.125353
threshold=1.0000000180025095e-35 1.0000000180025095e-35 0.83874271322132177
decision_type=2 2 2
left_child=2 -2 -1
right_child=1 -3 -4
leaf_value=-0.018402294719329141 0 0.055914359739004521 0
leaf_weight=5.9719596207141876 4.0126527845859528 4.3054185509681702 5.5667894706130028
leaf_count=34 19 21 27
internal_value=0 0.0347172 0
internal_weight=0 8.31807 11.5387
internal_count=101 40 61
is_linear=0
shrinkage=0.173752


Tree=54
num_leaves=4
num_cat=0
split_feature=37 38 44
split_gain=0.0833302 0.290615 0.284949
threshold=0.83082947021754283 -0.97334972207375248 0.28549796058503546
decision_type=2 2 2
left_child=1 -1 -3
right_child=-2 2 -4
leaf_value=0 0 -0.041959787732798653 0
leaf_weight=3.9370326250791559 3.8756088465452185 6.0950639173388481 4.2296586036682129
leaf_count=20 20 34 21
internal_value=0 -0.0113686 -0.0269636
internal_weight=0 14.2618 10.3247
internal_count=95 75 55
is_linear=0
shrinkage=0.173752


Tree=55
num_leaves=3
num_cat=0
split_feature=37 11
split_gain=0.0535253 0.321523
threshold=0.83082947021754283 -1.0000000180025095e-35
decision_type=2 2
left_child=1 -1
right_child=-2 -3
leaf_value=-0.027028150369658253 0 0
leaf_weight=10.296274602413177 3.8756088465452185 3.9042785540223131
leaf_count=52 20 23
internal_value=0 -0.00912573
internal_weight=0 14.2006
internal_count=95 75
is_linear=0
shrinkage=0.173752


Tree=56
num_leaves=2
num_cat=0
split_feature=8
split_gain=0.260835
threshold=1.0000000180025095e-35
decision_type=2
left_child=-1
right_child=-2
leaf_value=-0.018474463422323607 0.013621409796312564
leaf_weight=11.423914201557638 6.6520560383796683
leaf_count=62 33
internal_value=0
internal_weight=0
internal_count=95
is_linear=0
shrinkage=0.173752


Tree=57
num_leaves=3
num_cat=0
split_feature=36 36
split_gain=0.0880749 0.394645
threshold=-0.38007244051197703 0.16503105489994438
decision_type=2 2
left_child=-1 -2
right_child=1 -3
leaf_value=-0.014086231425037883 0.036776546613820925 0
leaf_weight=7.3435009568929699 3.7310880944132787 6.9915341436862946
leaf_count=39 20 36
internal_value=0 0.00326174
internal_weight=0 10.7226
internal_count=95 56
is_linear=0
shrinkage=0.173752


Tree=58
num_leaves=3
num_cat=0
split_feature=11 38
split_gain=0.00886958 0.031659
threshold=1.0000000180025095e-35 -0.53438494994177688
decision_type=2 2
left_child=1 -1
right_child=-2 -3
leaf_value=0 0 -0.009708265657430791
leaf_weight=5.0978482291102418 5.2005735710263243 7.7787722125649461
leaf_count=24 30 41
internal_value=0 -0.00384845
internal_weight=0 12.8766
internal_count=95 65
is_linear=0
shrinkage=0.173752


Tree=59
num_leaves=2
num_cat=0
split_feature=8
split_gain=0.191163
threshold=1.0000000180025095e-35
decision_type=2
left_child=-1
right_child=-2
leaf_value=-0.015638724108776512 0.012005883247087607
leaf_weight=11.410830065608026 6.6455971896648398
leaf_count=62 33
internal_value=0
internal_weight=0
internal_count=95
is_linear=0
shrinkage=0.173752


Tree=60
num_leaves=2
num_cat=0
split_feature=8
split_gain=0.150546
threshold=1.0000000180025095e-35
decision_type=2
left_child=-1
right_child=-2
leaf_value=-0.013783385285089369 0.010833350631444354
leaf_weight=11.39882415533066 6.6481181159615508
leaf_count=62 33
internal_value=0
internal_weight=0
internal_count=95
is_linear=0
shrinkage=0.173752


Tree=61
num_leaves=3
num_cat=0
split_feature=37 11
split_gain=0.00959518 0.230399
threshold=0.83082947021754283 -1.0000000180025095e-35
decision_type=2 2
left_child=1 -1
right_child=-2 -3
leaf_value=-0.021620203801385841 0 0
leaf_weight=10.297186739742756 3.8398131951689711 3.9009337946772584
leaf_count=52 20 23
internal_value=0 -0.00386404
internal_weight=0 14.1981
internal_count=95 75
is_linear=0
shrinkage=0.173752


Tree=62
num_leaves=3
num_cat=0
split_feature=36 36
split_gain=0.0468307 0.35576
threshold=-0.38007244051197703 0.16503105489994438
decision_type=2 2
left_child=-1 -2
right_child=1 -3
leaf_value=-0.009357831748793238 0.035185057174882232 0
leaf_weight=7.3601879775524166 3.7258292734622938 6.9487604796886444
leaf_count=39 20 36
internal_value=0 0.00444456
internal_weight=0 10.6746
internal_count=95 56
is_linear=0
shrinkage=0.173752


end of trees

feature_importances:
DLCO_(%)_at_diagnosis=23
FVC_(%)_at_diagnosis=19
Age_at_diagnosis=17
FVC_(L)_at_diagnosis=12
Severity_of_telomere_shortening=12
Type_of_family_history=8
1st_degree_relative=6
Genetic_mutation_studied_in_patient=6
Pirfenidone=5
Antifibrotic_Drug=5
Sex=4
Final_diagnosis=4
Prednisone=4
TOBACCO=2

parameters:
[boosting: gbdt]
[objective: binary]
[metric: binary_logloss]
[tree_learner: serial]
[device_type: cpu]
[data_sample_strategy: bagging]
[data: ]
[valid: ]
[num_iterations: 2000]
[learning_rate: 0.173752]
[num_leaves: 92]
[num_threads: 0]
[seed: 0]
[deterministic: 0]
[force_col_wise: 0]
[force_row_wise: 0]
[histogram_pool_size: -1]
[max_depth: -1]
[min_data_in_leaf: 20]
[min_sum_hessian_in_leaf: 0.001]
[bagging_fraction: 0.512237]
[pos_bagging_fraction: 1]
[neg_bagging_fraction: 1]
[bagging_freq: 9]
[bagging_seed: 3]
[feature_fraction: 0.618384]
[feature_fraction_bynode: 1]
[feature_fraction_seed: 2]
[extra_trees: 0]
[extra_seed: 6]
[early_stopping_round: 0]
[early_stopping_min_delta: 0]
[first_metric_only: 0]
[max_delta_step: 0]
[lambda_l1: 2.49811]
[lambda_l2: 5.20315]
[linear_lambda: 0]
[min_gain_to_split: 0]
[drop_rate: 0.1]
[max_drop: 50]
[skip_drop: 0.5]
[xgboost_dart_mode: 0]
[uniform_drop: 0]
[drop_seed: 4]
[top_rate: 0.2]
[other_rate: 0.1]
[min_data_per_group: 100]
[max_cat_threshold: 32]
[cat_l2: 10]
[cat_smooth: 10]
[max_cat_to_onehot: 4]
[top_k: 20]
[monotone_constraints: ]
[monotone_constraints_method: basic]
[monotone_penalty: 0]
[feature_contri: ]
[forcedsplits_filename: ]
[refit_decay_rate: 0.9]
[cegb_tradeoff: 1]
[cegb_penalty_split: 0]
[cegb_penalty_feature_lazy: ]
[cegb_penalty_feature_coupled: ]
[path_smooth: 0]
[interaction_constraints: ]
[verbosity: 1]
[saved_feature_importance_type: 0]
[use_quantized_grad: 0]
[num_grad_quant_bins: 4]
[quant_train_renew_leaf: 0]
[stochastic_rounding: 1]
[linear_tree: 0]
[max_bin: 255]
[max_bin_by_feature: ]
[min_data_in_bin: 3]
[bin_construct_sample_cnt: 200000]
[data_random_seed: 1]
[is_enable_sparse: 1]
[enable_bundle: 1]
[use_missing: 1]
[zero_as_missing: 0]
[feature_pre_filter: 1]
[pre_partition: 0]
[two_round: 0]
[header: 0]
[label_column: ]
[weight_column: ]
[group_column: ]
[ignore_column: ]
[categorical_feature: ]
[forcedbins_filename: ]
[precise_float_parser: 0]
[parser_config_file: ]
[objective_seed: 5]
[num_class: 1]
[is_unbalance: 0]
[scale_pos_weight: 1]
[sigmoid: 1]
[boost_from_average: 1]
[reg_sqrt: 0]
[alpha: 0.9]
[fair_c: 1]
[poisson_max_delta_step: 0.7]
[tweedie_variance_power: 1.5]
[lambdarank_truncation_level: 30]
[lambdarank_norm: 1]
[label_gain: ]
[lambdarank_position_bias_regularization: 0]
[eval_at: ]
[multi_error_top_k: 1]
[auc_mu_weights: ]
[num_machines: 1]
[local_listen_port: 12400]
[time_out: 120]
[machine_list_filename: ]
[machines: ]
[gpu_platform_id: -1]
[gpu_device_id: -1]
[gpu_use_dp: 0]
[num_gpu: 1]

end of parameters

pandas_categorical:[]
