tree
version=v4
num_class=1
num_tree_per_iteration=1
label_index=0
max_feature_idx=47
objective=binary sigmoid:1
feature_names=Sex Age_at_diagnosis Binary_diagnosis Final_diagnosis TOBACCO Comorbidities Pathology_Pattern_Binary Multidsciplinary_committee Pirfenidone Nintedanib Antifibrotic_Drug Prednisone Mycophenolate Extrapulmonary_affectation Associated_lung_cancer Other_cancer Blood_count_abnormality_at_diagnosis Anemia Thrombocytopenia Thrombocytosis Lymphocytosis Lymphopenia Neutrophilia Neutropenia Leukocytosis Leukopenia Hematologic_Disease Liver_abnormality LDH ALT AST ALP GGT Transaminitis Cholestasis Liver_disease FVC_(L)_at_diagnosis FVC_(%)_at_diagnosis DLCO_(%)_at_diagnosis FVC_(L)_1_year_after_diagnosis FVC_(%)_1_year_after_diagnosis DLCO_(%)_1_year_after_diagnosis Type_of_family_history 1st_degree_relative 2nd_degree_relative More_than_1_relative Genetic_mutation_studied_in_patient Severity_of_telomere_shortening
feature_infos=[-1.611258466588724:0.62063289083417517] [-2.992122471728047:2.4800232711877936] [-1.0954451150103321:0.91287092917527701] [-0.76327373705089219:4.0511056480379697] [-1.2254967288505061:0.82982065496155333] [-1.7507762253652943:0.57117522245959951] [-1.2782029638916539:0.78234836583023626] [-2.2876479915697989:0.43713018947193599] [-0.66216428358945678:1.5101992432741995] [-0.67892378070001347:1.4729193886373175] [-1.1821319289469754:0.8459292702556338] [-0.77349246815376171:1.292837411057002] [-0.37449152518985579:2.6702873970059282] [-0.41964345453112639:2.3829753310874682] none [-0.36514837167011077:2.7386127875258306] [-0.56293996878060104:1.776388345929897] none none none none none none none none none none [-0.62063289083417517:1.611258466588724] [-0.36514837167011077:2.7386127875258306] none none none [-0.37449152518985579:2.6702873970059282] [-0.34606427010299129:2.8896366553599777] [-0.38371768763464764:2.606082628518648] none [-2.2254748989377529:3.2142037323603798] [-2.475962869611338:3.2321905741408963] [-1.9018406537036909:3.8943329343426067] [-2.2200655187464333:3.5076999605490937] [-2.3902035090875597:2.7081303612769219] [-2.9701536603167988:2.8003778267566295] [-0.9128709291752769:1.0954451150103321] [-0.87415727612153782:1.1439589045541112] none [-0.53819622110694265:1.8580583823930161] [-0.74721705904866309:1.3382992102364117] [-1.0976139210056801:2.221854594812037]
tree_sizes=652 454 552 655 559 762 547 549 656 758 533 660 662 662 663 662 761 760 661 754 863 765

Tree=0
num_leaves=5
num_cat=0
split_feature=40 38 1 40
split_gain=54.1762 12.0548 1.54987 0.708513
threshold=-0.50603664395285997 -0.53438494994177688 0.47682706172753059 -0.076003265322116667
decision_type=2 2 2 2
left_child=2 -2 -1 -3
right_child=1 3 -4 -5
leaf_value=-0.73170346302397116 -0.9301581947526153 -1.062930317285923 -0.92098124751962551 -1.182223601466023
leaf_weight=7.6396237760782224 4.1136435717344311 3.9177557826042202 3.9177557826042175 16.846349865198135
leaf_count=39 21 20 20 86
internal_value=-1.00796 -1.12443 -0.77338 -1.16689
internal_weight=0 24.8777 11.5574 20.7641
internal_count=186 127 59 106
is_linear=0
shrinkage=1


Tree=1
num_leaves=3
num_cat=0
split_feature=41 40
split_gain=56.8166 5.16726
threshold=-0.64792174917870626 -0.093736600523384686
decision_type=2 2
left_child=-1 -2
right_child=1 -3
leaf_value=0.25066814555892292 -0.010973889545658356 -0.15408019538683543
leaf_weight=10.801468804478644 7.7185005247592953 17.628174901008606
leaf_count=51 38 97
internal_value=0 -0.114867
internal_weight=0 25.3467
internal_count=186 135
is_linear=0
shrinkage=0.142745


Tree=2
num_leaves=4
num_cat=0
split_feature=41 40 40
split_gain=42.9156 2.18529 1.88005
threshold=-0.3901472235022288 -0.83853667897663053 -0.093736600523384686
decision_type=2 2 2
left_child=1 -1 -2
right_child=2 -3 -4
leaf_value=0.23143378767797534 -0.036805942184870551 0.069566083004324125 -0.1442087029696677
leaf_weight=8.3593510985374433 6.65467193722725 5.0924639552831641 15.516974106431007
leaf_count=36 33 24 93
internal_value=0 0.187353 -0.118058
internal_weight=0 13.4518 22.1716
internal_count=186 60 126
is_linear=0
shrinkage=0.142745


Tree=3
num_leaves=5
num_cat=0
split_feature=41 1 9 41
split_gain=33.4874 2.22076 1.96599 1.46715
threshold=-0.3901472235022288 -0.20719115613694947 1.0000000180025095e-35 0.36056455302926721
decision_type=2 2 2 2
left_child=2 3 -1 -2
right_child=1 -3 -4 -5
leaf_value=0.19625465056448965 0.025576442211204743 -0.14083694819090745 0.051014438367339821 -0.081334590053646932
leaf_weight=9.2445762008428556 3.6431904584169397 13.891188055276871 4.7454627752304068 3.2468856126070023
leaf_count=39 20 85 21 21
internal_value=0 -0.110267 0.159946 -0.0297735
internal_weight=0 20.7813 13.99 6.89008
internal_count=186 126 60 41
is_linear=0
shrinkage=0.142745


Tree=4
num_leaves=4
num_cat=0
split_feature=41 40 46
split_gain=26.4271 4.07561 0.66131
threshold=-0.64792174917870626 -0.093736600523384686 -1.0000000180025095e-35
decision_type=2 2 2
left_child=2 -2 -1
right_child=1 -3 -4
leaf_value=0.079250696581826846 -0.0028233824384269264 -0.13379886444978623 0.19792699370243916
leaf_weight=6.81305231153965 7.4294707477092752 13.980981469154358 5.6503769457340223
leaf_count=28 38 97 23
internal_value=0 -0.0929397 0.153192
internal_weight=0 21.4105 12.4634
internal_count=186 135 51
is_linear=0
shrinkage=0.142745


Tree=5
num_leaves=6
num_cat=0
split_feature=38 1 39 9 39
split_gain=16.1943 2.88854 2.35986 1.45773 1.18189
threshold=-0.53438494994177688 -0.20719115613694947 0.60489065939155517 1.0000000180025095e-35 -0.55178431118462912
decision_type=2 2 2 2 2
left_child=3 2 -2 -1 -3
right_child=1 4 -4 -5 -6
leaf_value=0.14149898578451145 0.061104869294906307 -0.023872240605283469 -0.074422430992768809 0.026366946751867841 -0.14136298451333462
leaf_weight=9.1043136268854123 3.7323543429374704 3.5517569333314887 2.9817334860563278 4.5598497390747061 8.8422008901834488
leaf_count=39 21 21 21 20 64
internal_value=0 -0.0801225 -0.000462871 0.11197 -0.116411
internal_weight=0 19.108 6.71409 13.6642 12.394
internal_count=186 127 42 59 85
is_linear=0
shrinkage=0.142745


Tree=6
num_leaves=4
num_cat=0
split_feature=41 1 1
split_gain=18.8001 3.04473 1.8473
threshold=-0.3290953621578 0.08595950866211341 -0.30490804440330371
decision_type=2 2 2
left_child=1 -1 -2
right_child=2 -3 -4
leaf_value=0.17542496547899072 -0.016547053362528808 0.039265124443284151 -0.12581912611637169
leaf_weight=6.2631167322397223 5.406536579132081 8.7796107456088048 11.554843299090862
leaf_count=26 35 38 87
internal_value=0 0.110179 -0.0969733
internal_weight=0 15.0427 16.9614
internal_count=186 64 122
is_linear=0
shrinkage=0.142745


Tree=7
num_leaves=4
num_cat=0
split_feature=41 40 1
split_gain=15.177 2.87388 1.6487
threshold=-0.3290953621578 -0.83853667897663053 -0.30490804440330371
decision_type=2 2 2
left_child=1 -1 -2
right_child=2 -3 -4
leaf_value=0.14202395093925693 -0.014912028766566108 0.011989364997138185 -0.11940391091327095
leaf_weight=9.0182272493839246 5.3555372655391702 6.0242057815194157 10.611232742667195
leaf_count=37 35 27 87
internal_value=0 0.0980348 -0.090523
internal_weight=0 15.0424 15.9668
internal_count=186 64 122
is_linear=0
shrinkage=0.142745


Tree=8
num_leaves=5
num_cat=0
split_feature=40 1 41 38
split_gain=12.9028 3.99761 5.49943 0.673858
threshold=0.070296750088342241 -0.20719115613694947 -0.88082329430745376 -0.32294642095674136
decision_type=2 2 2 2
left_child=1 -1 -3 -2
right_child=3 2 -4 -5
leaf_value=0.14151411342069795 -0.020683738054240269 0.10294679072780165 -0.064959297762589546 -0.13166881987890017
leaf_weight=7.1020367518067404 2.552054025232791 5.4163758009672192 6.7825301587581608 8.119468152523039
leaf_count=33 16 22 40 75
internal_value=0 0.0690213 0.0123451 -0.113478
internal_weight=0 19.3009 12.1989 10.6715
internal_count=186 95 62 91
is_linear=0
shrinkage=0.142745


Tree=9
num_leaves=6
num_cat=0
split_feature=40 1 40 36 38
split_gain=10.7232 3.06539 3.51935 1.92652 0.631089
threshold=0.070296750088342241 -0.20719115613694947 -1.1355700435978655 -0.35735979486981384 -0.32294642095674136
decision_type=2 2 2 2 2
left_child=1 -1 -3 -4 -2
right_child=4 2 3 -5 -6
leaf_value=0.12514219370418425 -0.019096299194035063 0.09438131872822908 -0.092575738900683921 0.027738906893990032 -0.12687756075178813
leaf_weight=7.1306677758693739 2.5294749811291695 4.3200653791427639 4.3157302662730244 3.3312067463993973 7.3525233790278417
leaf_count=33 16 18 23 21 75
internal_value=0 0.0620175 0.0113057 -0.0434878 -0.108113
internal_weight=0 19.0977 11.967 7.64694 9.882
internal_count=186 95 62 44 91
is_linear=0
shrinkage=0.142745


Tree=10
num_leaves=4
num_cat=0
split_feature=41 1 27
split_gain=9.63214 1.94197 1.8395
threshold=-0.3290953621578 0.08595950866211341 1.0000000180025095e-35
decision_type=2 2 2
left_child=1 -1 -2
right_child=2 -3 -4
leaf_value=0.12985841664036976 -0.10946320559850978 0.021488646312222782 0
leaf_weight=5.5583224892616299 10.017141155898569 8.6083274260163289 3.9709887132048598
leaf_count=25 90 38 33
internal_value=0 0.0752906 -0.0814186
internal_weight=0 14.1666 13.9881
internal_count=186 63 123
is_linear=0
shrinkage=0.142745


Tree=11
num_leaves=5
num_cat=0
split_feature=41 36 40 36
split_gain=7.83558 1.61752 1.16829 1.5053
threshold=-0.3901472235022288 -0.35735979486981384 0.070296750088342241 1.0000000180025095e-35
decision_type=2 2 2 2
left_child=1 -1 3 -2
right_child=2 -3 -4 -5
leaf_value=0.020474140305729107 -0.068447033028801105 0.12289369151896731 -0.10732283268418062 0.038807051187852534
leaf_weight=8.2154611349105817 3.6807801648974401 5.1069557666778591 7.0573710799217224 3.224868543446064
leaf_count=36 25 23 83 19
internal_value=0 0.0711806 -0.0721529 -0.0190722
internal_weight=0 13.3224 13.963 6.90565
internal_count=186 59 127 44
is_linear=0
shrinkage=0.142745


Tree=12
num_leaves=5
num_cat=0
split_feature=40 41 1 41
split_gain=6.96909 2.61976 2.73825 0.201662
threshold=0.070296750088342241 -1.3375816643657734 0.08595950866211341 -1.0000000180025095e-35
decision_type=2 2 2 2
left_child=1 -1 -3 -2
right_child=3 2 -4 -5
leaf_value=0.12717204360104145 -0.025998100075150438 0.064685189088343767 -0.046127134118344598 -0.11498187218151712
leaf_weight=3.9895841479301479 2.5712727904319763 7.3928687646985072 6.9542726650834084 5.6087513342499715
leaf_count=18 18 38 39 73
internal_value=0 0.0465427 0.0109262 -0.0986983
internal_weight=0 18.3367 14.3471 8.18002
internal_count=186 95 77 91
is_linear=0
shrinkage=0.142745


Tree=13
num_leaves=5
num_cat=0
split_feature=40 36 40 39
split_gain=5.90182 1.43732 3.70524 0.666362
threshold=0.070296750088342241 -0.35735979486981384 -1.1865533823015102 1.0000000180025095e-35
decision_type=2 2 2 2
left_child=1 2 -1 -3
right_child=-2 3 -4 -5
leaf_value=0.07815687396182544 -0.094073674604613911 0.11512015927169385 -0.071886090314403475 0.023705368158460742
leaf_weight=4.6776179224252727 7.6413786113262168 3.7527577877044678 4.9314658269286165 4.792906366288662
leaf_count=21 91 19 27 28
internal_value=0 0.0422736 0.000679947 0.0789519
internal_weight=0 18.1547 9.60908 8.54566
internal_count=186 95 48 47
is_linear=0
shrinkage=0.142745


Tree=14
num_leaves=5
num_cat=0
split_feature=41 27 9 2
split_gain=5.33081 1.7095 1.63662 0.743681
threshold=-0.3290953621578 1.0000000180025095e-35 -1.0000000180025095e-35 -1.0000000180025095e-35
decision_type=2 2 2 2
left_child=2 -2 3 -1
right_child=1 -3 -4 -5
leaf_value=0.023685521299960214 -0.09642128920459879 0.010334240733456254 -0.0055431743501288423 0.12326287967285618
leaf_weight=4.1085520237684241 8.1594759933650476 3.5558536387979975 4.9881795495748547 4.3015941530466071
leaf_count=20 90 33 23 20
internal_value=0 -0.065986 0.0567856 0.0894302
internal_weight=0 11.7153 13.3983 8.41015
internal_count=186 123 63 40
is_linear=0
shrinkage=0.142745


Tree=15
num_leaves=5
num_cat=0
split_feature=41 39 36 39
split_gain=4.68235 3.04808 3.34414 4.13147
threshold=-0.88082329430745376 -0.83539211647013589 0.23884715323697533 0.69942659448672395
decision_type=2 2 2 2
left_child=-1 -2 -3 -4
right_child=1 2 3 -5
leaf_value=0.081193641225248039 0.067595708277525757 -0.1251053085822873 0.088946476661399432 -0.086906306184757032
leaf_weight=7.8592662960290935 2.5930370651185575 7.0867850854992813 3.7301339097321033 3.3567132093012333
leaf_count=37 18 65 26 40
internal_value=0 -0.0407941 -0.0672197 0.00319943
internal_weight=0 16.7667 14.1736 7.08685
internal_count=186 149 131 66
is_linear=0
shrinkage=0.142745


Tree=16
num_leaves=6
num_cat=0
split_feature=40 3 40 38 1
split_gain=4.27944 2.66322 1.89754 1.01915 0.666159
threshold=0.070296750088342241 0.51112080606086541 -0.50603664395285997 -0.53438494994177688 0.28139328519482204
decision_type=2 2 2 2 2
left_child=1 2 4 -2 -1
right_child=3 -3 -4 -5 -6
leaf_value=0.13643360057356885 0.0033001900511727923 -0.037900218665256322 -0.010111309770689903 -0.10883003760592788 0.034147225148112123
leaf_weight=4.3689716234803218 1.7039954438805578 5.0535136684775344 3.5705371871590641 4.8364431522786608 4.4022478014230728
leaf_count=23 10 27 25 80 21
internal_value=0 0.0381767 0.0712947 -0.0836558 0.101752
internal_weight=0 17.3953 12.3418 6.54044 8.77122
internal_count=186 96 69 90 44
is_linear=0
shrinkage=0.142745


Tree=17
num_leaves=6
num_cat=0
split_feature=41 40 1 41 39
split_gain=3.62438 1.91444 2.5085 1.3315 0.14857
threshold=-1.2448732823242332 0.20329676409785047 0.08595950866211341 -0.3290953621578 -0.42388275193822422
decision_type=2 2 2 2 2
left_child=-1 2 3 -2 -4
right_child=1 -3 4 -5 -6
leaf_value=0.091859576070277713 0.10164108001000566 -0.092115111738969357 -0.015438570860728869 -0.0020353463901155579 -0.076594097159596419
leaf_weight=4.8287422358989742 3.1216907650232315 4.7061571553349486 3.3659642897546327 4.3719772920012492 2.886504709720608
leaf_count=24 16 74 17 27 28
internal_value=0 -0.0289538 0.000267778 0.0513702 -0.0568134
internal_weight=0 18.4523 13.7461 7.49367 6.25247
internal_count=186 162 88 43 45
is_linear=0
shrinkage=0.142745


Tree=18
num_leaves=5
num_cat=0
split_feature=40 1 39 1
split_gain=3.12289 1.40949 1.34655 0.914542
threshold=0.070296750088342241 -0.20719115613694947 -0.42388275193822422 0.67226083826023919
decision_type=2 2 2 2
left_child=1 -1 -3 -2
right_child=3 2 -4 -5
leaf_value=0.077087190242126805 -0.09903472054737289 0.033049245917561774 -0.056675504791929988 0.010597061619476902
leaf_weight=6.2061153352260652 4.4648529402911654 6.9298929423093831 3.637913670390839 1.2896954938769338
leaf_count=34 70 34 28 20
internal_value=0 0.0322844 -0.000553718 -0.0759523
internal_weight=0 16.7739 10.5678 5.75455
internal_count=186 96 62 90
is_linear=0
shrinkage=0.142745


Tree=19
num_leaves=6
num_cat=0
split_feature=41 40 36 41 37
split_gain=2.91861 1.41532 3.08733 1.86707 0.191211
threshold=-1.3375816643657734 0.20329676409785047 -0.35735979486981384 -0.3290953621578 0.40271796193612502
decision_type=2 2 2 2 2
left_child=-1 2 -2 -4 -3
right_child=1 4 3 -5 -6
leaf_value=0.089426799915211991 -0.064936283981003345 -0.0044851761131553302 0.11488330481634279 -0.0057882593544641477 -0.09657462562413216
leaf_weight=3.9076803922653225 6.2918485552072561 1.1181398220360268 3.112500168383125 4.6337781995534844 2.9962296113371849
leaf_count=21 38 22 16 37 52
internal_value=0 -0.0254698 0 0.0542133 -0.0834014
internal_weight=0 18.1525 14.0381 7.74628 4.11437
internal_count=186 165 91 53 74
is_linear=0
shrinkage=0.142745


Tree=20
num_leaves=7
num_cat=0
split_feature=3 39 12 3 1 1
split_gain=1.816 2.38777 1.6711 1.12097 0.961979 1.19305
threshold=0.51112080606086541 0.7884015922233536 1.0000000180025095e-35 -0.33847555601363966 1.0000000180025095e-35 0.96541150305930212
decision_type=2 2 2 2 2 2
left_child=1 3 -2 4 -1 -6
right_child=2 -3 -4 -5 5 -7
leaf_value=0.067532334938986943 -0.093499843708141975 -0.070877255324769739 0.027941805880200149 0.11189605346496445 -0.051473508838129081 0.045754419700143309
leaf_weight=3.1140505969524366 4.3645587377250186 2.204859495162963 2.2962959464639425 2.8490047603845623 4.2016175333410501 2.5091109611093998
leaf_count=21 41 28 19 20 39 18
internal_value=0 0.0278255 -0.0529531 0.0530465 0.0193059 -0.0112813
internal_weight=0 14.8786 6.66085 12.6738 9.82478 6.71073
internal_count=186 126 60 98 78 57
is_linear=0
shrinkage=0.142745


Tree=21
num_leaves=6
num_cat=0
split_feature=41 36 40 1 41
split_gain=2.25412 1.28108 2.50213 1.25952 1.23985
threshold=-1.2448732823242332 -0.72076212514442783 0.20329676409785047 -0.20719115613694947 -0.3901472235022288
decision_type=2 2 2 2 2
left_child=-1 -2 3 -3 -5
right_child=1 2 -4 4 -6
leaf_value=0.074926215283494815 -0.076325966652929053 0.081067040084894043 -0.087750514894825785 0.043553962576458445 -0.060838071406980838
leaf_weight=4.375931657850745 4.4093528445810124 4.3659448809921768 2.6418357230722913 2.7553863823413876 2.6699176952242745
leaf_count=24 35 25 58 12 32
internal_value=0 -0.0238799 0.00131971 0.0370148 -0.00820418
internal_weight=0 16.8424 12.4331 9.79125 5.4253
internal_count=186 162 127 69 44
is_linear=0
shrinkage=0.142745


end of trees

feature_importances:
FVC_(%)_1_year_after_diagnosis=20
DLCO_(%)_1_year_after_diagnosis=20
Age_at_diagnosis=17
FVC_(L)_1_year_after_diagnosis=8
FVC_(L)_at_diagnosis=7
DLCO_(%)_at_diagnosis=5
Final_diagnosis=3
Nintedanib=3
Liver_abnormality=2
Binary_diagnosis=1
Mycophenolate=1
FVC_(%)_at_diagnosis=1
Genetic_mutation_studied_in_patient=1

parameters:
[boosting: gbdt]
[objective: binary]
[metric: binary_logloss]
[tree_learner: serial]
[device_type: cpu]
[data_sample_strategy: bagging]
[data: ]
[valid: ]
[num_iterations: 2000]
[learning_rate: 0.142745]
[num_leaves: 34]
[num_threads: 0]
[seed: 0]
[deterministic: 0]
[force_col_wise: 0]
[force_row_wise: 0]
[histogram_pool_size: -1]
[max_depth: -1]
[min_data_in_leaf: 20]
[min_sum_hessian_in_leaf: 0.001]
[bagging_fraction: 0.993226]
[pos_bagging_fraction: 1]
[neg_bagging_fraction: 1]
[bagging_freq: 5]
[bagging_seed: 3]
[feature_fraction: 0.739676]
[feature_fraction_bynode: 1]
[feature_fraction_seed: 2]
[extra_trees: 0]
[extra_seed: 6]
[early_stopping_round: 0]
[early_stopping_min_delta: 0]
[first_metric_only: 0]
[max_delta_step: 0]
[lambda_l1: 0.106372]
[lambda_l2: 1.90195]
[linear_lambda: 0]
[min_gain_to_split: 0]
[drop_rate: 0.1]
[max_drop: 50]
[skip_drop: 0.5]
[xgboost_dart_mode: 0]
[uniform_drop: 0]
[drop_seed: 4]
[top_rate: 0.2]
[other_rate: 0.1]
[min_data_per_group: 100]
[max_cat_threshold: 32]
[cat_l2: 10]
[cat_smooth: 10]
[max_cat_to_onehot: 4]
[top_k: 20]
[monotone_constraints: ]
[monotone_constraints_method: basic]
[monotone_penalty: 0]
[feature_contri: ]
[forcedsplits_filename: ]
[refit_decay_rate: 0.9]
[cegb_tradeoff: 1]
[cegb_penalty_split: 0]
[cegb_penalty_feature_lazy: ]
[cegb_penalty_feature_coupled: ]
[path_smooth: 0]
[interaction_constraints: ]
[verbosity: 1]
[saved_feature_importance_type: 0]
[use_quantized_grad: 0]
[num_grad_quant_bins: 4]
[quant_train_renew_leaf: 0]
[stochastic_rounding: 1]
[linear_tree: 0]
[max_bin: 255]
[max_bin_by_feature: ]
[min_data_in_bin: 3]
[bin_construct_sample_cnt: 200000]
[data_random_seed: 1]
[is_enable_sparse: 1]
[enable_bundle: 1]
[use_missing: 1]
[zero_as_missing: 0]
[feature_pre_filter: 1]
[pre_partition: 0]
[two_round: 0]
[header: 0]
[label_column: ]
[weight_column: ]
[group_column: ]
[ignore_column: ]
[categorical_feature: ]
[forcedbins_filename: ]
[precise_float_parser: 0]
[parser_config_file: ]
[objective_seed: 5]
[num_class: 1]
[is_unbalance: 0]
[scale_pos_weight: 1]
[sigmoid: 1]
[boost_from_average: 1]
[reg_sqrt: 0]
[alpha: 0.9]
[fair_c: 1]
[poisson_max_delta_step: 0.7]
[tweedie_variance_power: 1.5]
[lambdarank_truncation_level: 30]
[lambdarank_norm: 1]
[label_gain: ]
[lambdarank_position_bias_regularization: 0]
[eval_at: ]
[multi_error_top_k: 1]
[auc_mu_weights: ]
[num_machines: 1]
[local_listen_port: 12400]
[time_out: 120]
[machine_list_filename: ]
[machines: ]
[gpu_platform_id: -1]
[gpu_device_id: -1]
[gpu_use_dp: 0]
[num_gpu: 1]

end of parameters

pandas_categorical:[]
