tree
version=v4
num_class=1
num_tree_per_iteration=1
label_index=0
max_feature_idx=48
objective=binary sigmoid:1
feature_names=Sex Age_at_diagnosis Binary_diagnosis Final_diagnosis TOBACCO Comorbidities Pathology_Pattern_Binary Multidsciplinary_committee Pirfenidone Nintedanib Antifibrotic_Drug Prednisone Mycophenolate Extrapulmonary_affectation Associated_lung_cancer Other_cancer Blood_count_abnormality_at_diagnosis Anemia Thrombocytopenia Thrombocytosis Lymphocytosis Lymphopenia Neutrophilia Neutropenia Leukocytosis Leukopenia Hematologic_Disease Liver_abnormality LDH ALT AST ALP GGT Transaminitis Cholestasis Liver_disease FVC_(L)_at_diagnosis FVC_(%)_at_diagnosis DLCO_(%)_at_diagnosis FVC_(L)_1_year_after_diagnosis FVC_(%)_1_year_after_diagnosis DLCO_(%)_1_year_after_diagnosis RadioWorsening2y Type_of_family_history 1st_degree_relative 2nd_degree_relative More_than_1_relative Genetic_mutation_studied_in_patient Severity_of_telomere_shortening
feature_infos=[-1.611258466588724:0.62063289083417517] [-2.992122471728047:2.4800232711877936] [-1.0954451150103321:0.91287092917527701] [-0.76327373705089219:4.0511056480379697] [-1.2254967288505061:0.82982065496155333] [-1.7507762253652943:0.57117522245959951] [-1.2782029638916539:0.78234836583023626] [-2.2876479915697989:0.43713018947193599] [-0.66216428358945678:1.5101992432741995] [-0.67892378070001347:1.4729193886373175] [-1.1821319289469754:0.8459292702556338] [-0.77349246815376171:1.292837411057002] [-0.37449152518985579:2.6702873970059282] [-0.41964345453112639:2.3829753310874682] none [-0.36514837167011077:2.7386127875258306] [-0.56293996878060104:1.776388345929897] none none none none none none none none none none [-0.62063289083417517:1.611258466588724] [-0.36514837167011077:2.7386127875258306] none none none [-0.37449152518985579:2.6702873970059282] [-0.34606427010299129:2.8896366553599777] [-0.38371768763464764:2.606082628518648] none [-2.2254748989377529:3.2142037323603798] [-2.475962869611338:3.2321905741408963] [-1.9018406537036909:3.8943329343426067] [-2.2200655187464333:3.5076999605490937] [-2.3902035090875597:2.7081303612769219] [-2.9701536603167988:2.8003778267566295] [-0.62549389844528158:3.6022419693595737] [-0.9128709291752769:1.0954451150103321] [-0.87415727612153782:1.1439589045541112] none [-0.53819622110694265:1.8580583823930161] [-0.74721705904866309:1.3382992102364117] [-1.0976139210056801:2.221854594812037]
tree_sizes=452 557 560 544 558 457 565 557 560 535 439 651 555 556 520 663 732 547 646 647 636 637 655 656 663 741 725 659 543 544 541 654 544 541 522 626 623 742 626 765 621 726 670 671 734 749 539 734 651 747 733 629 745 662 646 733 651 732 623 635 743 666

Tree=0
num_leaves=3
num_cat=0
split_feature=41 42
split_gain=59.3306 1.47656
threshold=-0.64792174917870626 -1.0000000180025095e-35
decision_type=2 2
left_child=-1 -2
right_child=1 -3
leaf_value=-0.83950376309685981 -1.0933452322103434 -1.0218751308572915
leaf_weight=9.794389456510542 18.805227756500244 6.6601848304271725
leaf_count=50 96 34
internal_value=-1.00796 -1.08001
internal_weight=0 25.4654
internal_count=180 130
is_linear=0
shrinkage=1


Tree=1
num_leaves=4
num_cat=0
split_feature=41 40 40
split_gain=49.4237 2.88406 0.93033
threshold=-0.3901472235022288 -0.093736600523384686 -0.83853667897663053
decision_type=2 2 2
left_child=2 -2 -1
right_child=1 -3 -4
leaf_value=0.1624083319472942 -0.0057687749219408214 -0.093441044681151303 0.041416289887136255
leaf_weight=7.3501967042684555 6.1085084974765804 16.837380692362785 4.9008870720863325
leaf_count=35 32 89 24
internal_value=0 -0.0756083 0.13457
internal_weight=0 22.9459 12.2511
internal_count=180 121 59
is_linear=0
shrinkage=0.0920248


Tree=2
num_leaves=4
num_cat=0
split_feature=41 42 9
split_gain=42.39 1.46121 0.263974
threshold=-0.3901472235022288 -1.0000000180025095e-35 1.0000000180025095e-35
decision_type=2 2 2
left_child=2 -2 -1
right_child=1 -3 -4
leaf_value=0.14177058510638657 -0.085783941498510902 -0.010594431617520952 0.035717966170609544
leaf_weight=8.3014210462570173 16.452524214982986 5.6921142339706448 4.4829879105091086
leaf_count=38 91 30 21
internal_value=0 -0.0722309 0.121445
internal_weight=0 22.1446 12.7844
internal_count=180 121 59
is_linear=0
shrinkage=0.0920248


Tree=3
num_leaves=4
num_cat=0
split_feature=38 42 42
split_gain=26.1791 4.27475 3.48831
threshold=-0.53438494994177688 -1.0000000180025095e-35 1.0000000180025095e-35
decision_type=2 2 2
left_child=2 -2 -1
right_child=1 -3 -4
leaf_value=0.017741627330370831 -0.081069528346899289 0 0.13320782098005346
leaf_weight=5.9792210161685926 14.784138888120649 7.0322308838367489 6.8012419044971466
leaf_count=29 85 36 30
internal_value=0 -0.0567218 0.0958524
internal_weight=0 21.8164 12.7805
internal_count=180 121 59
is_linear=0
shrinkage=0.0920248


Tree=4
num_leaves=4
num_cat=0
split_feature=41 40 40
split_gain=32.8568 2.74821 0.808412
threshold=-0.3901472235022288 -0.093736600523384686 -0.83853667897663053
decision_type=2 2 2
left_child=2 -2 -1
right_child=1 -3 -4
leaf_value=0.12569232243201117 -0.00042097038722370785 -0.085082778967182721 0.029555622391169198
leaf_weight=8.2309183031320554 5.8391315937042245 14.92783223092556 5.227229729294776
leaf_count=35 32 89 24
internal_value=0 -0.0667241 0.103494
internal_weight=0 20.767 13.4581
internal_count=180 121 59
is_linear=0
shrinkage=0.0920248


Tree=5
num_leaves=3
num_cat=0
split_feature=41 40
split_gain=28.5972 5.18707
threshold=-0.64792174917870626 -0.093736600523384686
decision_type=2 2
left_child=-1 -2
right_child=1 -3
leaf_value=0.10473835232861611 0.0013458221893967507 -0.084131623543156037
leaf_weight=11.874227672815321 6.8823008239269265 15.012176349759102
leaf_count=50 37 93
internal_value=0 -0.0576175
internal_weight=0 21.8945
internal_count=180 130
is_linear=0
shrinkage=0.0920248


Tree=6
num_leaves=4
num_cat=0
split_feature=41 40 42
split_gain=24.7441 2.24344 0.655854
threshold=-0.3901472235022288 -0.093736600523384686 -1.0000000180025095e-35
decision_type=2 2 2
left_child=2 -2 -1
right_child=1 -3 -4
leaf_value=0.022863616781801113 -0.00047868538299596981 -0.078992815339349293 0.10607598201594239
leaf_weight=5.2489527761936179 5.8419192284345636 13.489969164133072 8.6824621707200986
leaf_count=23 32 89 36
internal_value=0 -0.0610639 0.0873459
internal_weight=0 19.3319 13.9314
internal_count=180 121 59
is_linear=0
shrinkage=0.0920248


Tree=7
num_leaves=4
num_cat=0
split_feature=41 40 40
split_gain=22.7414 1.5836 0.549564
threshold=-0.3901472235022288 -0.83853667897663053 0.070296750088342241
decision_type=2 2 2
left_child=1 -1 -2
right_child=2 -3 -4
leaf_value=0.10170916868091387 -0.016310059564039036 0.013340411829648905 -0.078652957138688126
leaf_weight=8.8874612152576429 6.3896530270576504 5.2075019031763103 11.218583509325979
leaf_count=36 37 23 78
internal_value=0 0.0802168 -0.0643078
internal_weight=0 14.095 17.6082
internal_count=174 59 115
is_linear=0
shrinkage=0.0920248


Tree=8
num_leaves=4
num_cat=0
split_feature=41 42 40
split_gain=20.02 1.29746 0.498641
threshold=-0.3901472235022288 1.0000000180025095e-35 0.070296750088342241
decision_type=2 2 2
left_child=1 -1 -2
right_child=2 -3 -4
leaf_value=0.011604379443629222 -0.015360877746534355 0.093767165632706789 -0.076081345861373037
leaf_weight=5.0907083898782739 6.3328571766614941 9.0764896273612976 10.650559440255163
leaf_count=22 37 37 78
internal_value=0 0.0745619 -0.0618498
internal_weight=0 14.1672 16.9834
internal_count=174 59 115
is_linear=0
shrinkage=0.0920248


Tree=9
num_leaves=4
num_cat=0
split_feature=41 1 1
split_gain=17.6527 1.47473 1.11595
threshold=-0.3901472235022288 -0.30490804440330371 0.08595950866211341
decision_type=2 2 2
left_child=2 -2 -1
right_child=1 -3 -4
leaf_value=0.098375588068643008 0 -0.074039264859823456 0.022603239078060181
leaf_weight=6.0974001288414028 4.5014490038156554 11.890048563480374 8.1164674758911115
leaf_count=25 30 85 34
internal_value=0 -0.0594999 0.069409
internal_weight=0 16.3915 14.2139
internal_count=174 115 59
is_linear=0
shrinkage=0.0920248


Tree=10
num_leaves=3
num_cat=0
split_feature=41 40
split_gain=15.7813 2.40297
threshold=-0.64792174917870626 -0.093736600523384686
decision_type=2 2
left_child=-1 -2
right_child=1 -3
leaf_value=0.072848318752832444 0 -0.071817374787878821
leaf_weight=12.297335624694826 6.1523117870092436 11.624131754040715
leaf_count=50 34 90
internal_value=0 -0.0511905
internal_weight=0 17.7764
internal_count=174 124
is_linear=0
shrinkage=0.0920248


Tree=11
num_leaves=5
num_cat=0
split_feature=41 40 27 42
split_gain=13.7738 1.45737 0.784727 0.441094
threshold=-0.3901472235022288 -0.83853667897663053 1.0000000180025095e-35 1.0000000180025095e-35
decision_type=2 2 2 2
left_child=1 -1 3 -2
right_child=2 -3 -4 -5
leaf_value=0.080026152350337207 -0.076289032639913157 0.0045060800794567398 0 -0.003564786895984814
leaf_weight=8.8744458854198438 8.3635758087038976 5.3547177910804775 3.8623386472463599 3.0607940256595603
leaf_count=36 67 23 29 19
internal_value=0 0.0605586 -0.054906 -0.0656121
internal_weight=0 14.2292 15.2867 11.4244
internal_count=174 59 115 86
is_linear=0
shrinkage=0.0920248


Tree=12
num_leaves=4
num_cat=0
split_feature=40 41 1
split_gain=12.7832 4.15602 0.165544
threshold=0.070296750088342241 -0.3901472235022288 0.08595950866211341
decision_type=2 2 2
left_child=1 2 -1
right_child=-2 -3 -4
leaf_value=0.09430390300404462 -0.07014097425610985 -0.0085134463825124861 0.026816388087753839
leaf_weight=5.3293927609920519 10.492425233125685 5.9012138694524792 7.291744276881218
leaf_count=22 85 37 30
internal_value=0 0.0450145 0.0710853
internal_weight=0 18.5224 12.6211
internal_count=174 89 52
is_linear=0
shrinkage=0.0920248


Tree=13
num_leaves=4
num_cat=0
split_feature=40 41 1
split_gain=11.3843 3.72701 0.131345
threshold=0.070296750088342241 -0.3901472235022288 0.08595950866211341
decision_type=2 2 2
left_child=1 2 -1
right_child=-2 -3 -4
leaf_value=0.089267313331561168 -0.06762157978831411 -0.0080075346963379042 0.025009581915817168
leaf_weight=5.2698710411787051 10.007505245506762 5.871875740587714 7.2974213510751724
leaf_count=22 85 37 30
internal_value=0 0.0423881 0.0671563
internal_weight=0 18.4392 12.5673
internal_count=174 89 52
is_linear=0
shrinkage=0.0920248


Tree=14
num_leaves=4
num_cat=0
split_feature=41 27 9
split_gain=8.63986 1.71377 1.18235
threshold=-0.3290953621578 1.0000000180025095e-35 -1.0000000180025095e-35
decision_type=2 2 2
left_child=2 -2 -1
right_child=1 -3 -4
leaf_value=0.066084074229367157 -0.060830431317757887 0 0
leaf_weight=8.395257465541361 10.497145660221575 3.8198903277516356 4.6200876384973553
leaf_count=36 88 30 20
internal_value=0 -0.0449644 0.0495199
internal_weight=0 14.317 13.0153
internal_count=174 118 56
is_linear=0
shrinkage=0.0920248


Tree=15
num_leaves=5
num_cat=0
split_feature=40 1 41 38
split_gain=8.30288 2.67863 3.21224 2.37877
threshold=-0.076003265322116667 -0.20719115613694947 -0.45388508514912468 -0.51370074601932758
decision_type=2 2 2 2
left_child=1 -1 -3 -2
right_child=3 2 -4 -5
leaf_value=0.079196914039370903 0.0019959240560173609 0.040243595229304562 -0.044099019369190195 -0.073486853781031147
leaf_weight=5.7893641442060479 2.7820065319538108 6.3267901241779319 3.6942350864410409 8.2729505598545057
leaf_count=29 16 26 23 80
internal_value=0 0.0408072 0.00153849 -0.0534269
internal_weight=0 15.8104 10.021 11.055
internal_count=174 78 49 96
is_linear=0
shrinkage=0.0920248


Tree=16
num_leaves=6
num_cat=0
split_feature=40 42 3 41 40
split_gain=7.33948 4.56853 1.37075 0.491212 0.418768
threshold=0.070296750088342241 1.0000000180025095e-35 0.22792201870269696 1.0000000180025095e-35 -0.55258664885618769
decision_type=2 2 2 2 2
left_child=1 4 -3 -2 -1
right_child=3 2 -4 -5 -6
leaf_value=0 0 0.094559996045863029 0.0054893483507221508 -0.066745651743231244 -0.027724957915091074
leaf_weight=4.0599778443574905 2.4926935732364637 5.4206874817609787 4.1617017090320587 6.6903530061244965 3.5354862287640616
leaf_count=19 17 24 20 70 24
internal_value=0 0.034889 0.0707094 -0.0563543 -0.011146
internal_weight=0 17.1779 9.58239 9.18305 7.59546
internal_count=174 87 44 87 43
is_linear=0
shrinkage=0.0920248


Tree=17
num_leaves=4
num_cat=0
split_feature=40 42 41
split_gain=6.64645 3.39189 1.67437
threshold=-0.093736600523384686 1.0000000180025095e-35 1.0000000180025095e-35
decision_type=2 2 2
left_child=1 -1 -2
right_child=2 -3 -4
leaf_value=-0.0057573883457580702 0 0.068593693335561007 -0.067794000619747802
leaf_weight=6.2869981676340112 3.9132919758558256 8.7054816037416458 7.0387198179960251
leaf_count=33 25 40 76
internal_value=0 0.0378922 -0.0474193
internal_weight=0 14.9925 10.952
internal_count=174 73 101
is_linear=0
shrinkage=0.0920248


Tree=18
num_leaves=5
num_cat=0
split_feature=41 27 1 42
split_gain=5.4737 1.58301 1.32452 0.771133
threshold=-0.3290953621578 1.0000000180025095e-35 0.08595950866211341 1.0000000180025095e-35
decision_type=2 2 2 2
left_child=2 3 -1 -2
right_child=1 -3 -4 -5
leaf_value=0.067375117605461193 -0.067444120557771478 0.00033822981636777379 0.0025848400705406078 0
leaf_weight=4.9367755651474017 6.6022849902510625 3.5825991854071608 7.8104361146688461 2.6162683367729187
leaf_count=22 69 30 34 19
internal_value=0 -0.0381268 0.0391458 -0.0548524
internal_weight=0 12.8012 12.7472 9.21855
internal_count=174 118 56 88
is_linear=0
shrinkage=0.0920248


Tree=19
num_leaves=5
num_cat=0
split_feature=40 42 38 41
split_gain=5.68063 3.34558 0.786957 0.413193
threshold=0.070296750088342241 1.0000000180025095e-35 -0.32294642095674136 -0.3290953621578
decision_type=2 2 2 2
left_child=1 3 -2 -1
right_child=2 -3 -4 -5
leaf_value=0.0023528398728133787 0 0.061141476960353103 -0.064265566363856524 -0.025633298572833287
leaf_weight=3.6539961248636246 2.1976677104830742 9.4768934845924377 6.1130827665328962 3.7222616225481078
leaf_count=15 16 44 71 28
internal_value=0 0.0304407 -0.0520284 -0.00882774
internal_weight=0 16.8532 8.31075 7.37626
internal_count=174 87 87 43
is_linear=0
shrinkage=0.0920248


Tree=20
num_leaves=5
num_cat=0
split_feature=40 1 41 41
split_gain=5.04344 2.65065 2.16616 0.36634
threshold=0.070296750088342241 -0.20719115613694947 -0.88082329430745376 1.0000000180025095e-35
decision_type=2 2 2 2
left_child=1 -1 -3 -2
right_child=3 2 -4 -5
leaf_value=0.06575258627605228 0 0.036725942355765824 -0.031046181268104388 -0.060308011343948295
leaf_weight=6.0448849201202437 2.4432878419756872 4.2843093127012279 6.4379775226116154 5.5629703402519226
leaf_count=31 17 18 38 70
internal_value=0 0.0282513 0 -0.0502244
internal_weight=0 16.7672 10.7223 8.00626
internal_count=174 87 56 87
is_linear=0
shrinkage=0.0920248


Tree=21
num_leaves=5
num_cat=0
split_feature=41 36 40 1
split_gain=5.09784 2.08565 4.02246 0.552005
threshold=-1.1612096204818678 0.23884715323697533 0.20329676409785047 0.86769461479294796
decision_type=2 2 2 2
left_child=-1 3 -3 -2
right_child=1 2 -4 -5
leaf_value=0.056091034583262353 -0.05852383902662394 0.054970773111943289 -0.047187539281623413 0
leaf_weight=5.9918469637632397 8.308863081038 4.1850344017148009 3.2033242434263229 2.7380936890840522
leaf_count=27 64 26 37 19
internal_value=0 -0.0272136 0.00383231 -0.0490562
internal_weight=0 18.4353 7.38836 11.047
internal_count=173 146 63 83
is_linear=0
shrinkage=0.0920248


Tree=22
num_leaves=5
num_cat=0
split_feature=40 1 38 41
split_gain=4.65819 2.48546 2.03294 0.368274
threshold=-0.27993662013669596 -0.20719115613694947 -0.53438494994177688 -1.0029270169963114
decision_type=2 2 2 2
left_child=1 -1 -2 -3
right_child=2 3 -4 -5
leaf_value=0.069329301065132382 0.0033597661858986816 0.012969089955267753 -0.06278720721734142 -0.016786550527369853
leaf_weight=4.8333982974290839 3.2712772637605667 3.9571451097726813 7.7024785578250867 4.3139351159334209
leaf_count=24 18 17 90 24
internal_value=0 0.0311688 -0.0418695 0
internal_weight=0 13.1045 10.9738 8.27108
internal_count=173 65 108 41
is_linear=0
shrinkage=0.0920248


Tree=23
num_leaves=5
num_cat=0
split_feature=40 1 38 39
split_gain=4.12429 2.21933 1.90058 0.607641
threshold=-0.27993662013669596 -0.20719115613694947 -0.53438494994177688 -0.87431867797991136
decision_type=2 2 2 2
left_child=1 -1 -2 -3
right_child=2 3 -4 -5
leaf_value=0.065707266692121041 0.0031897427415406914 0.017528857391270497 -0.060742457964241096 -0.020950964536144555
leaf_weight=4.7844604402780524 3.2749770134687424 3.9573914781212798 7.3390470929443818 4.2777295634150532
leaf_count=24 18 18 90 23
internal_value=0 0.0295132 -0.0398211 0
internal_weight=0 13.0196 10.614 8.23512
internal_count=173 65 108 41
is_linear=0
shrinkage=0.0920248


Tree=24
num_leaves=5
num_cat=0
split_feature=41 36 40 39
split_gain=3.91295 1.91443 3.32523 1.97238
threshold=-1.1612096204818678 0.23884715323697533 0.20329676409785047 -0.87431867797991136
decision_type=2 2 2 2
left_child=-1 3 -3 -2
right_child=1 2 -4 -5
leaf_value=0.050346934173982186 0.0041730877723651144 0.051595440483228935 -0.042567402512310393 -0.064247957036045716
leaf_weight=5.7625325769186047 2.5406096726655996 4.1567233726382247 2.8299919664859772 7.9199391603469831
leaf_count=27 16 26 37 67
internal_value=0 -0.0239226 0.0058933 -0.0455695
internal_weight=0 17.4473 6.98672 10.4605
internal_count=173 146 63 83
is_linear=0
shrinkage=0.0920248


Tree=25
num_leaves=6
num_cat=0
split_feature=41 1 1 41 38
split_gain=3.48771 1.8884 1.31702 1.03784 0.671667
threshold=-1.2448732823242332 0.08595950866211341 0.96541150305930212 -0.3290953621578 0.36652704312489587
decision_type=2 2 2 2 2
left_child=-1 3 -3 -2 -5
right_child=1 2 -4 4 -6
leaf_value=0.051475472942292953 0.036092012156437647 -0.061089143204168292 0 -0.03380345515403884 0.0068421176925504432
leaf_weight=4.8917987793684032 3.1724934428930283 6.9550009071826917 2.3261836506426334 3.1453057862818259 2.3443070724606514
leaf_count=23 15 65 18 29 23
internal_value=0 -0.0211843 -0.0456436 0.00432259 -0.0124982
internal_weight=0 17.9433 9.28118 8.66211 5.48961
internal_count=173 150 83 67 52
is_linear=0
shrinkage=0.0920248


Tree=26
num_leaves=6
num_cat=0
split_feature=41 41 10 41 37
split_gain=3.08693 1.22318 2.06449 0.323347 0.0544917
threshold=-1.3375816643657734 0.12766300790051999 1.0000000180025095e-35 -0.76550311176797681 -0.22960765661746277
decision_type=2 2 2 2 2
left_child=-1 2 -2 -4 -3
right_child=1 4 3 -5 -6
leaf_value=0.052387284419259092 0.040105924548360955 0 0 -0.034820312133816762 -0.051239448090864941
leaf_weight=4.1223710328340557 4.0276795290410528 1.9536279402673278 3.2794403731822959 4.9361559115350255 4.1439885012805417
leaf_count=20 27 15 14 34 63
internal_value=0 -0.0185794 0 -0.0244979 -0.0446499
internal_weight=0 18.3409 12.2433 8.2156 6.09762
internal_count=173 153 75 48 78
is_linear=0
shrinkage=0.0920248


Tree=27
num_leaves=5
num_cat=0
split_feature=40 1 38 42
split_gain=3.02675 1.80184 1.60481 0.156742
threshold=-0.27993662013669596 -0.20719115613694947 -0.53438494994177688 -1.0000000180025095e-35
decision_type=2 2 2 2
left_child=1 -1 -2 -3
right_child=2 3 -4 -5
leaf_value=0.059523942594906315 0.0031853371080092486 -0.0123530165239328 -0.055738898022154169 0.0069243653132847393
leaf_weight=4.5375723540782928 3.2157554104924202 3.7772204950451851 6.4552337452769262 4.1598062068223971
leaf_count=24 18 21 90 20
internal_value=0 0.0263394 -0.0348315 0
internal_weight=0 12.4746 9.67099 7.93703
internal_count=173 65 108 41
is_linear=0
shrinkage=0.0920248


Tree=28
num_leaves=4
num_cat=0
split_feature=40 42 41
split_gain=5.13261 2.44788 0.559898
threshold=-0.076003265322116667 1.0000000180025095e-35 -0.64792174917870626
decision_type=2 2 2
left_child=1 -1 -2
right_child=2 -3 -4
leaf_value=-0.0052751711123584944 0 0.057485839328742905 -0.06099419884528632
leaf_weight=6.0393356308341035 1.6597315967082984 8.6538246870040894 5.584285017102955
leaf_count=36 7 44 85
internal_value=0 0.0314019 -0.0512644
internal_weight=0 14.6932 7.24402
internal_count=172 80 92
is_linear=0
shrinkage=0.0920248


Tree=29
num_leaves=4
num_cat=0
split_feature=40 42 41
split_gain=4.5544 2.16696 0.524344
threshold=-0.076003265322116667 1.0000000180025095e-35 -0.64792174917870626
decision_type=2 2 2
left_child=1 -1 -2
right_child=2 -3 -4
leaf_value=-0.0049475202413984285 0 0.053820747301496871 -0.059266500837431325
leaf_weight=6.0293402299284944 1.6597315967082984 8.5832425504922867 5.3113827407360059
leaf_count=36 7 44 85
internal_value=0 0.0290903 -0.0495585
internal_weight=0 14.6126 6.97111
internal_count=172 80 92
is_linear=0
shrinkage=0.0920248


Tree=30
num_leaves=4
num_cat=0
split_feature=40 42 41
split_gain=4.046 1.92013 0.490886
threshold=-0.076003265322116667 1.0000000180025095e-35 -0.64792174917870626
decision_type=2 2 2
left_child=1 -1 -2
right_child=2 -3 -4
leaf_value=-0.0046400569969303699 0 0.050401819199712088 -0.05757957825570216
leaf_weight=6.0199442878365526 1.6597315967082984 8.5120375752449036 5.0566126219928247
leaf_count=36 7 44 85
internal_value=0 0.0269349 -0.0479061
internal_weight=0 14.532 6.71634
internal_count=172 80 92
is_linear=0
shrinkage=0.0920248


Tree=31
num_leaves=5
num_cat=0
split_feature=40 42 38 47
split_gain=3.59857 1.70289 0.182027 0.00461299
threshold=-0.076003265322116667 1.0000000180025095e-35 -0.64470070419483871 1.0000000180025095e-35
decision_type=2 2 2 2
left_child=1 -1 -2 -3
right_child=2 3 -4 -5
leaf_value=-0.0043515558455021709 0 0.0074447496826916893 -0.054146171890019176 0.059227633347980257
leaf_weight=6.0111135765910158 1.9531906209886081 4.179685041308403 4.5252836234867555 4.2613760232925415
leaf_count=36 11 21 81 23
internal_value=0 0.0249236 -0.0463063 0.0472082
internal_weight=0 14.4522 6.47847 8.44106
internal_count=172 80 92 44
is_linear=0
shrinkage=0.0920248


Tree=32
num_leaves=4
num_cat=0
split_feature=40 42 41
split_gain=3.28113 1.56425 0.432541
threshold=-0.076003265322116667 1.0000000180025095e-35 -0.64792174917870626
decision_type=2 2 2
left_child=1 -1 -2
right_child=2 -3 -4
leaf_value=-0.0040808619873120046 0 0.045160842410764922 -0.054475550048135667
leaf_weight=6.002815619111062 1.6597315967082984 8.3745515793561935 4.6166254580020887
leaf_count=36 7 44 85
internal_value=0 0.0236598 -0.0449013
internal_weight=0 14.3774 6.27636
internal_count=172 80 92
is_linear=0
shrinkage=0.0920248


Tree=33
num_leaves=4
num_cat=0
split_feature=40 1 41
split_gain=2.92381 1.70982 0.404598
threshold=-0.076003265322116667 0.18367639692846771 -0.64792174917870626
decision_type=2 2 2
left_child=1 -1 -2
right_child=2 -3 -4
leaf_value=0.047435600451251107 0 -0.0040230159061653281 -0.052904935413163413
leaf_weight=7.2371335402131098 1.6597315967082984 7.0635755211114883 4.4078282155096513
leaf_count=42 7 38 85
internal_value=0 0.0218654 -0.0433996
internal_weight=0 14.3007 6.06756
internal_count=172 80 92
is_linear=0
shrinkage=0.0920248


Tree=34
num_leaves=4
num_cat=0
split_feature=41 42 36
split_gain=2.59128 1.01353 0.866344
threshold=-0.3901472235022288 1.0000000180025095e-35 -0.82864719194470393
decision_type=2 2 2
left_child=2 -2 -1
right_child=1 -3 -4
leaf_value=0 -0.05015520142039346 0 0.042724999557909274
leaf_weight=4.072788342833519 5.4582752697169763 3.9547075368463993 6.6807417869567889
leaf_count=21 87 30 34
internal_value=0 -0.0314957 0.0270474
internal_weight=0 9.41298 10.7535
internal_count=172 117 55
is_linear=0
shrinkage=0.0920248


Tree=35
num_leaves=5
num_cat=0
split_feature=41 9 3 41
split_gain=1.75759 2.33809 1.20415 0.456014
threshold=0.39900461387575958 -1.0000000180025095e-35 0.51112080606086541 -0.76550311176797681
decision_type=2 2 2 2
left_child=1 2 -1 -3
right_child=-2 3 -4 -5
leaf_value=0.058446936106042902 -0.039467321398290622 0 0 -0.031593062424265232
leaf_weight=7.2713784016668832 2.7669303230941287 3.0426651686429977 4.0823613852262497 3.5351799987256536
leaf_count=50 57 14 30 28
internal_value=0 0.0179292 0.0412827 -0.0160796
internal_weight=0 17.9316 11.3537 6.57785
internal_count=179 122 80 42
is_linear=0
shrinkage=0.0920248


Tree=36
num_leaves=5
num_cat=0
split_feature=41 9 3 41
split_gain=1.58293 2.05059 1.05209 0.423862
threshold=0.39900461387575958 -1.0000000180025095e-35 0.51112080606086541 -0.76550311176797681
decision_type=2 2 2 2
left_child=1 2 -1 -3
right_child=-2 3 -4 -5
leaf_value=0.05458315673138589 -0.038301925672253156 0 0 -0.030244356140957721
leaf_weight=7.2645824737846887 2.6767211966216555 3.0426651686429977 4.0823613852262497 3.4783673882484445
leaf_count=50 57 14 30 28
internal_value=0 0.016583 0.0385295 -0.0150785
internal_weight=0 17.868 11.3469 6.52103
internal_count=179 122 80 42
is_linear=0
shrinkage=0.0920248


Tree=37
num_leaves=6
num_cat=0
split_feature=9 38 1 39 11
split_gain=1.24189 0.945615 0.643622 0.349027 0.37565
threshold=1.0000000180025095e-35 -0.53438494994177688 0.18367639692846771 0.69942659448672395 1.0000000180025095e-35
decision_type=2 2 2 2 2
left_child=1 -1 -2 4 -3
right_child=2 3 -4 -5 -6
leaf_value=0.0396405675983168 0 -0.0017807554541666179 -0.03713666663631017 -0.023920124540470798 0.027417191438320443
leaf_weight=6.4499554596841344 2.9446439445018759 3.0757105723023423 4.2465577181428671 1.6092978008091448 2.0709756799042225
leaf_count=38 24 34 32 28 23
internal_value=0 0.0201038 -0.0205516 0 0.00764351
internal_weight=0 13.2059 7.1912 6.75598 5.14669
internal_count=179 123 56 85 57
is_linear=0
shrinkage=0.0920248


Tree=38
num_leaves=5
num_cat=0
split_feature=41 9 3 41
split_gain=1.37271 1.59662 0.967493 0.341835
threshold=0.39900461387575958 1.0000000180025095e-35 0.51112080606086541 -0.82203261301281849
decision_type=2 2 2 2
left_child=1 2 -1 -3
right_child=-2 3 -4 -5
leaf_value=0.049837759875746387 -0.036879764133576486 0 0 -0.025812038763426734
leaf_weight=7.1917085684835964 2.5717331208288661 2.5929502993822098 4.0839288048446178 3.8372710142284623
leaf_count=50 57 12 30 30
internal_value=0 0.0147882 0.0342992 -0.0127574
internal_weight=0 17.7059 11.2756 6.43022
internal_count=179 122 80 42
is_linear=0
shrinkage=0.0920248


Tree=39
num_leaves=6
num_cat=0
split_feature=41 3 40 1 48
split_gain=1.23821 1.26174 1.65188 0.510303 0.392024
threshold=0.39900461387575958 0.51112080606086541 -0.45726997214937393 0.28139328519482204 0.28549796058503546
decision_type=2 2 2 2 2
left_child=1 2 3 -1 -4
right_child=-2 -3 4 -5 -6
leaf_value=0.069129414185794769 -0.035799316085435656 -0.013131399155594246 -0.02526724958105302 0.0030232357991902556 0.0071241195328376515
leaf_weight=3.789945431053642 2.4923279006034127 5.2683159969747058 2.2022533491253871 4.0250991657376289 2.3640175126492977
leaf_count=23 57 36 26 21 16
internal_value=0 0.0136572 0.0294319 0.0505477 -0.00372472
internal_weight=0 17.6496 12.3813 7.81504 4.56627
internal_count=179 122 86 44 42
is_linear=0
shrinkage=0.0920248


Tree=40
num_leaves=5
num_cat=0
split_feature=41 9 36 1
split_gain=1.1386 1.38685 0.843957 0.349245
threshold=0.39900461387575958 -1.0000000180025095e-35 -0.35735979486981384 0.47682706172753059
decision_type=2 2 2 2
left_child=1 2 -1 -3
right_child=-2 3 -4 -5
leaf_value=0 -0.034754537101798183 0 0.050217265335068893 -0.02767777198616397
leaf_weight=5.6406145505607164 2.4172504339367142 3.4105475433170804 5.5424071103334427 2.9414205737411976
leaf_count=36 57 26 44 16
internal_value=0 0.01299 0.0314313 -0.0124131
internal_weight=0 17.535 11.183 6.35197
internal_count=179 122 80 42
is_linear=0
shrinkage=0.0920248


Tree=41
num_leaves=6
num_cat=0
split_feature=41 36 40 40 41
split_gain=1.10376 0.982709 1.82332 0.809466 0.576987
threshold=-1.3375816643657734 -0.35735979486981384 0.20329676409785047 -1.1865533823015102 -0.3290953621578
decision_type=2 2 2 2 2
left_child=-1 3 4 -2 -3
right_child=1 2 -4 -5 -6
leaf_value=0.03628893260358116 0 0.051062423593252457 -0.034377651648651655 -0.046371504382966812 0
leaf_weight=3.4449173137545612 2.4160594046115875 2.9906103610992432 2.259727168828249 4.602280937135224 4.1927996501326525
leaf_count=20 12 16 52 44 35
internal_value=0 -0.00788736 0.00678979 -0.0302776 0.0318584
internal_weight=0 16.4615 9.44314 7.01834 7.18341
internal_count=179 159 103 56 51
is_linear=0
shrinkage=0.0920248


Tree=42
num_leaves=5
num_cat=0
split_feature=28 1 1 40
split_gain=1.81032 1.07081 1.42443 0.376557
threshold=1.0000000180025095e-35 0.96541150305930212 1.0000000180025095e-35 -0.27993662013669596
decision_type=2 2 2 2
left_child=1 2 3 -1
right_child=-2 -3 -4 -5
leaf_value=0.020947737078426606 0.047952776091002978 0.019418606261891055 -0.047268323020438444 -0.010016292713910462
leaf_weight=3.2083846256136894 2.7559822201728812 2.7751039601862422 6.9680621363222599 3.0091654807329196
leaf_count=21 20 23 70 38
internal_value=0 -0.0119445 -0.0246134 0.000633666
internal_weight=0 15.9607 13.1856 6.21755
internal_count=172 152 129 59
is_linear=0
shrinkage=0.0920248


Tree=43
num_leaves=5
num_cat=0
split_feature=28 1 1 42
split_gain=1.6211 0.962954 1.26291 0.358536
threshold=1.0000000180025095e-35 0.96541150305930212 1.0000000180025095e-35 1.0000000180025095e-35
decision_type=2 2 2 2
left_child=1 2 3 -1
right_child=-2 -3 -4 -5
leaf_value=-0.012003660651211305 0.045809357403614574 0.018492361260171973 -0.044603187788985539 0.018637232554975576
leaf_weight=2.2772890012711304 2.7484882585704318 2.7832898646593085 6.8737973738461733 3.9073017723858356
leaf_count=28 20 23 70 31
internal_value=0 -0.0108518 -0.0231224 0.00025521
internal_weight=0 15.8417 13.0584 6.18459
internal_count=172 152 129 59
is_linear=0
shrinkage=0.0920248


Tree=44
num_leaves=6
num_cat=0
split_feature=28 38 38 41 42
split_gain=1.45507 1.01229 0.57999 0.221933 0.267513
threshold=1.0000000180025095e-35 -0.53438494994177688 -1.0583847826438209 -0.3290953621578 1.0000000180025095e-35
decision_type=2 2 2 2 2
left_child=1 2 -1 -3 -5
right_child=-2 3 -4 4 -6
leaf_value=-0.006720852950185657 0.043765921381252855 0 0.027928593195776692 -0.046869549441006415 0
leaf_weight=4.0899877995252609 2.7408493272960177 1.9036901742219932 3.8683657534420499 3.6056039351969957 2.2710748054087162
leaf_count=22 20 11 23 76 20
internal_value=0 -0.00987912 0.00723035 -0.030533 -0.0368218
internal_weight=0 15.7387 7.95835 7.78037 5.87668
internal_count=172 152 45 107 96
is_linear=0
shrinkage=0.0920248


Tree=45
num_leaves=6
num_cat=0
split_feature=28 1 1 40 10
split_gain=1.32881 0.859427 1.0935 0.318523 0.0611363
threshold=1.0000000180025095e-35 0.96541150305930212 1.0000000180025095e-35 -0.27993662013669596 1.0000000180025095e-35
decision_type=2 2 2 2 2
left_child=1 2 3 -1 -4
right_child=-2 -3 4 -5 -6
leaf_value=0.019270914809713914 0.041816975351456544 0.017870272658348677 0 -0.0093952900344549603 -0.047915809499891555
leaf_weight=3.154944434762001 2.7331550382077685 2.7606741376221171 2.0948713812977076 2.9644604697823542 4.6371868290007114
leaf_count=21 20 23 26 38 44
internal_value=0 -0.00952104 -0.0214566 0 -0.0416425
internal_weight=0 15.6121 12.8515 6.1194 6.73206
internal_count=172 152 129 59 70
is_linear=0
shrinkage=0.0920248


Tree=46
num_leaves=4
num_cat=0
split_feature=41 9 3
split_gain=1.24673 1.17882 0.994079
threshold=0.25655027073875886 -1.0000000180025095e-35 0.51112080606086541
decision_type=2 2 2
left_child=1 2 -1
right_child=-2 -3 -4
leaf_value=0.048696954384657966 -0.036516545326676149 -0.01047750977042013 0
leaf_weight=6.0740357041358948 2.5880077201873055 5.5870927274227151 3.9955773614346981
leaf_count=42 64 39 27
internal_value=0 0.0136701 0.031235
internal_weight=0 15.6567 10.0696
internal_count=172 108 69
is_linear=0
shrinkage=0.0920248


Tree=47
num_leaves=6
num_cat=0
split_feature=28 38 38 41 42
split_gain=1.20053 0.893978 0.522396 0.164386 0.258332
threshold=1.0000000180025095e-35 -0.53438494994177688 -1.0583847826438209 -0.3290953621578 1.0000000180025095e-35
decision_type=2 2 2 2 2
left_child=1 2 -1 -3 -5
right_child=-2 3 -4 4 -6
leaf_value=-0.006585035354572443 0.039570030199528983 0 0.026276770668526864 -0.044868356623727734 0
leaf_weight=4.0640992447733879 2.7004515379667273 1.8860176876187331 3.83387365192175 3.3918862715363503 2.238336555659771
leaf_count=22 20 11 23 76 20
internal_value=0 -0.00947932 0.00626277 -0.0292528 -0.0348486
internal_weight=0 15.4142 7.89797 7.51624 5.63022
internal_count=172 152 45 107 96
is_linear=0
shrinkage=0.0920248


Tree=48
num_leaves=5
num_cat=0
split_feature=28 38 38 40
split_gain=1.09812 0.817638 0.47176 0.169624
threshold=1.0000000180025095e-35 -0.53438494994177688 -1.0583847826438209 -0.50603664395285997
decision_type=2 2 2 2
left_child=1 2 -1 -3
right_child=-2 3 -4 -5
leaf_value=-0.0062162700980932708 0.037823098777665473 0 0.024844175038454902 -0.035685993119843031
leaf_weight=4.0717848837375641 2.6925910003483287 2.6488881483674058 3.8400729522109041 4.7390820849686861
leaf_count=22 20 16 23 91
internal_value=0 -0.0091557 0.0056156 -0.0282678
internal_weight=0 15.2998 7.91186 7.38797
internal_count=172 152 45 107
is_linear=0
shrinkage=0.0920248


Tree=49
num_leaves=6
num_cat=0
split_feature=3 40 1 41 37
split_gain=2.04312 2.5498 1.40988 0.427667 0.274402
threshold=0.51112080606086541 -0.50603664395285997 0.08595950866211341 -0.64792174917870626 0.33628686582349121
decision_type=2 2 2 2 2
left_child=1 -1 -2 -3 -5
right_child=2 3 -4 4 -6
leaf_value=0.058814634168555723 0.0035708450194310887 0.0063025869834821661 -0.058714802543028681 -0.036216393199529608 0
leaf_weight=6.7235163748264322 2.9656059406697741 1.5558715164661414 2.5063574425876141 2.201310090720654 1.5612278897315262
leaf_count=41 29 7 26 32 33
internal_value=0 0.0283611 -0.0275814 -0.00944696 -0.0253061
internal_weight=0 12.0419 5.47196 5.31841 3.76254
internal_count=168 113 55 72 65
is_linear=0
shrinkage=0.0920248


Tree=50
num_leaves=6
num_cat=0
split_feature=3 40 38 12 38
split_gain=1.81315 2.26569 0.541314 0.247332 0.0069238
threshold=0.51112080606086541 -0.50603664395285997 -0.53438494994177688 1.0000000180025095e-35 1.0077373647208188
decision_type=2 2 2 2 2
left_child=1 -1 -3 -2 -4
right_child=3 2 4 -5 -6
leaf_value=0.055566343770863245 -0.035311066568232942 0.0073940389151876847 -0.03193991442904983 0 0
leaf_weight=6.6271018609404573 3.4415439553558818 2.252892494201661 2.1302431747317319 1.9761650990694759 0.8781109545379876
leaf_count=41 37 12 42 18 18
internal_value=0 0.0266236 -0.00872287 -0.0262443 -0.0292304
internal_weight=0 11.8883 5.26125 5.41771 3.00835
internal_count=168 113 72 55 60
is_linear=0
shrinkage=0.0920248


Tree=51
num_leaves=5
num_cat=0
split_feature=42 40 2 1
split_gain=1.52777 0.750764 0.388945 0.24415
threshold=1.0000000180025095e-35 -1.1355700435978655 -1.0000000180025095e-35 0.67226083826023919
decision_type=2 2 2 2
left_child=1 -1 -2 -3
right_child=2 3 -4 -5
leaf_value=0.011105059055541275 0 -0.035464196774388723 0.045990178081196022 0
leaf_weight=1.9368378371000297 3.8975407183170319 5.5984104555100211 3.8893281519412986 1.8014438208192585
leaf_count=9 31 78 26 24
internal_value=0 -0.0148144 0.0319399 -0.0288234
internal_weight=0 9.33669 7.78687 7.39985
internal_count=168 111 57 102
is_linear=0
shrinkage=0.0920248


Tree=52
num_leaves=6
num_cat=0
split_feature=42 39 2 36 36
split_gain=1.36125 1.09227 0.342343 0.214705 0.52757
threshold=1.0000000180025095e-35 -0.95217180099946208 -1.0000000180025095e-35 0.31266325157400637 0.74420351877511093
decision_type=2 2 2 2 2
left_child=1 -1 -2 -3 -5
right_child=2 3 -4 4 -6
leaf_value=0.016939938050135082 0 -0.041747880298139826 0.043863669102935599 0.019825486621746359 -0.025950094110079765
leaf_weight=2.3389450423419484 3.8975407183170319 4.0337975565344104 3.8383968994021407 1.3899050932377579 1.4678627029061315
leaf_count=13 31 55 26 15 28
internal_value=0 -0.0136001 0.0305355 -0.0322137 0
internal_weight=0 9.23051 7.73594 6.89157 2.85777
internal_count=168 111 57 98 43
is_linear=0
shrinkage=0.0920248


Tree=53
num_leaves=5
num_cat=0
split_feature=3 40 1 38
split_gain=1.47777 1.8979 1.3151 0.492436
threshold=0.51112080606086541 -0.50603664395285997 0.08595950866211341 -0.53438494994177688
decision_type=2 2 2 2
left_child=1 -1 -2 -3
right_child=2 3 -4 -5
leaf_value=0.051212359377662997 0.005199701012120625 0.0070521948649305971 -0.055005252766435052 -0.027921320811242843
leaf_weight=6.4000197164714345 2.9200580082833758 2.2115853205323228 2.3858107421547174 2.8922233767807484
leaf_count=41 29 12 26 60
internal_value=0 0.0242775 -0.0237803 -0.00777993
internal_weight=0 11.5038 5.30587 5.10381
internal_count=168 113 55 72
is_linear=0
shrinkage=0.0920248


Tree=54
num_leaves=5
num_cat=0
split_feature=3 40 38 40
split_gain=1.31287 1.68567 0.45784 0.222288
threshold=0.51112080606086541 -0.50603664395285997 -0.53438494994177688 -0.45726997214937393
decision_type=2 2 2 2
left_child=1 -1 -3 -2
right_child=3 2 -4 -5
leaf_value=0.04841150341024876 -0.034106699575642468 0.0067609213051685853 -0.026906281598147161 0
leaf_weight=6.3107075355947027 2.3870829120278358 2.2129927054047593 2.8317813221365213 2.8682867083698502
leaf_count=41 14 12 60 41
internal_value=0 0.0228289 -0.00707967 -0.0226129
internal_weight=0 11.3555 5.04477 5.25537
internal_count=168 113 72 55
is_linear=0
shrinkage=0.0920248


Tree=55
num_leaves=6
num_cat=0
split_feature=3 40 42 36 40
split_gain=1.17754 1.49777 0.37702 0.211314 0.0575033
threshold=0.51112080606086541 -0.50603664395285997 1.0000000180025095e-35 -0.35735979486981384 0.42496345411369751
decision_type=2 2 2 2 2
left_child=1 -1 4 -2 -3
right_child=3 2 -4 -5 -6
leaf_value=0.045763096600026941 -0.031155492892611464 -0.028892867687591389 0.0065444615079823009 0 0
leaf_weight=6.2248984090983877 2.9662371017038822 1.8068493586033594 1.7733314111828802 2.2938293498009434 1.408617779612541
leaf_count=41 25 30 14 30 28
internal_value=0 0.0214594 -0.00641202 -0.0216633 -0.0235809
internal_weight=0 11.2137 4.9888 5.26007 3.21547
internal_count=168 113 72 55 58
is_linear=0
shrinkage=0.0920248


Tree=56
num_leaves=5
num_cat=0
split_feature=10 41 1 41
split_gain=0.682468 1.12794 0.743504 0.308001
threshold=1.0000000180025095e-35 0.12766300790051999 1.0000000180025095e-35 -0.82203261301281849
decision_type=2 2 2 2
left_child=1 -1 -2 -4
right_child=2 -3 3 -5
leaf_value=0.035107886285368622 0.00027870026008490657 -0.021030483461523707 0 -0.046700158377202858
leaf_weight=4.4704569801688203 4.2766398135572672 1.4824498184025285 2.9531655311584482 3.6472433209419242
leaf_count=37 36 38 15 46
internal_value=0 0.0118393 -0.0192468 -0.0348306
internal_weight=0 5.95291 10.877 6.60041
internal_count=172 75 97 61
is_linear=0
shrinkage=0.0920248


Tree=57
num_leaves=6
num_cat=0
split_feature=41 36 40 41 39
split_gain=0.581017 0.9853 0.984846 0.575209 0.299404
threshold=-1.3375816643657734 -0.35735979486981384 0.20329676409785047 -0.20020809931956116 -0.87431867797991136
decision_type=2 2 2 2 2
left_child=-1 4 3 -3 -2
right_child=1 2 -4 -5 -6
leaf_value=0.017839509418119442 0 0.040420202906670588 -0.027785532016861819 0 -0.049563489067477325
leaf_weight=2.5373025462031391 3.1400939896702766 3.2037199586629868 1.8044633883982895 2.8299433663487408 3.1684669852256784
leaf_count=18 21 22 50 26 35
internal_value=0 -0.0147824 0.00175031 0.0235131 -0.0364022
internal_weight=0 14.1467 7.83813 6.03366 6.30856
internal_count=172 154 98 48 56
is_linear=0
shrinkage=0.0920248


Tree=58
num_leaves=5
num_cat=0
split_feature=9 41 3 1
split_gain=0.614314 0.694312 0.590478 0.1006
threshold=1.0000000180025095e-35 0.12766300790051999 0.51112080606086541 0.08595950866211341
decision_type=2 2 2 2
left_child=1 2 -1 -2
right_child=3 -3 -4 -5
leaf_value=0.035307046825058253 0 -0.01881099693574979 0 -0.031083816009951065
leaf_weight=4.7629307210445422 2.2301500607281914 2.3479156177490941 3.5363597627729177 3.6624352633953094
leaf_count=38 20 55 26 33
internal_value=0 0.00464814 0.0198763 -0.024866
internal_weight=0 10.6472 8.29929 5.89259
internal_count=172 119 64 53
is_linear=0
shrinkage=0.0920248


Tree=59
num_leaves=5
num_cat=0
split_feature=10 41 39 42
split_gain=0.575701 0.915048 0.443277 0.619811
threshold=1.0000000180025095e-35 -1.0000000180025095e-35 -0.42388275193822422 1.0000000180025095e-35
decision_type=2 2 2 2
left_child=1 -1 -2 -4
right_child=2 -3 3 -5
leaf_value=0.033398168834936605 0 -0.016135657278025409 -0.048439690021682448 0
leaf_weight=3.9638579711318016 4.8402037518098959 1.8188941804692156 2.9567137258127323 2.8718386311084032
leaf_count=31 31 44 45 21
internal_value=0 0.0104375 -0.018083 -0.030807
internal_weight=0 5.78275 10.6688 5.82855
internal_count=172 75 97 66
is_linear=0
shrinkage=0.0920248


Tree=60
num_leaves=6
num_cat=0
split_feature=28 10 41 36 41
split_gain=0.551327 0.543176 0.724447 0.187268 0.527384
threshold=1.0000000180025095e-35 1.0000000180025095e-35 1.0000000180025095e-35 0.42054831837428269 -0.82203261301281849
decision_type=2 2 2 2 2
left_child=1 2 -1 4 -3
right_child=-2 3 -4 -5 -6
leaf_value=0.025570621731174727 0.017463961902741125 0 -0.021898836845481794 0 -0.046307570683200745
leaf_weight=3.4818475730717191 2.4521208126097909 2.7229846194386482 1.5494749164208768 2.2616263497620821 3.8458352377638221
leaf_count=27 19 15 42 24 45
internal_value=0 -0.0145034 0.000481976 -0.0264346 -0.0322266
internal_weight=0 13.8618 5.03132 8.83045 6.56882
internal_count=172 153 69 84 60
is_linear=0
shrinkage=0.0920248


Tree=61
num_leaves=5
num_cat=0
split_feature=28 1 1 42
split_gain=0.508816 0.883441 0.566146 0.221328
threshold=1.0000000180025095e-35 0.96541150305930212 1.0000000180025095e-35 -1.0000000180025095e-35
decision_type=2 2 2 2
left_child=1 2 3 -1
right_child=-2 -3 -4 -5
leaf_value=-0.016590556951645633 0.016709445110013481 0.015331387922410797 -0.040545416266431336 0.0096876928411975313
leaf_weight=1.8813379500061271 2.4512305520474902 2.2454700022935858 5.9540229793637991 3.637696176767351
leaf_count=28 19 21 70 34
internal_value=0 -0.0139557 -0.0258642 0
internal_weight=0 13.7185 11.4731 5.51903
internal_count=172 153 132 62
is_linear=0
shrinkage=0.0920248


end of trees

feature_importances:
DLCO_(%)_1_year_after_diagnosis=57
FVC_(%)_1_year_after_diagnosis=45
Age_at_diagnosis=30
RadioWorsening2y=26
DLCO_(%)_at_diagnosis=19
Final_diagnosis=12
FVC_(L)_at_diagnosis=10
Nintedanib=9
LDH=8
FVC_(L)_1_year_after_diagnosis=6
Antifibrotic_Drug=5
Liver_abnormality=3
Binary_diagnosis=2
FVC_(%)_at_diagnosis=2
Prednisone=1
Mycophenolate=1
Genetic_mutation_studied_in_patient=1
Severity_of_telomere_shortening=1

parameters:
[boosting: gbdt]
[objective: binary]
[metric: binary_logloss]
[tree_learner: serial]
[device_type: cpu]
[data_sample_strategy: bagging]
[data: ]
[valid: ]
[num_iterations: 2000]
[learning_rate: 0.0920248]
[num_leaves: 32]
[num_threads: 0]
[seed: 0]
[deterministic: 0]
[force_col_wise: 0]
[force_row_wise: 0]
[histogram_pool_size: -1]
[max_depth: -1]
[min_data_in_leaf: 20]
[min_sum_hessian_in_leaf: 0.001]
[bagging_fraction: 0.935601]
[pos_bagging_fraction: 1]
[neg_bagging_fraction: 1]
[bagging_freq: 7]
[bagging_seed: 3]
[feature_fraction: 0.75755]
[feature_fraction_bynode: 1]
[feature_fraction_seed: 2]
[extra_trees: 0]
[extra_seed: 6]
[early_stopping_round: 0]
[early_stopping_min_delta: 0]
[first_metric_only: 0]
[max_delta_step: 0]
[lambda_l1: 0.667744]
[lambda_l2: 2.75022]
[linear_lambda: 0]
[min_gain_to_split: 0]
[drop_rate: 0.1]
[max_drop: 50]
[skip_drop: 0.5]
[xgboost_dart_mode: 0]
[uniform_drop: 0]
[drop_seed: 4]
[top_rate: 0.2]
[other_rate: 0.1]
[min_data_per_group: 100]
[max_cat_threshold: 32]
[cat_l2: 10]
[cat_smooth: 10]
[max_cat_to_onehot: 4]
[top_k: 20]
[monotone_constraints: ]
[monotone_constraints_method: basic]
[monotone_penalty: 0]
[feature_contri: ]
[forcedsplits_filename: ]
[refit_decay_rate: 0.9]
[cegb_tradeoff: 1]
[cegb_penalty_split: 0]
[cegb_penalty_feature_lazy: ]
[cegb_penalty_feature_coupled: ]
[path_smooth: 0]
[interaction_constraints: ]
[verbosity: 1]
[saved_feature_importance_type: 0]
[use_quantized_grad: 0]
[num_grad_quant_bins: 4]
[quant_train_renew_leaf: 0]
[stochastic_rounding: 1]
[linear_tree: 0]
[max_bin: 255]
[max_bin_by_feature: ]
[min_data_in_bin: 3]
[bin_construct_sample_cnt: 200000]
[data_random_seed: 1]
[is_enable_sparse: 1]
[enable_bundle: 1]
[use_missing: 1]
[zero_as_missing: 0]
[feature_pre_filter: 1]
[pre_partition: 0]
[two_round: 0]
[header: 0]
[label_column: ]
[weight_column: ]
[group_column: ]
[ignore_column: ]
[categorical_feature: ]
[forcedbins_filename: ]
[precise_float_parser: 0]
[parser_config_file: ]
[objective_seed: 5]
[num_class: 1]
[is_unbalance: 0]
[scale_pos_weight: 1]
[sigmoid: 1]
[boost_from_average: 1]
[reg_sqrt: 0]
[alpha: 0.9]
[fair_c: 1]
[poisson_max_delta_step: 0.7]
[tweedie_variance_power: 1.5]
[lambdarank_truncation_level: 30]
[lambdarank_norm: 1]
[label_gain: ]
[lambdarank_position_bias_regularization: 0]
[eval_at: ]
[multi_error_top_k: 1]
[auc_mu_weights: ]
[num_machines: 1]
[local_listen_port: 12400]
[time_out: 120]
[machine_list_filename: ]
[machines: ]
[gpu_platform_id: -1]
[gpu_device_id: -1]
[gpu_use_dp: 0]
[num_gpu: 1]

end of parameters

pandas_categorical:[]
