tree
version=v4
num_class=1
num_tree_per_iteration=1
label_index=0
max_feature_idx=48
objective=binary sigmoid:1
feature_names=Sex Age_at_diagnosis Binary_diagnosis Final_diagnosis TOBACCO Comorbidities Pathology_Pattern_Binary Multidsciplinary_committee Pirfenidone Nintedanib Antifibrotic_Drug Prednisone Mycophenolate Extrapulmonary_affectation Associated_lung_cancer Other_cancer Blood_count_abnormality_at_diagnosis Anemia Thrombocytopenia Thrombocytosis Lymphocytosis Lymphopenia Neutrophilia Neutropenia Leukocytosis Leukopenia Hematologic_Disease Liver_abnormality LDH ALT AST ALP GGT Transaminitis Cholestasis Liver_disease FVC_(L)_at_diagnosis FVC_(%)_at_diagnosis DLCO_(%)_at_diagnosis FVC_(L)_1_year_after_diagnosis FVC_(%)_1_year_after_diagnosis DLCO_(%)_1_year_after_diagnosis RadioWorsening2y Type_of_family_history 1st_degree_relative 2nd_degree_relative More_than_1_relative Genetic_mutation_studied_in_patient Severity_of_telomere_shortening
feature_infos=[-1.611258466588724:0.62063289083417517] [-2.992122471728047:2.4800232711877936] [-1.0954451150103321:0.91287092917527701] [-0.76327373705089219:4.0511056480379697] [-1.2254967288505061:0.82982065496155333] [-1.7507762253652943:0.57117522245959951] [-1.2782029638916539:0.78234836583023626] [-2.2876479915697989:0.43713018947193599] [-0.66216428358945678:1.5101992432741995] [-0.67892378070001347:1.4729193886373175] [-1.1821319289469754:0.8459292702556338] [-0.77349246815376171:1.292837411057002] [-0.37449152518985579:2.6702873970059282] [-0.41964345453112639:2.3829753310874682] none [-0.36514837167011077:2.7386127875258306] [-0.56293996878060104:1.776388345929897] none none none none none none none none none none [-0.62063289083417517:1.611258466588724] [-0.36514837167011077:2.7386127875258306] none none none [-0.37449152518985579:2.6702873970059282] [-0.34606427010299129:2.8896366553599777] [-0.38371768763464764:2.606082628518648] none [-2.2254748989377529:3.2142037323603798] [-2.475962869611338:3.2321905741408963] [-1.9018406537036909:3.8943329343426067] [-2.2200655187464333:3.5076999605490937] [-2.3902035090875597:2.7081303612769219] [-2.9701536603167988:2.8003778267566295] [-0.62549389844528158:3.6022419693595737] [-0.9128709291752769:1.0954451150103321] [-0.87415727612153782:1.1439589045541112] none [-0.53819622110694265:1.8580583823930161] [-0.74721705904866309:1.3382992102364117] [-1.0976139210056801:2.221854594812037]
tree_sizes=455 458 353 353 354 354 438 437 352 351 443 444 354 354 452 459 355 355 355 355 440 440 355 355 440 460 461 459 438 440 441 442 355 439 353 354 463 464 440 441 355 355 461 465 440 444 441 442 441 438 439 439 350 435 462 442 461 463 433 432 355 353 462 460 439 439 439 442 354 355 453 443 443 441 461 461 458 458 463 352 439 441 440 442 355 355 441 441 439 441 442 443 355 355 440 443 439 441 442 443 460 460 440 440 354 354 440 438 354 355 462 461 544 544 443 441 459 463 461 460 441 440 356 441 441 439 444 443 441 439 440 439 462 466 443 444 442 446 442 446 443 441 440 439 461 462 531 531 357 355 443 442 465 466 467 440 445 445 437 437 441 440 439 439 463 441 462 467 443 443 443 442 437 438 442 444 441 440 462 526 441 440 464 444 355 355 443 440 435 436 551 551 356 445 462 461 356 356 443 442 441 459 535 534 444 443 356 466 356 356 545 460 436 438 441 439 529 530 547 546 444 437 441 440 549 547 440 442 439 437 550 442 459 462 463 462 463 462 461 462 463 462 464 464 441 438 456 440 544 545 440 441 530 527 439 439 523 523 529 356 559 559 460 460 459 439 354 354 527 527 463 463 439 437 441 441 455 454 443 443 461 443 437 438 446 447 551 458 439 439 438 465 461 441 440 441 445 444 525 524 526 525 452 454 442 441 461 459 552 556 464 464 442 438 462 529 461 437 557 458 526 524 435 437 544 556 463 463 462 521 527 544 523 523 440 441 440 441 461 460 436 354 537 453 525 527 464 460 443 441 445 445 463 462 441 441 554 435 528 462 441 441 441 434 528 467 464 443 551 549 545 528 352 354 463 465 456 439 460 567 546 462 532 532 444 444 442 443 528 529 438 439 560 558 441 443 549 522 540 541 463 464 529 550 442 440 438 438 543 542 539 538 462 461 441 442 550 550 440 442 555 553 440 439 460 461 462 461 528 531 441 441 528 528 442 524 434 438 547 547 523 523 461 458 443 462 439 440 442 442 531 526 444 440 443 444 461 555 526 524 549 548 551 549 460 463 466 466 530 546 353 439 439 440 437 439 437 438 465 551 440 439 465 462

Tree=0
num_leaves=3
num_cat=0
split_feature=42 41
split_gain=27.8629 4.40988
threshold=1.0000000180025095e-35 -0.29743884146068861
decision_type=2 2
left_child=1 -1
right_child=-2 -3
leaf_value=-0.24699840745129026 -0.23358062137240893 -0.25857431706619238
leaf_weight=4.9243617057800337 9.3562872409820574 13.295776605606076
leaf_count=20 38 54
internal_value=-0.247241 -0.255793
internal_weight=0 18.2201
internal_count=112 74
is_linear=0
shrinkage=1


Tree=1
num_leaves=3
num_cat=0
split_feature=42 41
split_gain=27.4102 4.3524
threshold=1.0000000180025095e-35 -0.29743884146068861
decision_type=2 2
left_child=1 -1
right_child=-2 -3
leaf_value=0.0002414235384914411 0.013547624167588854 -0.011246760041566871
leaf_weight=4.9245086312294051 9.3715894222259539 13.276836454868313
leaf_count=20 38 54
internal_value=0 -0.00848028
internal_weight=0 18.2013
internal_count=112 74
is_linear=0
shrinkage=0.0135474


Tree=2
num_leaves=2
num_cat=0
split_feature=42
split_gain=24.1728
threshold=1.0000000180025095e-35
decision_type=2
left_child=-1
right_child=-2
leaf_value=-0.0096218808610700306 0.012123679811570618
leaf_weight=14.737549275159836 8.1509452164173126
leaf_count=60 33
internal_value=0
internal_weight=0
internal_count=93
is_linear=0
shrinkage=0.0135474


Tree=3
num_leaves=2
num_cat=0
split_feature=42
split_gain=23.7992
threshold=1.0000000180025095e-35
decision_type=2
left_child=-1
right_child=-2
leaf_value=-0.0095448956645936538 0.012031951462144237
leaf_weight=14.718479812145233 8.1614841520786285
leaf_count=60 33
internal_value=0
internal_weight=0
internal_count=93
is_linear=0
shrinkage=0.0135474


Tree=4
num_leaves=2
num_cat=0
split_feature=42
split_gain=25.2107
threshold=1.0000000180025095e-35
decision_type=2
left_child=-1
right_child=-2
leaf_value=-0.0090643384197779588 0.012454150012671042
leaf_weight=15.923968449234962 9.4094558656215668
leaf_count=65 38
internal_value=0
internal_weight=0
internal_count=103
is_linear=0
shrinkage=0.0135474


Tree=5
num_leaves=2
num_cat=0
split_feature=42
split_gain=24.8037
threshold=1.0000000180025095e-35
decision_type=2
left_child=-1
right_child=-2
leaf_value=-0.0089899392028305134 0.012354095605388204
leaf_weight=15.903226226568222 9.4205412268638611
leaf_count=65 38
internal_value=0
internal_weight=0
internal_count=103
is_linear=0
shrinkage=0.0135474


Tree=6
num_leaves=3
num_cat=0
split_feature=42 38
split_gain=24.4295 3.73458
threshold=1.0000000180025095e-35 -0.29996397215402015
decision_type=2 2
left_child=1 -1
right_child=-2 -3
leaf_value=0 0.012028427271222908 -0.012020212859481346
leaf_weight=4.892259389162068 8.4381144940853137 11.723216086626049
leaf_count=20 34 48
internal_value=0 -0.00935652
internal_weight=0 16.6155
internal_count=102 68
is_linear=0
shrinkage=0.0135474


Tree=7
num_leaves=3
num_cat=0
split_feature=42 38
split_gain=24.0633 3.68609
threshold=1.0000000180025095e-35 -0.29996397215402015
decision_type=2 2
left_child=1 -1
right_child=-2 -3
leaf_value=0 0.011937759572726804 -0.011935997430646505
leaf_weight=4.892259389162068 8.4464760720729846 11.701423972845074
leaf_count=20 34 48
internal_value=0 -0.0092868
internal_weight=0 16.5937
internal_count=102 68
is_linear=0
shrinkage=0.0135474


Tree=8
num_leaves=2
num_cat=0
split_feature=42
split_gain=20.5611
threshold=1.0000000180025095e-35
decision_type=2
left_child=-1
right_child=-2
leaf_value=-0.008903945619132228 0.010763558373992042
leaf_weight=14.141029819846153 9.6974441260099411
leaf_count=58 39
internal_value=0
internal_weight=0
internal_count=97
is_linear=0
shrinkage=0.0135474


Tree=9
num_leaves=2
num_cat=0
split_feature=42
split_gain=20.235
threshold=1.0000000180025095e-35
decision_type=2
left_child=-1
right_child=-2
leaf_value=-0.0088344357380001817 0.01067837897394212
leaf_weight=14.120999947190285 9.7048304826021194
leaf_count=58 39
internal_value=0
internal_weight=0
internal_count=97
is_linear=0
shrinkage=0.0135474


Tree=10
num_leaves=3
num_cat=0
split_feature=42 41
split_gain=24.3665 0.944936
threshold=1.0000000180025095e-35 1.0000000180025095e-35
decision_type=2 2
left_child=1 -1
right_child=-2 -3
leaf_value=0 0.013039138605008601 -0.0093125731945792045
leaf_weight=5.1197101473808297 10.707673981785774 10.19002917408943
leaf_count=21 43 42
internal_value=0 -0.00774907
internal_weight=0 15.3097
internal_count=106 63
is_linear=0
shrinkage=0.0135474


Tree=11
num_leaves=3
num_cat=0
split_feature=42 41
split_gain=23.9977 0.925521
threshold=1.0000000180025095e-35 1.0000000180025095e-35
decision_type=2 2
left_child=1 -1
right_child=-2 -3
leaf_value=0 0.012931301106385152 -0.0092497790031768612
leaf_weight=5.1197101473808297 10.715984508395195 10.173526614904402
leaf_count=21 43 42
internal_value=0 -0.00769906
internal_weight=0 15.2932
internal_count=106 63
is_linear=0
shrinkage=0.0135474


Tree=12
num_leaves=2
num_cat=0
split_feature=42
split_gain=23.4235
threshold=1.0000000180025095e-35
decision_type=2
left_child=-1
right_child=-2
leaf_value=-0.0087227990044355316 0.012243071535008197
leaf_weight=15.050757974386215 9.2270558625459671
leaf_count=62 37
internal_value=0
internal_weight=0
internal_count=99
is_linear=0
shrinkage=0.0135474


Tree=13
num_leaves=2
num_cat=0
split_feature=42
split_gain=23.0567
threshold=1.0000000180025095e-35
decision_type=2
left_child=-1
right_child=-2
leaf_value=-0.0086536676367269093 0.012149590149784293
leaf_weight=15.028217375278473 9.2323388308286667
leaf_count=62 37
internal_value=0
internal_weight=0
internal_count=99
is_linear=0
shrinkage=0.0135474


Tree=14
num_leaves=3
num_cat=0
split_feature=40 41
split_gain=15.2296 0.989456
threshold=0.29196344010418934 -0.3290953621578
decision_type=2 2
left_child=1 -1
right_child=-2 -3
leaf_value=0.012918466430459347 -0.0063247806848078939 0.0011041598098174182
leaf_weight=9.4137957692146284 8.4894877970218641 6.1115575432777431
leaf_count=38 35 25
internal_value=0 0.0107788
internal_weight=0 15.5254
internal_count=98 63
is_linear=0
shrinkage=0.0135474


Tree=15
num_leaves=3
num_cat=0
split_feature=42 41
split_gain=19.2616 3.20684
threshold=1.0000000180025095e-35 0.12766300790051999
decision_type=2 2
left_child=1 -1
right_child=-2 -3
leaf_value=0.00070440532639482877 0.01419234415068054 -0.0084393613076610349
leaf_weight=6.5610759258270264 9.9885078072547913 7.4660817831754684
leaf_count=27 40 31
internal_value=0 -0.00482236
internal_weight=0 14.0272
internal_count=98 58
is_linear=0
shrinkage=0.0135474


Tree=16
num_leaves=2
num_cat=0
split_feature=42
split_gain=21.2926
threshold=1.0000000180025095e-35
decision_type=2
left_child=-1
right_child=-2
leaf_value=-0.0094259102112468872 0.010335256963455509
leaf_weight=17.614654988050461 8.4936758279800433
leaf_count=73 34
internal_value=0
internal_weight=0
internal_count=107
is_linear=0
shrinkage=0.0135474


Tree=17
num_leaves=2
num_cat=0
split_feature=42
split_gain=20.9619
threshold=1.0000000180025095e-35
decision_type=2
left_child=-1
right_child=-2
leaf_value=-0.0093490789301006322 0.010261071827846904
leaf_weight=17.583426207304001 8.4958194494247454
leaf_count=73 34
internal_value=0
internal_weight=0
internal_count=107
is_linear=0
shrinkage=0.0135474


Tree=18
num_leaves=2
num_cat=0
split_feature=42
split_gain=23.7261
threshold=1.0000000180025095e-35
decision_type=2
left_child=-1
right_child=-2
leaf_value=-0.0093745714309934353 0.011417211209689746
leaf_weight=15.644859924912453 9.7472520917654037
leaf_count=65 39
internal_value=0
internal_weight=0
internal_count=104
is_linear=0
shrinkage=0.0135474


Tree=19
num_leaves=2
num_cat=0
split_feature=42
split_gain=23.3506
threshold=1.0000000180025095e-35
decision_type=2
left_child=-1
right_child=-2
leaf_value=-0.0093013171626563293 0.011330488414070314
leaf_weight=15.616362988948822 9.7487588822841644
leaf_count=65 39
internal_value=0
internal_weight=0
internal_count=104
is_linear=0
shrinkage=0.0135474


Tree=20
num_leaves=3
num_cat=0
split_feature=41 43
split_gain=13.8612 2.08275
threshold=-0.70219007037375436 1.0000000180025095e-35
decision_type=2 2
left_child=-1 -2
right_child=1 -3
leaf_value=0.010366522956518165 -0.0086595106348071101 0
leaf_weight=6.6987011134624508 10.357857465744019 8.0207404941320419
leaf_count=27 43 33
internal_value=0 -0.0061206
internal_weight=0 18.3786
internal_count=103 76
is_linear=0
shrinkage=0.0135474


Tree=21
num_leaves=3
num_cat=0
split_feature=42 38
split_gain=20.8184 2.58787
threshold=1.0000000180025095e-35 -0.44934988937170822
decision_type=2 2
left_child=1 -1
right_child=-2 -3
leaf_value=0 0.011302806009742582 -0.010744466484559737
leaf_weight=5.3193271607160613 8.9995445013046282 10.745159566402432
leaf_count=22 36 45
internal_value=0 -0.00835928
internal_weight=0 16.0645
internal_count=103 67
is_linear=0
shrinkage=0.0135474


Tree=22
num_leaves=2
num_cat=0
split_feature=42
split_gain=26.2418
threshold=1.0000000180025095e-35
decision_type=2
left_child=-1
right_child=-2
leaf_value=-0.0089658902806917171 0.012530695236585267
leaf_weight=16.263367712497711 10.499479591846468
leaf_count=68 42
internal_value=0
internal_weight=0
internal_count=110
is_linear=0
shrinkage=0.0135474


Tree=23
num_leaves=2
num_cat=0
split_feature=42
split_gain=25.8211
threshold=1.0000000180025095e-35
decision_type=2
left_child=-1
right_child=-2
leaf_value=-0.0088952524721197593 0.012433934686839305
leaf_weight=16.232871696352959 10.498820364475252
leaf_count=68 42
internal_value=0
internal_weight=0
internal_count=110
is_linear=0
shrinkage=0.0135474


Tree=24
num_leaves=3
num_cat=0
split_feature=42 38
split_gain=15.1667 1.29302
threshold=1.0000000180025095e-35 -0.51370074601932758
decision_type=2 2
left_child=1 -1
right_child=-2 -3
leaf_value=0 0.010641239216402677 -0.0073310528509935146
leaf_weight=5.2993029505014446 10.247436270117761 11.169677704572676
leaf_count=22 41 47
internal_value=0 -0.00567998
internal_weight=0 16.469
internal_count=110 69
is_linear=0
shrinkage=0.0135474


Tree=25
num_leaves=3
num_cat=0
split_feature=41 43
split_gain=10.6315 3.41091
threshold=-0.3901472235022288 1.0000000180025095e-35
decision_type=2 2
left_child=-1 -2
right_child=1 -3
leaf_value=0.0098364607521606254 -0.007916383062620826 0.00073127240836443183
leaf_weight=8.4010323733091372 8.8287276029586792 9.466510072350502
leaf_count=34 37 39
internal_value=0 -0.00404516
internal_weight=0 18.2952
internal_count=110 76
is_linear=0
shrinkage=0.0135474


Tree=26
num_leaves=3
num_cat=0
split_feature=42 43
split_gain=20.9611 1.19708
threshold=1.0000000180025095e-35 1.0000000180025095e-35
decision_type=2 2
left_child=1 -1
right_child=-2 -3
leaf_value=-0.01030976503554468 0.011648360803179585 -2.1221630009415807e-05
leaf_weight=10.217656970024111 7.9946358054876319 5.480826959013938
leaf_count=43 32 23
internal_value=0 -0.00849719
internal_weight=0 15.6985
internal_count=98 66
is_linear=0
shrinkage=0.0135474


Tree=27
num_leaves=3
num_cat=0
split_feature=42 43
split_gain=20.6809 1.1735
threshold=1.0000000180025095e-35 1.0000000180025095e-35
decision_type=2 2
left_child=1 -1
right_child=-2 -3
leaf_value=-0.01024415731788446 0.011570523865090219 -2.1103274376013257e-05
leaf_weight=10.194129139184954 7.9921111762523642 5.4808019697666159
leaf_count=43 32 23
internal_value=0 -0.008445
internal_weight=0 15.6749
internal_count=98 66
is_linear=0
shrinkage=0.0135474


Tree=28
num_leaves=3
num_cat=0
split_feature=42 38
split_gain=20.0314 2.69091
threshold=1.0000000180025095e-35 -0.29996397215402015
decision_type=2 2
left_child=1 -1
right_child=-2 -3
leaf_value=0 0.010308756674349032 -0.0111989705684192
leaf_weight=5.5181971341371581 8.4894593209028262 12.022859483957287
leaf_count=23 34 51
internal_value=0 -0.00887037
internal_weight=0 17.5411
internal_count=108 74
is_linear=0
shrinkage=0.0135474


Tree=29
num_leaves=3
num_cat=0
split_feature=42 38
split_gain=19.7473 2.65302
threshold=1.0000000180025095e-35 -0.29996397215402015
decision_type=2 2
left_child=1 -1
right_child=-2 -3
leaf_value=0 0.010238146397751523 -0.011125402909364564
leaf_weight=5.5181971341371581 8.4862691611051577 11.990440502762791
leaf_count=23 34 51
internal_value=0 -0.00880985
internal_weight=0 17.5086
internal_count=108 74
is_linear=0
shrinkage=0.0135474


Tree=30
num_leaves=3
num_cat=0
split_feature=42 37
split_gain=11.8805 0.355949
threshold=1.0000000180025095e-35 -0.40429683528401839
decision_type=2 2
left_child=1 -1
right_child=-2 -3
leaf_value=0 0.0091302027293400315 -0.0075989421544859293
leaf_weight=4.7730603516101846 7.484248921275138 8.9401312321424484
leaf_count=20 30 38
internal_value=0 -0.00647473
internal_weight=0 13.7132
internal_count=88 58
is_linear=0
shrinkage=0.0135474


Tree=31
num_leaves=3
num_cat=0
split_feature=42 37
split_gain=11.7293 0.346144
threshold=1.0000000180025095e-35 -0.40429683528401839
decision_type=2 2
left_child=1 -1
right_child=-2 -3
leaf_value=0 0.0090716983212428548 -0.0075515556809616548
leaf_weight=4.7730603516101846 7.4810250401496878 8.9236372411251068
leaf_count=20 30 38
internal_value=0 -0.00643699
internal_weight=0 13.6967
internal_count=88 58
is_linear=0
shrinkage=0.0135474


Tree=32
num_leaves=2
num_cat=0
split_feature=42
split_gain=17.2109
threshold=1.0000000180025095e-35
decision_type=2
left_child=-1
right_child=-2
leaf_value=-0.0072864351886449226 0.010408249791499891
leaf_weight=15.832366943359375 9.7229820042848587
leaf_count=67 39
internal_value=0
internal_weight=0
internal_count=106
is_linear=0
shrinkage=0.0135474


Tree=33
num_leaves=3
num_cat=0
split_feature=42 38
split_gain=16.9434 2.1488
threshold=1.0000000180025095e-35 -0.51370074601932758
decision_type=2 2
left_child=1 -1
right_child=-2 -3
leaf_value=0 0.010333424801577071 -0.0094231812915717798
leaf_weight=5.2878545224666604 9.7174878120422363 10.51763868331909
leaf_count=22 39 45
internal_value=0 -0.00722867
internal_weight=0 15.8055
internal_count=106 67
is_linear=0
shrinkage=0.0135474


Tree=34
num_leaves=2
num_cat=0
split_feature=42
split_gain=18.98
threshold=1.0000000180025095e-35
decision_type=2
left_child=-1
right_child=-2
leaf_value=-0.0068546250668973813 0.011799674592109359
leaf_weight=13.603708773851395 10.706750318408012
leaf_count=58 43
internal_value=0
internal_weight=0
internal_count=101
is_linear=0
shrinkage=0.0135474


Tree=35
num_leaves=2
num_cat=0
split_feature=42
split_gain=18.6873
threshold=1.0000000180025095e-35
decision_type=2
left_child=-1
right_child=-2
leaf_value=-0.006803074862352044 0.011712642947292363
leaf_weight=13.580631718039513 10.698461279273033
leaf_count=58 43
internal_value=0
internal_weight=0
internal_count=101
is_linear=0
shrinkage=0.0135474


Tree=36
num_leaves=3
num_cat=0
split_feature=42 48
split_gain=9.24446 2.24762
threshold=1.0000000180025095e-35 1.0000000180025095e-35
decision_type=2 2
left_child=1 -1
right_child=-2 -3
leaf_value=-0.0071456207622531132 0.009162843950191164 0.00049329976865039051
leaf_weight=7.6797994077205658 8.6998960673809052 5.8827854245901108
leaf_count=33 35 25
internal_value=0 -0.00423094
internal_weight=0 13.5626
internal_count=93 58
is_linear=0
shrinkage=0.0135474


Tree=37
num_leaves=3
num_cat=0
split_feature=42 48
split_gain=9.11501 2.22472
threshold=1.0000000180025095e-35 1.0000000180025095e-35
decision_type=2 2
left_child=1 -1
right_child=-2 -3
leaf_value=-0.0071043468142162241 0.0091009515899241906 0.00049040880864444092
leaf_weight=7.6653917282819748 8.6937290877103806 5.8834802508354187
leaf_count=33 35 25
internal_value=0 -0.00420076
internal_weight=0 13.5489
internal_count=93 58
is_linear=0
shrinkage=0.0135474


Tree=38
num_leaves=3
num_cat=0
split_feature=42 38
split_gain=15.4288 1.18046
threshold=1.0000000180025095e-35 -0.32294642095674136
decision_type=2 2
left_child=1 -1
right_child=-2 -3
leaf_value=0 0.010000975057124127 -0.0090346381231356382
leaf_weight=6.6688871830701872 7.9421981722116461 10.184291005134583
leaf_count=28 32 44
internal_value=0 -0.0071275
internal_weight=0 16.8532
internal_count=104 72
is_linear=0
shrinkage=0.0135474


Tree=39
num_leaves=3
num_cat=0
split_feature=42 38
split_gain=15.2264 1.15888
threshold=1.0000000180025095e-35 -0.32294642095674136
decision_type=2 2
left_child=1 -1
right_child=-2 -3
leaf_value=0 0.0099371492461809794 -0.0089780869337955024
leaf_weight=6.6688871830701872 7.9352985173463813 10.159127026796341
leaf_count=28 32 44
internal_value=0 -0.00708429
internal_weight=0 16.828
internal_count=104 72
is_linear=0
shrinkage=0.0135474


Tree=40
num_leaves=2
num_cat=0
split_feature=42
split_gain=15.0617
threshold=1.0000000180025095e-35
decision_type=2
left_child=-1
right_child=-2
leaf_value=-0.0088238032798321677 0.0084078245809323677
leaf_weight=13.968451619148254 8.1753783375024796
leaf_count=60 33
internal_value=0
internal_weight=0
internal_count=93
is_linear=0
shrinkage=0.0135474


Tree=41
num_leaves=2
num_cat=0
split_feature=42
split_gain=14.8443
threshold=1.0000000180025095e-35
decision_type=2
left_child=-1
right_child=-2
leaf_value=-0.0087602353035720788 0.0083531547799879161
leaf_weight=13.936282113194466 8.1687329411506653
leaf_count=60 33
internal_value=0
internal_weight=0
internal_count=93
is_linear=0
shrinkage=0.0135474


Tree=42
num_leaves=3
num_cat=0
split_feature=42 38
split_gain=14.2023 0.323353
threshold=1.0000000180025095e-35 -0.32294642095674136
decision_type=2 2
left_child=1 -1
right_child=-2 -3
leaf_value=-0.0004873441770762912 0.0093641850463589485 -0.0082584776458387767
leaf_weight=6.4174644649028805 8.407139405608179 10.330121859908102
leaf_count=27 34 45
internal_value=0 -0.006937
internal_weight=0 16.7476
internal_count=106 72
is_linear=0
shrinkage=0.0135474


Tree=43
num_leaves=3
num_cat=0
split_feature=42 41
split_gain=14.0144 0.188625
threshold=1.0000000180025095e-35 -0.29743884146068861
decision_type=2 2
left_child=1 -1
right_child=-2 -3
leaf_value=-0.00018885673296268983 0.0093033556450521204 -0.0078370517678628578
leaf_weight=4.9909161776304289 8.3987596482038516 11.731498092412945
leaf_count=21 34 51
internal_value=0 -0.00689537
internal_weight=0 16.7224
internal_count=106 72
is_linear=0
shrinkage=0.0135474


Tree=44
num_leaves=3
num_cat=0
split_feature=42 38
split_gain=16.3382 2.12946
threshold=1.0000000180025095e-35 -0.29996397215402015
decision_type=2 2
left_child=1 -1
right_child=-2 -3
leaf_value=0 0.01170822438875584 -0.0079612883756226046
leaf_weight=4.9744063466787347 9.3809926509857178 10.038851916790007
leaf_count=21 38 44
internal_value=0 -0.00569901
internal_weight=0 15.0133
internal_count=103 65
is_linear=0
shrinkage=0.0135474


Tree=45
num_leaves=3
num_cat=0
split_feature=42 41
split_gain=16.1029 0.700361
threshold=1.0000000180025095e-35 1.0000000180025095e-35
decision_type=2 2
left_child=1 -1
right_child=-2 -3
leaf_value=0 0.011630338746434777 -0.0069816422540380212
leaf_weight=5.1997709572315225 9.3684352189302444 9.7897890359163267
leaf_count=22 38 43
internal_value=0 -0.00565755
internal_weight=0 14.9896
internal_count=103 65
is_linear=0
shrinkage=0.0135474


Tree=46
num_leaves=3
num_cat=0
split_feature=42 38
split_gain=12.3035 2.04191
threshold=1.0000000180025095e-35 -0.51370074601932758
decision_type=2 2
left_child=1 -1
right_child=-2 -3
leaf_value=0 0.0079429095594145648 -0.0094410713373172962
leaf_weight=4.7559266537427911 8.8638685345649719 10.020117357373236
leaf_count=20 36 44
internal_value=0 -0.00733573
internal_weight=0 14.776
internal_count=100 64
is_linear=0
shrinkage=0.0135474


Tree=47
num_leaves=3
num_cat=0
split_feature=42 38
split_gain=12.1327 2.01804
threshold=1.0000000180025095e-35 -0.51370074601932758
decision_type=2 2
left_child=1 -1
right_child=-2 -3
leaf_value=0 0.0078899643138285649 -0.0093842880775597218
leaf_weight=4.7559266537427911 8.8551020920276642 9.9917856603860837
leaf_count=20 36 44
internal_value=0 -0.00728826
internal_weight=0 14.7477
internal_count=100 64
is_linear=0
shrinkage=0.0135474


Tree=48
num_leaves=3
num_cat=0
split_feature=42 38
split_gain=9.40642 1.89059
threshold=1.0000000180025095e-35 -0.32294642095674136
decision_type=2 2
left_child=1 -1
right_child=-2 -3
leaf_value=0 0.0066333601349880065 -0.0096153382557878728
leaf_weight=4.9579848051071176 6.1398839950561515 9.2586126625537872
leaf_count=21 25 41
internal_value=0 -0.00747889
internal_weight=0 14.2166
internal_count=87 62
is_linear=0
shrinkage=0.0135474


Tree=49
num_leaves=3
num_cat=0
split_feature=40 41
split_gain=7.92372 0.918002
threshold=0.070296750088342241 -0.45388508514912468
decision_type=2 2
left_child=1 -1
right_child=-2 -3
leaf_value=0.0063190846177282297 -0.0081696761719613226 0
leaf_weight=5.1116001904010773 10.521358296275137 4.6902868300676364
leaf_count=21 46 20
internal_value=0 0.0044452
internal_weight=0 9.80189
internal_count=87 41
is_linear=0
shrinkage=0.0135474


Tree=50
num_leaves=3
num_cat=0
split_feature=42 38
split_gain=13.225 1.83745
threshold=1.0000000180025095e-35 -0.29996397215402015
decision_type=2 2
left_child=1 -1
right_child=-2 -3
leaf_value=0 0.0097915912578443176 -0.0087370080542361183
leaf_weight=5.4375710487365732 8.3426543921232224 8.0864295214414579
leaf_count=23 34 36
internal_value=0 -0.00641205
internal_weight=0 13.524
internal_count=93 59
is_linear=0
shrinkage=0.0135474


Tree=51
num_leaves=3
num_cat=0
split_feature=42 38
split_gain=13.052 1.8176
threshold=1.0000000180025095e-35 -0.29996397215402015
decision_type=2 2
left_child=1 -1
right_child=-2 -3
leaf_value=0 0.0097300082030212474 -0.0086893062342805402
leaf_weight=5.4375710487365732 8.3313904702663422 8.0638400018215162
leaf_count=23 34 36
internal_value=0 -0.00637404
internal_weight=0 13.5014
internal_count=93 59
is_linear=0
shrinkage=0.0135474


Tree=52
num_leaves=2
num_cat=0
split_feature=41
split_gain=12.9706
threshold=-0.3290953621578
decision_type=2
left_child=-1
right_child=-2
leaf_value=0.0092599823503532845 -0.0064781326154593538
leaf_weight=8.2159292697906512 16.091657638549805
leaf_count=34 70
internal_value=0
internal_weight=0
internal_count=104
is_linear=0
shrinkage=0.0135474


Tree=53
num_leaves=3
num_cat=0
split_feature=41 3
split_gain=12.7729 0.935021
threshold=-0.3290953621578 0.51112080606086541
decision_type=2 2
left_child=-1 -2
right_child=1 -3
leaf_value=0.0091960353311392861 -0.0082076841905714092 0
leaf_weight=8.2154726684093493 9.3605797886848467 6.7091972827911368
leaf_count=34 41 29
internal_value=0 -0.00642503
internal_weight=0 16.0698
internal_count=104 70
is_linear=0
shrinkage=0.0135474


Tree=54
num_leaves=3
num_cat=0
split_feature=42 37
split_gain=12.0538 3.10681
threshold=1.0000000180025095e-35 -0.40429683528401839
decision_type=2 2
left_child=1 -1
right_child=-2 -3
leaf_value=0.0010562206753472912 0.0092978389092110668 -0.0079189152905565496
leaf_weight=4.9380664080381438 10.758228838443758 11.245040014386174
leaf_count=21 44 50
internal_value=0 -0.00516434
internal_weight=0 16.1831
internal_count=115 71
is_linear=0
shrinkage=0.0135474


Tree=55
num_leaves=3
num_cat=0
split_feature=42 40
split_gain=11.8665 1.8939
threshold=1.0000000180025095e-35 -0.093736600523384686
decision_type=2 2
left_child=1 -1
right_child=-2 -3
leaf_value=0 0.0092324206797056822 -0.0071610306168654343
leaf_weight=4.9356380999088332 10.743302851915361 11.220739096403118
leaf_count=21 44 50
internal_value=0 -0.00512282
internal_weight=0 16.1564
internal_count=115 71
is_linear=0
shrinkage=0.0135474


Tree=56
num_leaves=3
num_cat=0
split_feature=42 40
split_gain=15.3973 3.25554
threshold=1.0000000180025095e-35 -0.076003265322116667
decision_type=2 2
left_child=1 -1
right_child=-2 -3
leaf_value=0.00066019381834983527 0.01087043641406125 -0.0084634483738175725
leaf_weight=5.8294114768505141 9.9986333101987857 11.163273245096203
leaf_count=25 41 50
internal_value=0 -0.0055666
internal_weight=0 16.9927
internal_count=116 75
is_linear=0
shrinkage=0.0135474


Tree=57
num_leaves=3
num_cat=0
split_feature=42 40
split_gain=15.1684 3.21868
threshold=1.0000000180025095e-35 -0.076003265322116667
decision_type=2 2
left_child=1 -1
right_child=-2 -3
leaf_value=0.00065633152313850627 0.010798337205953853 -0.0084097975229026917
leaf_weight=5.8303795605897948 9.9814676344394702 11.132490113377568
leaf_count=25 41 50
internal_value=0 -0.00552385
internal_weight=0 16.9629
internal_count=116 75
is_linear=0
shrinkage=0.0135474


Tree=58
num_leaves=3
num_cat=0
split_feature=40 41
split_gain=12.3994 1.88056
threshold=0.070296750088342241 -0.3290953621578
decision_type=2 2
left_child=1 -1
right_child=-2 -3
leaf_value=0.010344461100671973 -0.0072964885586501412 0
leaf_weight=7.0043473094701767 11.564384192228315 4.6906592547893542
leaf_count=29 51 20
internal_value=0 0.00797723
internal_weight=0 11.695
internal_count=100 49
is_linear=0
shrinkage=0.0135474


Tree=59
num_leaves=3
num_cat=0
split_feature=40 41
split_gain=12.2315 1.85674
threshold=0.070296750088342241 -0.3290953621578
decision_type=2 2
left_child=1 -1
right_child=-2 -3
leaf_value=0.010282509008366065 -0.0072448768039119014 0
leaf_weight=6.9983367472887039 11.54493774473667 4.6906592547893542
leaf_count=29 51 20
internal_value=0 0.00792944
internal_weight=0 11.689
internal_count=100 49
is_linear=0
shrinkage=0.0135474


Tree=60
num_leaves=2
num_cat=0
split_feature=42
split_gain=8.63646
threshold=1.0000000180025095e-35
decision_type=2
left_child=-1
right_child=-2
leaf_value=-0.0055774156632359927 0.0078564153289637454
leaf_weight=12.632569327950479 7.5288035720586768
leaf_count=56 31
internal_value=0
internal_weight=0
internal_count=87
is_linear=0
shrinkage=0.0135474


Tree=61
num_leaves=2
num_cat=0
split_feature=42
split_gain=8.5173
threshold=1.0000000180025095e-35
decision_type=2
left_child=-1
right_child=-2
leaf_value=-0.0055366288426277844 0.007809363449226771
leaf_weight=12.611100956797602 7.5188332051038733
leaf_count=56 31
internal_value=0
internal_weight=0
internal_count=87
is_linear=0
shrinkage=0.0135474


Tree=62
num_leaves=3
num_cat=0
split_feature=42 38
split_gain=11.5875 2.00948
threshold=1.0000000180025095e-35 -0.32294642095674136
decision_type=2 2
left_child=1 -1
right_child=-2 -3
leaf_value=9.7419585942831171e-05 0.010249666621354785 -0.0070306898094313411
leaf_weight=6.1175133287906656 8.4575550854206085 9.4227679967880231
leaf_count=26 35 43
internal_value=0 -0.00455228
internal_weight=0 15.5403
internal_count=104 69
is_linear=0
shrinkage=0.0135474


Tree=63
num_leaves=3
num_cat=0
split_feature=42 38
split_gain=11.4287 1.98854
threshold=1.0000000180025095e-35 -0.32294642095674136
decision_type=2 2
left_child=1 -1
right_child=-2 -3
leaf_value=9.683986538804444e-05 0.01018759247926896 -0.0069881818890989338
leaf_weight=6.1176549494266519 8.4416635632514954 9.3994767367839795
leaf_count=26 35 43
internal_value=0 -0.00451875
internal_weight=0 15.5171
internal_count=104 69
is_linear=0
shrinkage=0.0135474


Tree=64
num_leaves=3
num_cat=0
split_feature=42 1
split_gain=10.0755 0.997396
threshold=1.0000000180025095e-35 0.08595950866211341
decision_type=2 2
left_child=1 -1
right_child=-2 -3
leaf_value=0 0.0087555346411041061 -0.0066981106927639332
leaf_weight=4.4811594933271417 8.6876977533102036 9.4528616666793805
leaf_count=20 36 42
internal_value=0 -0.00521737
internal_weight=0 13.934
internal_count=98 62
is_linear=0
shrinkage=0.0135474


Tree=65
num_leaves=3
num_cat=0
split_feature=42 38
split_gain=9.93879 1.52298
threshold=1.0000000180025095e-35 -0.32294642095674136
decision_type=2 2
left_child=1 -1
right_child=-2 -3
leaf_value=0 0.0087006750683422916 -0.007225530042262741
leaf_weight=5.2067069113254556 8.6735399067401886 8.708001956343649
leaf_count=22 36 40
internal_value=0 -0.00518261
internal_weight=0 13.9147
internal_count=98 62
is_linear=0
shrinkage=0.0135474


Tree=66
num_leaves=3
num_cat=0
split_feature=42 40
split_gain=12.7232 1.32161
threshold=1.0000000180025095e-35 -0.076003265322116667
decision_type=2 2
left_child=1 -1
right_child=-2 -3
leaf_value=0 0.0107464031527918 -0.006458364467750429
leaf_weight=4.6109066456556329 10.550869703292847 8.7252946496009809
leaf_count=20 44 40
internal_value=0 -0.00460109
internal_weight=0 13.3362
internal_count=104 60
is_linear=0
shrinkage=0.0135474


Tree=67
num_leaves=3
num_cat=0
split_feature=42 40
split_gain=12.5439 1.30844
threshold=1.0000000180025095e-35 -0.076003265322116667
decision_type=2 2
left_child=1 -1
right_child=-2 -3
leaf_value=0 0.010676298613022729 -0.0064200802977769757
leaf_weight=4.6109066456556329 10.527883246541023 8.7052776217460615
leaf_count=20 44 40
internal_value=0 -0.00456939
internal_weight=0 13.3162
internal_count=104 60
is_linear=0
shrinkage=0.0135474


Tree=68
num_leaves=2
num_cat=0
split_feature=42
split_gain=11.2575
threshold=1.0000000180025095e-35
decision_type=2
left_child=-1
right_child=-2
leaf_value=-0.007947208738239139 0.0074260425546400621
leaf_weight=13.560926318168642 6.6641675531864157
leaf_count=61 28
internal_value=0
internal_weight=0
internal_count=89
is_linear=0
shrinkage=0.0135474


Tree=69
num_leaves=2
num_cat=0
split_feature=42
split_gain=11.1069
threshold=1.0000000180025095e-35
decision_type=2
left_child=-1
right_child=-2
leaf_value=-0.0078919588453727312 0.0073853695361855232
leaf_weight=13.525956377387049 6.6533164680004111
leaf_count=61 28
internal_value=0
internal_weight=0
internal_count=89
is_linear=0
shrinkage=0.0135474


Tree=70
num_leaves=3
num_cat=0
split_feature=41 1
split_gain=7.69279 2.307
threshold=-0.3290953621578 -0.30490804440330371
decision_type=2 2
left_child=-1 -2
right_child=1 -3
leaf_value=0.0067922019852909472 0.0003233057928975945 -0.0075219983559933184
leaf_weight=9.4315120279788989 5.1285972446203241 10.497801885008808
leaf_count=40 22 48
internal_value=0 -0.00512092
internal_weight=0 15.6264
internal_count=110 70
is_linear=0
shrinkage=0.0135474


Tree=71
num_leaves=3
num_cat=0
split_feature=42 44
split_gain=13.2851 1.50387
threshold=1.0000000180025095e-35 1.0000000180025095e-35
decision_type=2 2
left_child=1 -1
right_child=-2 -3
leaf_value=-0.008657705294798302 0.0086971173260130992 0
leaf_weight=10.377176105976103 9.9998555779457092 4.6510104089975366
leaf_count=47 42 21
internal_value=0 -0.00690192
internal_weight=0 15.0282
internal_count=110 68
is_linear=0
shrinkage=0.0135474


Tree=72
num_leaves=3
num_cat=0
split_feature=42 27
split_gain=6.93832 1.09461
threshold=1.0000000180025095e-35 1.0000000180025095e-35
decision_type=2 2
left_child=1 -1
right_child=-2 -3
leaf_value=-0.0054873371914446467 0.0080427339403277807 0
leaf_weight=8.2404419630765897 8.3059740662574768 4.6851630210876474
leaf_count=37 35 21
internal_value=0 -0.00369315
internal_weight=0 12.9256
internal_count=93 58
is_linear=0
shrinkage=0.0135474


Tree=73
num_leaves=3
num_cat=0
split_feature=42 27
split_gain=6.84513 1.08396
threshold=1.0000000180025095e-35 1.0000000180025095e-35
decision_type=2 2
left_child=1 -1
right_child=-2 -3
leaf_value=-0.0054541987541867161 0.0079941671311583497 0
leaf_weight=8.2259015142917615 8.29093337059021 4.6851630210876474
leaf_count=37 35 21
internal_value=0 -0.00366624
internal_weight=0 12.9111
internal_count=93 58
is_linear=0
shrinkage=0.0135474


Tree=74
num_leaves=3
num_cat=0
split_feature=42 38
split_gain=9.22371 3.52736
threshold=1.0000000180025095e-35 -0.29996397215402015
decision_type=2 2
left_child=1 -1
right_child=-2 -3
leaf_value=0.0020960430488622243 0.0087666796410705156 -0.0071629389025750232
leaf_weight=4.9495611190795943 10.200487092137339 11.06757520139217
leaf_count=21 43 52
internal_value=0 -0.00398438
internal_weight=0 16.0171
internal_count=116 73
is_linear=0
shrinkage=0.0135474


Tree=75
num_leaves=3
num_cat=0
split_feature=42 38
split_gain=9.08285 3.48701
threshold=1.0000000180025095e-35 -0.29996397215402015
decision_type=2 2
left_child=1 -1
right_child=-2 -3
leaf_value=0.0020846499274814814 0.0087093383433931252 -0.0071177017171571658
leaf_weight=4.9519984871149072 10.180273577570915 11.037034973502157
leaf_count=21 43 52
internal_value=0 -0.00394997
internal_weight=0 15.989
internal_count=116 73
is_linear=0
shrinkage=0.0135474


Tree=76
num_leaves=3
num_cat=0
split_feature=41 47
split_gain=6.32574 1.62193
threshold=-0.3290953621578 1.0000000180025095e-35
decision_type=2 2
left_child=-1 -2
right_child=1 -3
leaf_value=0.0068607662398848619 -0.0061808064018479738 3.996200765357439e-05
leaf_weight=7.7481461912393597 11.144688576459886 5.9349751323461524
leaf_count=33 51 26
internal_value=0 -0.00414195
internal_weight=0 17.0797
internal_count=110 77
is_linear=0
shrinkage=0.0135474


Tree=77
num_leaves=3
num_cat=0
split_feature=41 47
split_gain=6.23275 1.60348
threshold=-0.3290953621578 1.0000000180025095e-35
decision_type=2 2
left_child=-1 -2
right_child=1 -3
leaf_value=0.0068154239348271655 -0.0061383966457910994 3.9728583782196042e-05
leaf_weight=7.7461716532707241 11.123939841985704 5.934990629553794
leaf_count=33 51 26
internal_value=0 -0.00410808
internal_weight=0 17.0589
internal_count=110 77
is_linear=0
shrinkage=0.0135474


Tree=78
num_leaves=3
num_cat=0
split_feature=42 41
split_gain=10.4235 0.113567
threshold=1.0000000180025095e-35 0.12766300790051999
decision_type=2 2
left_child=1 -1
right_child=-2 -3
leaf_value=-0.00018767703889974931 0.0084500128288904127 -0.0073410061124624965
leaf_weight=5.2335907369852066 8.9516596049070358 5.8870508521795273
leaf_count=23 38 28
internal_value=0 -0.00615928
internal_weight=0 11.1206
internal_count=89 51
is_linear=0
shrinkage=0.0135474


Tree=79
num_leaves=2
num_cat=0
split_feature=40
split_gain=6.39131
threshold=0.070296750088342241
decision_type=2
left_child=-1
right_child=-2
leaf_value=0.0061083098306822922 -0.0053076265001880249
leaf_weight=10.927163496613504 9.109564080834387
leaf_count=47 42
internal_value=0
internal_weight=0
internal_count=89
is_linear=0
shrinkage=0.0135474


Tree=80
num_leaves=3
num_cat=0
split_feature=42 38
split_gain=5.83255 1.09646
threshold=1.0000000180025095e-35 -0.23561311550640077
decision_type=2 2
left_child=1 -1
right_child=-2 -3
leaf_value=0 0.0060012077282289604 -0.0068740100511491429
leaf_weight=5.0135198086500177 7.2746780514717093 7.5604880601167688
leaf_count=22 31 36
internal_value=0 -0.0050779
internal_weight=0 12.574
internal_count=89 58
is_linear=0
shrinkage=0.0135474


Tree=81
num_leaves=3
num_cat=0
split_feature=42 38
split_gain=5.76022 1.08514
threshold=1.0000000180025095e-35 -0.23561311550640077
decision_type=2 2
left_child=1 -1
right_child=-2 -3
leaf_value=0 0.0059663392625573589 -0.0068375666474362537
leaf_weight=5.0135198086500177 7.2639309465885153 7.5397184640169153
leaf_count=22 31 36
internal_value=0 -0.00504859
internal_weight=0 12.5532
internal_count=89 58
is_linear=0
shrinkage=0.0135474


Tree=82
num_leaves=3
num_cat=0
split_feature=40 37
split_gain=9.21125 1.12982
threshold=-0.093736600523384686 0.83082947021754283
decision_type=2 2
left_child=-1 -2
right_child=1 -3
leaf_value=0.0078555316745534936 -0.0067952475275224857 0
leaf_weight=10.207810118794443 9.3025800585746747 4.8308021426200858
leaf_count=44 43 22
internal_value=0 -0.00515589
internal_weight=0 14.1334
internal_count=109 65
is_linear=0
shrinkage=0.0135474


Tree=83
num_leaves=3
num_cat=0
split_feature=42 41
split_gain=10.6445 0.969243
threshold=1.0000000180025095e-35 0.12766300790051999
decision_type=2 2
left_child=1 -1
right_child=-2 -3
leaf_value=0 0.0084404472122243182 -0.0073412199351609109
leaf_weight=6.0808407962322244 10.074235364794731 8.1636240333318693
leaf_count=27 43 39
internal_value=0 -0.00556731
internal_weight=0 14.2445
internal_count=109 66
is_linear=0
shrinkage=0.0135474


Tree=84
num_leaves=2
num_cat=0
split_feature=42
split_gain=9.0041
threshold=1.0000000180025095e-35
decision_type=2
left_child=-1
right_child=-2
leaf_value=-0.0076870248182537267 0.0057024580521899708
leaf_weight=15.778158724308016 7.0241774916648856
leaf_count=73 30
internal_value=0
internal_weight=0
internal_count=103
is_linear=0
shrinkage=0.0135474


Tree=85
num_leaves=2
num_cat=0
split_feature=42
split_gain=8.8793
threshold=1.0000000180025095e-35
decision_type=2
left_child=-1
right_child=-2
leaf_value=-0.0076314599123848805 0.0056697894757714628
leaf_weight=15.735077008605005 7.0141587704420081
leaf_count=73 30
internal_value=0
internal_weight=0
internal_count=103
is_linear=0
shrinkage=0.0135474


Tree=86
num_leaves=3
num_cat=0
split_feature=42 38
split_gain=7.07564 1.29138
threshold=1.0000000180025095e-35 -0.51370074601932758
decision_type=2 2
left_child=1 -1
right_child=-2 -3
leaf_value=0 0.0069052572158016723 -0.0068181507074048398
leaf_weight=4.6747853904962549 8.3664484918117523 8.5786023885011655
leaf_count=20 36 41
internal_value=0 -0.00499439
internal_weight=0 13.2534
internal_count=97 61
is_linear=0
shrinkage=0.0135474


Tree=87
num_leaves=3
num_cat=0
split_feature=42 36
split_gain=6.98116 0.248757
threshold=1.0000000180025095e-35 -0.4482103774384672
decision_type=2 2
left_child=1 -1
right_child=-2 -3
leaf_value=0 0.0068634589374366702 -0.0059164603177967717
leaf_weight=4.9419037997722635 8.3511888980865479 8.2880139946937543
leaf_count=22 36 39
internal_value=0 -0.00496239
internal_weight=0 13.2299
internal_count=97 61
is_linear=0
shrinkage=0.0135474


Tree=88
num_leaves=3
num_cat=0
split_feature=42 38
split_gain=9.30176 0.71838
threshold=1.0000000180025095e-35 -0.29996397215402015
decision_type=2 2
left_child=1 -1
right_child=-2 -3
leaf_value=0 0.0077312536484327801 -0.0071570277879520064
leaf_weight=4.6250312030315408 9.3089739233255386 8.060483440756796
leaf_count=20 40 39
internal_value=0 -0.0057666
internal_weight=0 12.6855
internal_count=99 59
is_linear=0
shrinkage=0.0135474


Tree=89
num_leaves=3
num_cat=0
split_feature=42 38
split_gain=9.1815 0.708921
threshold=1.0000000180025095e-35 -0.29996397215402015
decision_type=2 2
left_child=1 -1
right_child=-2 -3
leaf_value=0 0.0076828792995763525 -0.0071186725239355984
leaf_weight=4.6250312030315408 9.2901447415351868 8.0365081280469877
leaf_count=20 40 39
internal_value=0 -0.00573527
internal_weight=0 12.6615
internal_count=99 59
is_linear=0
shrinkage=0.0135474


Tree=90
num_leaves=3
num_cat=0
split_feature=42 1
split_gain=8.57423 0.726452
threshold=1.0000000180025095e-35 1.0000000180025095e-35
decision_type=2 2
left_child=1 -1
right_child=-2 -3
leaf_value=0 0.006048560933319974 -0.0077830754563771977
leaf_weight=5.1726592928171167 9.270179808139801 10.653142035007475
leaf_count=24 40 50
internal_value=0 -0.00645747
internal_weight=0 15.8258
internal_count=114 74
is_linear=0
shrinkage=0.0135474


Tree=91
num_leaves=3
num_cat=0
split_feature=42 1
split_gain=8.45958 0.713444
threshold=1.0000000180025095e-35 1.0000000180025095e-35
decision_type=2 2
left_child=1 -1
right_child=-2 -3
leaf_value=0 0.0060094813851954516 -0.0077352689500335787
leaf_weight=5.1726592928171167 9.2551192194223404 10.622404456138609
leaf_count=24 40 50
internal_value=0 -0.0064184
internal_weight=0 15.7951
internal_count=114 74
is_linear=0
shrinkage=0.0135474


Tree=92
num_leaves=2
num_cat=0
split_feature=42
split_gain=11.6311
threshold=1.0000000180025095e-35
decision_type=2
left_child=-1
right_child=-2
leaf_value=-0.0063281973022754788 0.0081781904217379034
leaf_weight=15.469206690788269 10.12709267437458
leaf_count=72 44
internal_value=0
internal_weight=0
internal_count=116
is_linear=0
shrinkage=0.0135474


Tree=93
num_leaves=2
num_cat=0
split_feature=42
split_gain=11.4565
threshold=1.0000000180025095e-35
decision_type=2
left_child=-1
right_child=-2
leaf_value=-0.0062808293436943715 0.0081263153722047725
leaf_weight=15.43405681848526 10.103846028447151
leaf_count=72 44
internal_value=0
internal_weight=0
internal_count=116
is_linear=0
shrinkage=0.0135474


Tree=94
num_leaves=3
num_cat=0
split_feature=42 38
split_gain=8.63704 0.86624
threshold=1.0000000180025095e-35 -0.29996397215402015
decision_type=2 2
left_child=1 -1
right_child=-2 -3
leaf_value=0 0.0075921253451476205 -0.0072965874248060213
leaf_weight=4.5847200453281403 8.4617610424757004 7.279978945851326
leaf_count=20 37 36
internal_value=0 -0.00572539
internal_weight=0 11.8647
internal_count=93 56
is_linear=0
shrinkage=0.0135474


Tree=95
num_leaves=3
num_cat=0
split_feature=42 41
split_gain=8.53057 0.718126
threshold=1.0000000180025095e-35 1.0000000180025095e-35
decision_type=2 2
left_child=1 -1
right_child=-2 -3
leaf_value=0 0.0075474320066923105 -0.007182031769703035
leaf_weight=4.7468977868556976 8.4430824220180511 7.0946041643619537
leaf_count=21 37 35
internal_value=0 -0.00569562
internal_weight=0 11.8415
internal_count=93 56
is_linear=0
shrinkage=0.0135474


Tree=96
num_leaves=3
num_cat=0
split_feature=42 41
split_gain=9.0623 1.53727
threshold=1.0000000180025095e-35 0.12766300790051999
decision_type=2 2
left_child=1 -1
right_child=-2 -3
leaf_value=0 0.0079421341641941652 -0.0075428959743442433
leaf_weight=7.8797014653682771 7.9573625773191443 8.8470509797334653
leaf_count=35 35 44
internal_value=0 -0.0052112
internal_weight=0 16.7268
internal_count=114 79
is_linear=0
shrinkage=0.0135474


Tree=97
num_leaves=3
num_cat=0
split_feature=42 41
split_gain=8.94821 1.51913
threshold=1.0000000180025095e-35 0.12766300790051999
decision_type=2 2
left_child=1 -1
right_child=-2 -3
leaf_value=0 0.0078974765214758526 -0.0075020359085947201
leaf_weight=7.8797014653682771 7.9383853226900092 8.8176072239875776
leaf_count=35 35 44
internal_value=0 -0.00518067
internal_weight=0 16.6973
internal_count=114 79
is_linear=0
shrinkage=0.0135474


Tree=98
num_leaves=3
num_cat=0
split_feature=40 48
split_gain=6.15461 0.277589
threshold=-0.093736600523384686 1.0000000180025095e-35
decision_type=2 2
left_child=-1 -2
right_child=1 -3
leaf_value=0.0076554956070880933 -0.0042429956930681786 0
leaf_weight=10.85215573012829 6.0590648353099805 4.3331872373819351
leaf_count=48 29 20
internal_value=0 -0.00330581
internal_weight=0 10.3923
internal_count=97 49
is_linear=0
shrinkage=0.0135474


Tree=99
num_leaves=3
num_cat=0
split_feature=40 48
split_gain=6.07027 0.274308
threshold=-0.093736600523384686 1.0000000180025095e-35
decision_type=2 2
left_child=-1 -2
right_child=1 -3
leaf_value=0.0075973032807165591 -0.0042200331234471507 0
leaf_weight=10.847187250852587 6.0521866232156736 4.3331872373819351
leaf_count=48 29 20
internal_value=0 -0.00328795
internal_weight=0 10.3854
internal_count=97 49
is_linear=0
shrinkage=0.0135474


Tree=100
num_leaves=3
num_cat=0
split_feature=42 38
split_gain=6.68999 2.2624
threshold=1.0000000180025095e-35 -0.32294642095674136
decision_type=2 2
left_child=1 -1
right_child=-2 -3
leaf_value=0.00053503106113854436 0.0072463313902235704 -0.0072983394505068792
leaf_weight=5.329999640583992 8.1670230031013489 7.2710078060626984
leaf_count=23 36 36
internal_value=0 -0.00438643
internal_weight=0 12.601
internal_count=95 59
is_linear=0
shrinkage=0.0135474


Tree=101
num_leaves=3
num_cat=0
split_feature=42 38
split_gain=6.60255 2.24193
threshold=1.0000000180025095e-35 -0.32294642095674136
decision_type=2 2
left_child=1 -1
right_child=-2 -3
leaf_value=0.00053206661726832465 0.0072043492395976209 -0.007261949210582608
leaf_weight=5.330741822719574 8.1491119116544724 7.247869685292244
leaf_count=23 36 36
internal_value=0 -0.00435798
internal_weight=0 12.5786
internal_count=95 59
is_linear=0
shrinkage=0.0135474


Tree=102
num_leaves=3
num_cat=0
split_feature=42 41
split_gain=6.47177 1.16016
threshold=1.0000000180025095e-35 -0.29743884146068861
decision_type=2 2
left_child=1 -1
right_child=-2 -3
leaf_value=0 0.0056863347301190047 -0.00715355929484716
leaf_weight=4.910665616393092 7.4567122459411612 10.393849864602087
leaf_count=21 33 51
internal_value=0 -0.00557783
internal_weight=0 15.3045
internal_count=105 72
is_linear=0
shrinkage=0.0135474


Tree=103
num_leaves=3
num_cat=0
split_feature=42 41
split_gain=6.38713 1.14636
threshold=1.0000000180025095e-35 -0.29743884146068861
decision_type=2 2
left_child=1 -1
right_child=-2 -3
leaf_value=0 0.0056536324173883492 -0.0071106927125543697
leaf_weight=4.910665616393092 7.4436543881893149 10.36230246722698
leaf_count=21 33 51
internal_value=0 -0.00554192
internal_weight=0 15.273
internal_count=105 72
is_linear=0
shrinkage=0.0135474


Tree=104
num_leaves=2
num_cat=0
split_feature=42
split_gain=7.40924
threshold=1.0000000180025095e-35
decision_type=2
left_child=-1
right_child=-2
leaf_value=-0.0059328589487713888 0.006254043684340284
leaf_weight=13.21638822555542 8.1045424342155457
leaf_count=63 36
internal_value=0
internal_weight=0
internal_count=99
is_linear=0
shrinkage=0.0135474


Tree=105
num_leaves=2
num_cat=0
split_feature=42
split_gain=7.30493
threshold=1.0000000180025095e-35
decision_type=2
left_child=-1
right_child=-2
leaf_value=-0.005890864180531424 0.0062172062605162625
leaf_weight=13.18634569644928 8.0886514335870743
leaf_count=63 36
internal_value=0
internal_weight=0
internal_count=99
is_linear=0
shrinkage=0.0135474


Tree=106
num_leaves=3
num_cat=0
split_feature=40 42
split_gain=5.48476 1.41785
threshold=0.15896342609468106 1.0000000180025095e-35
decision_type=2 2
left_child=1 -1
right_child=-2 -3
leaf_value=0 -0.0058808707498121263 0.0072217320291731854
leaf_weight=6.6677335351705569 8.9295163452625257 5.3375282436609268
leaf_count=30 44 24
internal_value=0 0.00463805
internal_weight=0 12.0053
internal_count=98 54
is_linear=0
shrinkage=0.0135474


Tree=107
num_leaves=3
num_cat=0
split_feature=40 42
split_gain=5.41785 1.40532
threshold=0.15896342609468106 1.0000000180025095e-35
decision_type=2 2
left_child=1 -1
right_child=-2 -3
leaf_value=0 -0.0058446132125516467 0.007189124974189518
leaf_weight=6.6677335351705569 8.9119188487529737 5.324726477265358
leaf_count=30 44 24
internal_value=0 0.00461474
internal_weight=0 11.9925
internal_count=98 54
is_linear=0
shrinkage=0.0135474


Tree=108
num_leaves=2
num_cat=0
split_feature=40
split_gain=7.10485
threshold=-0.093736600523384686
decision_type=2
left_child=-1
right_child=-2
leaf_value=0.0059990796278500706 -0.0063717182605163916
leaf_weight=8.058948367834093 10.228823795914648
leaf_count=36 50
internal_value=0
internal_weight=0
internal_count=86
is_linear=0
shrinkage=0.0135474


Tree=109
num_leaves=2
num_cat=0
split_feature=40
split_gain=7.00734
threshold=-0.093736600523384686
decision_type=2
left_child=-1
right_child=-2
leaf_value=0.0059597850431574676 -0.0063302948518388739
leaf_weight=8.0538832843303698 10.207695737481115
leaf_count=36 50
internal_value=0
internal_weight=0
internal_count=86
is_linear=0
shrinkage=0.0135474


Tree=110
num_leaves=3
num_cat=0
split_feature=41 47
split_gain=5.08935 2.26655
threshold=-0.29743884146068861 1.0000000180025095e-35
decision_type=2 2
left_child=-1 -2
right_child=1 -3
leaf_value=0.0063654717084584977 -0.0069505069545872924 0.00098605868985688076
leaf_weight=6.2363231331110027 8.0676337927579862 4.0636580884456626
leaf_count=28 40 19
internal_value=0 -0.0042689
internal_weight=0 12.1313
internal_count=87 59
is_linear=0
shrinkage=0.0135474


Tree=111
num_leaves=3
num_cat=0
split_feature=41 47
split_gain=5.02298 2.24485
threshold=-0.29743884146068861 1.0000000180025095e-35
decision_type=2 2
left_child=-1 -2
right_child=1 -3
leaf_value=0.0063301513831650249 -0.006912096051245745 0.00098145762893872774
leaf_weight=6.2299266159534481 8.0462525784969312 4.064128950238227
leaf_count=28 40 19
internal_value=0 -0.00423806
internal_weight=0 12.1104
internal_count=87 59
is_linear=0
shrinkage=0.0135474


Tree=112
num_leaves=4
num_cat=0
split_feature=41 42 37
split_gain=5.03691 2.11911 0.385715
threshold=-0.3290953621578 1.0000000180025095e-35 0.33628686582349121
decision_type=2 2 2
left_child=-1 2 -2
right_child=1 -3 -4
leaf_value=0.0069008497188425321 -0.0066737776706464391 0.0017102959590542324 0
leaf_weight=7.6243881434202221 6.3391845077276212 4.1542073339223853 4.8672588765621185
leaf_count=34 31 18 25
internal_value=0 -0.0029851 -0.00542562
internal_weight=0 15.3607 11.2064
internal_count=108 74 56
is_linear=0
shrinkage=0.0135474


Tree=113
num_leaves=4
num_cat=0
split_feature=41 42 37
split_gain=4.97245 2.10089 0.379393
threshold=-0.3290953621578 1.0000000180025095e-35 0.33628686582349121
decision_type=2 2 2
left_child=-1 2 -2
right_child=1 -3 -4
leaf_value=0.0068574151326825407 -0.0066416477962604869 0.0017025484754282824 0
leaf_weight=7.6184078156948116 6.321582227945326 4.1522458642721167 4.8672588765621185
leaf_count=34 31 18 25
internal_value=0 -0.00296707 -0.00540055
internal_weight=0 15.3411 11.1888
internal_count=108 74 56
is_linear=0
shrinkage=0.0135474


Tree=114
num_leaves=3
num_cat=0
split_feature=42 38
split_gain=5.68788 1.34222
threshold=1.0000000180025095e-35 -0.53438494994177688
decision_type=2 2
left_child=1 -1
right_child=-2 -3
leaf_value=0 0.0058482342372107657 -0.0066740460435922465
leaf_weight=4.6375308483839044 6.8771258592605582 9.9237509369850159
leaf_count=20 31 50
internal_value=0 -0.00493163
internal_weight=0 14.5613
internal_count=101 70
is_linear=0
shrinkage=0.0135474


Tree=115
num_leaves=3
num_cat=0
split_feature=42 38
split_gain=5.61303 1.32849
threshold=1.0000000180025095e-35 -0.53438494994177688
decision_type=2 2
left_child=1 -1
right_child=-2 -3
leaf_value=0 0.005816505215196349 -0.0066346553727278934
leaf_weight=4.6375308483839044 6.8637992143630973 9.8941533416509628
leaf_count=20 31 50
internal_value=0 -0.0048981
internal_weight=0 14.5317
internal_count=101 70
is_linear=0
shrinkage=0.0135474


Tree=116
num_leaves=3
num_cat=0
split_feature=42 1
split_gain=6.62195 2.53586
threshold=1.0000000180025095e-35 0.08595950866211341
decision_type=2 2
left_child=1 -1
right_child=-2 -3
leaf_value=0.0014843841329291393 0.0082020780119486381 -0.006492111779435132
leaf_weight=5.2075565606355694 7.6651416122913352 8.129311189055441
leaf_count=25 35 40
internal_value=0 -0.00334016
internal_weight=0 13.3369
internal_count=100 65
is_linear=0
shrinkage=0.0135474


Tree=117
num_leaves=3
num_cat=0
split_feature=44 38
split_gain=3.16383 1.66247
threshold=1.0000000180025095e-35 -0.53438494994177688
decision_type=2 2
left_child=1 -1
right_child=-2 -3
leaf_value=0.0017040220178773421 0.0059149112789269129 -0.0046627453412846579
leaf_weight=4.5089963674545297 8.3647388219833374 8.0878192335367185
leaf_count=20 39 41
internal_value=0 -0.00194034
internal_weight=0 12.5968
internal_count=100 61
is_linear=0
shrinkage=0.0135474


Tree=118
num_leaves=3
num_cat=0
split_feature=40 39
split_gain=6.99241 1.89069
threshold=-0.093736600523384686 1.0831312722259392
decision_type=2 2
left_child=-1 -2
right_child=1 -3
leaf_value=0.0066313633604403333 -0.0074452311566545323 7.6334377984088288e-05
leaf_weight=9.0970833003520983 8.1415343731641752 4.2798031270503989
leaf_count=41 41 20
internal_value=0 -0.00515691
internal_weight=0 12.4213
internal_count=102 61
is_linear=0
shrinkage=0.0135474


Tree=119
num_leaves=3
num_cat=0
split_feature=40 39
split_gain=6.89184 1.87344
threshold=-0.093736600523384686 1.0831312722259392
decision_type=2 2
left_child=-1 -2
right_child=1 -3
leaf_value=0.0065844321563055461 -0.0074040220946824413 7.5968857085948602e-05
leaf_weight=9.0936766564846057 8.1196988523006421 4.279830038547515
leaf_count=41 41 20
internal_value=0 -0.00512216
internal_weight=0 12.3995
internal_count=102 61
is_linear=0
shrinkage=0.0135474


Tree=120
num_leaves=3
num_cat=0
split_feature=41 1
split_gain=6.43874 0.87476
threshold=-0.15046213822410051 1.0000000180025095e-35
decision_type=2 2
left_child=-1 -2
right_child=1 -3
leaf_value=0.0063297897675552422 0 -0.0068790855376717882
leaf_weight=8.1218802183866519 4.4188798069953901 7.0178765654563904
leaf_count=37 21 36
internal_value=0 -0.00530484
internal_weight=0 11.4368
internal_count=94 57
is_linear=0
shrinkage=0.0135474


Tree=121
num_leaves=3
num_cat=0
split_feature=41 36
split_gain=6.35674 0.323877
threshold=-0.15046213822410051 0.42054831837428269
decision_type=2 2
left_child=-1 -2
right_child=1 -3
leaf_value=0.0062871853221960327 -0.0062556437724977758 0
leaf_weight=8.1192577332258242 7.3797215372323972 4.0376268476247787
leaf_count=37 37 20
internal_value=0 -0.00527627
internal_weight=0 11.4173
internal_count=94 57
is_linear=0
shrinkage=0.0135474


Tree=122
num_leaves=2
num_cat=0
split_feature=42
split_gain=5.28843
threshold=1.0000000180025095e-35
decision_type=2
left_child=-1
right_child=-2
leaf_value=-0.0055316557485792246 0.0051498805937626579
leaf_weight=11.070221975445749 7.2121119350194922
leaf_count=55 33
internal_value=0
internal_weight=0
internal_count=88
is_linear=0
shrinkage=0.0135474


Tree=123
num_leaves=3
num_cat=0
split_feature=42 1
split_gain=5.21838 0.805937
threshold=1.0000000180025095e-35 0.18367639692846771
decision_type=2 2
left_child=1 -1
right_child=-2 -3
leaf_value=0 0.0051208787047734381 -0.0070100531330748329
leaf_weight=4.2679489552974719 7.1991644501686087 6.7766359597444534
leaf_count=21 33 34
internal_value=0 -0.00549528
internal_weight=0 11.0446
internal_count=88 55
is_linear=0
shrinkage=0.0135474


Tree=124
num_leaves=3
num_cat=0
split_feature=42 38
split_gain=9.17205 0.90504
threshold=1.0000000180025095e-35 -0.29996397215402015
decision_type=2 2
left_child=1 -1
right_child=-2 -3
leaf_value=0 0.0073530703891720181 -0.0079127693317809465
leaf_weight=4.6010020971298218 8.8767625540494919 7.2710471898317337
leaf_count=20 41 38
internal_value=0 -0.00629016
internal_weight=0 11.872
internal_count=99 58
is_linear=0
shrinkage=0.0135474


Tree=125
num_leaves=3
num_cat=0
split_feature=40 41
split_gain=7.2003 0.627092
threshold=-0.093736600523384686 -0.70219007037375436
decision_type=2 2
left_child=1 -1
right_child=-2 -3
leaf_value=0.0075014911939553378 -0.0061604584382296277 0
leaf_weight=5.6313302963972092 10.049145206809042 5.017037972807886
leaf_count=26 50 23
internal_value=0 0.00589679
internal_weight=0 10.6484
internal_count=99 49
is_linear=0
shrinkage=0.0135474


Tree=126
num_leaves=3
num_cat=0
split_feature=38 47
split_gain=4.94892 0.864904
threshold=-0.53438494994177688 1.0000000180025095e-35
decision_type=2 2
left_child=-1 -2
right_child=1 -3
leaf_value=0.0049259473557316264 -0.0064170800191342596 0
leaf_weight=6.4792621731758144 10.586794346570967 4.8327476531267157
leaf_count=29 54 23
internal_value=0 -0.00507893
internal_weight=0 15.4195
internal_count=106 77
is_linear=0
shrinkage=0.0135474


Tree=127
num_leaves=3
num_cat=0
split_feature=38 47
split_gain=4.88443 0.853609
threshold=-0.53438494994177688 1.0000000180025095e-35
decision_type=2 2
left_child=-1 -2
right_child=1 -3
leaf_value=0.0048958075737233304 -0.0063757952128651631 0
leaf_weight=6.4790727943182018 10.561902388930319 4.8327476531267157
leaf_count=29 54 23
internal_value=0 -0.0050448
internal_weight=0 15.3947
internal_count=106 77
is_linear=0
shrinkage=0.0135474


Tree=128
num_leaves=3
num_cat=0
split_feature=42 38
split_gain=6.68932 1.14166
threshold=1.0000000180025095e-35 -0.29996397215402015
decision_type=2 2
left_child=1 -1
right_child=-2 -3
leaf_value=0 0.0071054910290907648 -0.0066862995505694595
leaf_weight=5.5121472924947748 7.5406671166419974 6.947553202509881
leaf_count=24 35 37
internal_value=0 -0.00471598
internal_weight=0 12.4597
internal_count=96 61
is_linear=0
shrinkage=0.0135474


Tree=129
num_leaves=3
num_cat=0
split_feature=42 38
split_gain=6.60928 1.131
threshold=1.0000000180025095e-35 -0.29996397215402015
decision_type=2 2
left_child=1 -1
right_child=-2 -3
leaf_value=0 0.0070673645818596868 -0.0066541706313849617
leaf_weight=5.5121472924947748 7.521044209599494 6.9245138466358194
leaf_count=24 35 37
internal_value=0 -0.00469035
internal_weight=0 12.4367
internal_count=96 61
is_linear=0
shrinkage=0.0135474


Tree=130
num_leaves=3
num_cat=0
split_feature=40 37
split_gain=5.31651 0.958229
threshold=-0.27993662013669596 0.62907577091250688
decision_type=2 2
left_child=-1 -2
right_child=1 -3
leaf_value=0.0060516565773316303 -0.0062031403665528733 0
leaf_weight=8.4526483118534106 6.5901862233877164 5.8348294198513031
leaf_count=39 33 29
internal_value=0 -0.00432636
internal_weight=0 12.425
internal_count=101 62
is_linear=0
shrinkage=0.0135474


Tree=131
num_leaves=3
num_cat=0
split_feature=40 37
split_gain=5.24746 0.948424
threshold=-0.27993662013669596 0.62907577091250688
decision_type=2 2
left_child=-1 -2
right_child=1 -3
leaf_value=0.0060111384985938945 -0.0061707180381281763 0
leaf_weight=8.4471941441297549 6.5763285011053068 5.8348294198513031
leaf_count=39 33 29
internal_value=0 -0.004302
internal_weight=0 12.4112
internal_count=101 62
is_linear=0
shrinkage=0.0135474


Tree=132
num_leaves=3
num_cat=0
split_feature=42 43
split_gain=4.47695 1.6567
threshold=1.0000000180025095e-35 1.0000000180025095e-35
decision_type=2 2
left_child=1 -1
right_child=-2 -3
leaf_value=-0.0054834257865155629 0.0062071262968605798 0.00098992545824097512
leaf_weight=8.8677495121955854 8.4447490721940994 4.14895023405552
leaf_count=44 39 20
internal_value=0 -0.0031729
internal_weight=0 13.0167
internal_count=103 64
is_linear=0
shrinkage=0.0135474


Tree=133
num_leaves=3
num_cat=0
split_feature=42 43
split_gain=4.41402 1.63984
threshold=1.0000000180025095e-35 1.0000000180025095e-35
decision_type=2 2
left_child=1 -1
right_child=-2 -3
leaf_value=-0.0054504486332321335 0.0061706902700979227 0.00098515666064458293
leaf_weight=8.8480835855007154 8.4259289652109146 4.1504752784967431
leaf_count=44 39 20
internal_value=0 -0.00314675
internal_weight=0 12.9986
internal_count=103 64
is_linear=0
shrinkage=0.0135474


Tree=134
num_leaves=3
num_cat=0
split_feature=42 44
split_gain=6.55044 1.76078
threshold=1.0000000180025095e-35 1.0000000180025095e-35
decision_type=2 2
left_child=1 -1
right_child=-2 -3
leaf_value=-0.0074716973454238564 0.0062674550280627768 0
leaf_weight=9.4146130532026309 6.6356950849294654 4.2794365137815467
leaf_count=47 31 21
internal_value=0 -0.00545159
internal_weight=0 13.694
internal_count=99 68
is_linear=0
shrinkage=0.0135474


Tree=135
num_leaves=3
num_cat=0
split_feature=42 44
split_gain=6.46558 1.74394
threshold=1.0000000180025095e-35 1.0000000180025095e-35
decision_type=2 2
left_child=1 -1
right_child=-2 -3
leaf_value=-0.0074289279911806498 0.0062352393510844151 0
leaf_weight=9.3858437836170214 6.6202093064784995 4.2794365137815467
leaf_count=47 31 21
internal_value=0 -0.00541463
internal_weight=0 13.6653
internal_count=99 68
is_linear=0
shrinkage=0.0135474


Tree=136
num_leaves=3
num_cat=0
split_feature=42 38
split_gain=9.2627 0.528638
threshold=1.0000000180025095e-35 -0.32294642095674136
decision_type=2 2
left_child=1 -1
right_child=-2 -3
leaf_value=0 0.0080984581942547765 -0.0064136016180222667
leaf_weight=5.4501871913671502 9.0807543247938156 8.9371882528066617
leaf_count=24 43 48
internal_value=0 -0.0051653
internal_weight=0 14.3874
internal_count=115 72
is_linear=0
shrinkage=0.0135474


Tree=137
num_leaves=3
num_cat=0
split_feature=42 11
split_gain=9.14655 0.523144
threshold=1.0000000180025095e-35 1.0000000180025095e-35
decision_type=2 2
left_child=1 -1
right_child=-2 -3
leaf_value=-0.0063367408434777464 0.0080532555255587446 0
leaf_weight=9.1414306908845884 9.0521890819072723 5.2173271179199228
leaf_count=46 43 26
internal_value=0 -0.00513703
internal_weight=0 14.3588
internal_count=115 72
is_linear=0
shrinkage=0.0135474


Tree=138
num_leaves=3
num_cat=0
split_feature=42 37
split_gain=10.8195 0.24093
threshold=1.0000000180025095e-35 -0.45350505462671004
decision_type=2 2
left_child=1 -1
right_child=-2 -3
leaf_value=0 0.0081476584846540932 -0.0075676294066218674
leaf_weight=4.4570969641208658 8.0032202005386353 9.2498832643032056
leaf_count=20 38 49
internal_value=0 -0.00658542
internal_weight=0 13.707
internal_count=107 69
is_linear=0
shrinkage=0.0135474


Tree=139
num_leaves=3
num_cat=0
split_feature=42 43
split_gain=10.6907 0.259336
threshold=1.0000000180025095e-35 1.0000000180025095e-35
decision_type=2 2
left_child=1 -1
right_child=-2 -3
leaf_value=-0.0074611954075839669 0.0081050489111263446 0
leaf_weight=9.6042070388793963 7.9776692241430274 4.0691071450710288
leaf_count=49 38 20
internal_value=0 -0.00655172
internal_weight=0 13.6733
internal_count=107 69
is_linear=0
shrinkage=0.0135474


Tree=140
num_leaves=3
num_cat=0
split_feature=40 43
split_gain=5.32042 1.51367
threshold=-0.59470331995919878 1.0000000180025095e-35
decision_type=2 2
left_child=-1 -2
right_child=1 -3
leaf_value=0.0060839050869122314 -0.0066651016347671083 0
leaf_weight=7.7630969434976604 7.4016931653022748 5.9181856662034988
leaf_count=36 39 28
internal_value=0 -0.00434335
internal_weight=0 13.3199
internal_count=103 67
is_linear=0
shrinkage=0.0135474


Tree=141
num_leaves=3
num_cat=0
split_feature=40 43
split_gain=5.25027 1.49989
threshold=-0.59470331995919878 1.0000000180025095e-35
decision_type=2 2
left_child=-1 -2
right_child=1 -3
leaf_value=0.006045489053096903 -0.0066309832388524352 0
leaf_weight=7.756427168846133 7.3794559836387617 5.9181856662034988
leaf_count=36 39 28
internal_value=0 -0.00431635
internal_weight=0 13.2976
internal_count=103 67
is_linear=0
shrinkage=0.0135474


Tree=142
num_leaves=3
num_cat=0
split_feature=41 43
split_gain=5.41979 0.947683
threshold=-0.3290953621578 1.0000000180025095e-35
decision_type=2 2
left_child=-1 -2
right_child=1 -3
leaf_value=0.0062794636864600736 -0.0058261393779364878 0
leaf_weight=8.7493199706077593 7.3516780287027341 6.2055227011442184
leaf_count=41 40 30
internal_value=0 -0.00399593
internal_weight=0 13.5572
internal_count=111 70
is_linear=0
shrinkage=0.0135474


Tree=143
num_leaves=3
num_cat=0
split_feature=41 43
split_gain=5.34782 0.938069
threshold=-0.3290953621578 1.0000000180025095e-35
decision_type=2 2
left_child=-1 -2
right_child=1 -3
leaf_value=0.0062380178642180853 -0.0057955026128124355 0
leaf_weight=8.7402562946081179 7.3319748938083631 6.2055227011442184
leaf_count=41 40 30
internal_value=0 -0.0039725
internal_weight=0 13.5375
internal_count=111 70
is_linear=0
shrinkage=0.0135474


Tree=144
num_leaves=3
num_cat=0
split_feature=42 38
split_gain=3.94808 2.59514
threshold=1.0000000180025095e-35 -0.29996397215402015
decision_type=2 2
left_child=1 -1
right_child=-2 -3
leaf_value=0.0013620562023608396 0.0054891155046446951 -0.0069240168888913935
leaf_weight=4.8229639828205118 6.928700014948844 7.4441570937633523
leaf_count=21 33 41
internal_value=0 -0.00373035
internal_weight=0 12.2671
internal_count=95 62
is_linear=0
shrinkage=0.0135474


Tree=145
num_leaves=3
num_cat=0
split_feature=42 38
split_gain=3.89707 2.57104
threshold=1.0000000180025095e-35 -0.29996397215402015
decision_type=2 2
left_child=1 -1
right_child=-2 -3
leaf_value=0.0013548441060275212 0.0054597668061490672 -0.0068904659546773243
leaf_weight=4.8246507644653329 6.9137964993715277 7.4173998683691034
leaf_count=21 33 41
internal_value=0 -0.00370472
internal_weight=0 12.2421
internal_count=95 62
is_linear=0
shrinkage=0.0135474


Tree=146
num_leaves=4
num_cat=0
split_feature=41 42 43
split_gain=6.45095 1.36153 0.0720697
threshold=-0.3901472235022288 1.0000000180025095e-35 1.0000000180025095e-35
decision_type=2 2 2
left_child=-1 2 -2
right_child=1 -3 -4
leaf_value=0.006402221078497649 -0.0070005718011380991 0 0
leaf_weight=9.3023298531770724 7.3577878028154355 3.9813125133514395 4.3237650692462921
leaf_count=44 40 18 22
internal_value=0 -0.00452662 -0.00612155
internal_weight=0 15.6629 11.6816
internal_count=124 80 62
is_linear=0
shrinkage=0.0135474


Tree=147
num_leaves=4
num_cat=0
split_feature=41 42 43
split_gain=6.36609 1.3518 0.0670282
threshold=-0.3901472235022288 1.0000000180025095e-35 1.0000000180025095e-35
decision_type=2 2 2
left_child=-1 2 -2
right_child=1 -3 -4
leaf_value=0.0063595645269353346 -0.0069665174246805114 0 0
leaf_weight=9.2904960811138171 7.3320671170949918 3.9813125133514395 4.3237650692462921
leaf_count=44 40 18 22
internal_value=0 -0.00450191 -0.00609389
internal_weight=0 15.6371 11.6558
internal_count=124 80 62
is_linear=0
shrinkage=0.0135474


Tree=148
num_leaves=2
num_cat=0
split_feature=42
split_gain=7.50162
threshold=1.0000000180025095e-35
decision_type=2
left_child=-1
right_child=-2
leaf_value=-0.0054330242161998079 0.0070054697600137302
leaf_weight=11.208755001425743 8.7635741531848907
leaf_count=58 42
internal_value=0
internal_weight=0
internal_count=100
is_linear=0
shrinkage=0.0135474


Tree=149
num_leaves=2
num_cat=0
split_feature=42
split_gain=7.4006
threshold=1.0000000180025095e-35
decision_type=2
left_child=-1
right_child=-2
leaf_value=-0.005397464846975575 0.0069656660304744031
leaf_weight=11.181558653712273 8.7391911000013351
leaf_count=58 42
internal_value=0
internal_weight=0
internal_count=100
is_linear=0
shrinkage=0.0135474


Tree=150
num_leaves=3
num_cat=0
split_feature=42 36
split_gain=6.30464 1.54524
threshold=1.0000000180025095e-35 -0.47092302308063066
decision_type=2 2
left_child=1 -1
right_child=-2 -3
leaf_value=0 0.0059885958115920013 -0.0073440031015777531
leaf_weight=4.1718085259199151 7.5138683170080176 8.6996507793664932
leaf_count=20 36 46
internal_value=0 -0.00541966
internal_weight=0 12.8715
internal_count=102 66
is_linear=0
shrinkage=0.0135474


Tree=151
num_leaves=3
num_cat=0
split_feature=42 36
split_gain=6.22299 1.53111
threshold=1.0000000180025095e-35 -0.47092302308063066
decision_type=2 2
left_child=1 -1
right_child=-2 -3
leaf_value=0 0.0059558641647499385 -0.0073049055243904672
leaf_weight=4.1718085259199151 7.495994120836257 8.6698665916919708
leaf_count=20 36 46
internal_value=0 -0.00538568
internal_weight=0 12.8417
internal_count=102 66
is_linear=0
shrinkage=0.0135474


Tree=152
num_leaves=3
num_cat=0
split_feature=42 27
split_gain=7.22673 2.14329
threshold=1.0000000180025095e-35 1.0000000180025095e-35
decision_type=2 2
left_child=1 -1
right_child=-2 -3
leaf_value=-0.0076743347123024311 0.0061925877488619987 0.0002225651531755709
leaf_weight=11.369070097804071 7.8490037471055976 4.0967478901147834
leaf_count=59 38 21
internal_value=0 -0.00562892
internal_weight=0 15.4658
internal_count=118 80
is_linear=0
shrinkage=0.0135474


Tree=153
num_leaves=3
num_cat=0
split_feature=42 27
split_gain=7.12531 2.12204
threshold=1.0000000180025095e-35 1.0000000180025095e-35
decision_type=2 2
left_child=1 -1
right_child=-2 -3
leaf_value=-0.0076283368604512288 0.0061584634892210034 0.00022152271054801857
leaf_weight=11.330187201499941 7.8291264772415152 4.0971388667821875
leaf_count=59 38 21
internal_value=0 -0.00558804
internal_weight=0 15.4273
internal_count=118 80
is_linear=0
shrinkage=0.0135474


Tree=154
num_leaves=3
num_cat=0
split_feature=42 48
split_gain=6.45768 0.135517
threshold=1.0000000180025095e-35 -1.0000000180025095e-35
decision_type=2 2
left_child=1 -1
right_child=-2 -3
leaf_value=-0.006584324317029165 0.006270037309316653 -0.00012166330124200242
leaf_weight=6.5641231983900079 7.0679665654897681 5.7935573458671579
leaf_count=35 35 30
internal_value=0 -0.00544917
internal_weight=0 12.3577
internal_count=100 65
is_linear=0
shrinkage=0.0135474


Tree=155
num_leaves=3
num_cat=0
split_feature=42 1
split_gain=6.38901 0.122585
threshold=1.0000000180025095e-35 0.08595950866211341
decision_type=2 2
left_child=1 -1
right_child=-2 -3
leaf_value=0 0.0062378098924006477 -0.0063769427157508024
leaf_weight=5.0183535516262072 7.0488485842943183 7.3186627477407455
leaf_count=26 35 39
internal_value=0 -0.0054253
internal_weight=0 12.337
internal_count=100 65
is_linear=0
shrinkage=0.0135474


Tree=156
num_leaves=3
num_cat=0
split_feature=42 1
split_gain=6.83276 0.226798
threshold=1.0000000180025095e-35 1.0000000180025095e-35
decision_type=2 2
left_child=1 -1
right_child=-2 -3
leaf_value=0 0.0062433984464916855 -0.0065983001347582103
leaf_weight=3.9537589550018328 7.9779670983552924 7.7654530256986618
leaf_count=20 39 42
internal_value=0 -0.00571019
internal_weight=0 11.7192
internal_count=101 62
is_linear=0
shrinkage=0.0135474


Tree=157
num_leaves=3
num_cat=0
split_feature=42 1
split_gain=6.75275 0.221565
threshold=1.0000000180025095e-35 1.0000000180025095e-35
decision_type=2 2
left_child=1 -1
right_child=-2 -3
leaf_value=0 0.0062089450389903513 -0.0065641989231957666
leaf_weight=3.9537589550018328 7.9571785628795615 7.7409203797578812
leaf_count=20 39 42
internal_value=0 -0.00568187
internal_weight=0 11.6947
internal_count=101 62
is_linear=0
shrinkage=0.0135474


Tree=158
num_leaves=3
num_cat=0
split_feature=41 1
split_gain=5.10444 0.0696651
threshold=-0.3290953621578 -0.20719115613694947
decision_type=2 2
left_child=-1 -2
right_child=1 -3
leaf_value=0.0067556899686427776 0 -0.0043273482302299956
leaf_weight=6.7260948121547726 4.0891293287277231 7.6394305080175373
leaf_count=33 20 42
internal_value=0 -0.00376278
internal_weight=0 11.7286
internal_count=95 62
is_linear=0
shrinkage=0.0135474


Tree=159
num_leaves=3
num_cat=0
split_feature=41 1
split_gain=5.04551 0.0673022
threshold=-0.3290953621578 -0.20719115613694947
decision_type=2 2
left_child=-1 -2
right_child=1 -3
leaf_value=0.0067183021171312229 0 -0.0043026918964275121
leaf_weight=6.7155764847993877 4.0891293287277231 7.6241271048784229
leaf_count=33 20 42
internal_value=0 -0.00374284
internal_weight=0 11.7133
internal_count=95 62
is_linear=0
shrinkage=0.0135474


Tree=160
num_leaves=3
num_cat=0
split_feature=40 38
split_gain=4.74326 0.0770534
threshold=-0.18240327652972349 0.83996548846095342
decision_type=2 2
left_child=-1 -2
right_child=1 -3
leaf_value=0.0060684336586812162 -0.0046607387777560776 0
leaf_weight=8.1648002713918704 6.0123559534549695 4.0838840305805206
leaf_count=39 32 22
internal_value=0 -0.00399834
internal_weight=0 10.0962
internal_count=93 54
is_linear=0
shrinkage=0.0135474


Tree=161
num_leaves=3
num_cat=0
split_feature=40 38
split_gain=4.68584 0.0746438
threshold=-0.18240327652972349 0.83996548846095342
decision_type=2 2
left_child=-1 -2
right_child=1 -3
leaf_value=0.0060283772490877068 -0.0046367761939384586 0
leaf_weight=8.1598051786422747 6.0021191388368589 4.0838840305805206
leaf_count=39 32 22
internal_value=0 -0.00397946
internal_weight=0 10.086
internal_count=93 54
is_linear=0
shrinkage=0.0135474


Tree=162
num_leaves=3
num_cat=0
split_feature=41 38
split_gain=5.48308 0.675983
threshold=-0.23412580006646611 0.49982524618067903
decision_type=2 2
left_child=-1 -2
right_child=1 -3
leaf_value=0.0048775747258118611 -0.0072025673962035274 0
leaf_weight=8.4971321821212786 6.7375604510307294 5.8054536283016205
leaf_count=41 35 32
internal_value=0 -0.0055687
internal_weight=0 12.543
internal_count=108 67
is_linear=0
shrinkage=0.0135474


Tree=163
num_leaves=3
num_cat=0
split_feature=41 38
split_gain=5.41746 0.665954
threshold=-0.23412580006646611 0.49982524618067903
decision_type=2 2
left_child=-1 -2
right_child=1 -3
leaf_value=0.004844994792419721 -0.0071645894450351978 0
leaf_weight=8.4911144375801104 6.7231486141681653 5.8054536283016205
leaf_count=41 35 32
internal_value=0 -0.0055404
internal_weight=0 12.5286
internal_count=108 67
is_linear=0
shrinkage=0.0135474


Tree=164
num_leaves=3
num_cat=0
split_feature=42 38
split_gain=3.27421 1.91471
threshold=1.0000000180025095e-35 -0.53438494994177688
decision_type=2 2
left_child=1 -1
right_child=-2 -3
leaf_value=0.00076594033681091813 0.0043889535082464138 -0.0062775175395673151
leaf_weight=4.5775187164545068 7.0102723389863959 8.8984075337648392
leaf_count=20 35 50
internal_value=0 -0.0038465
internal_weight=0 13.4759
internal_count=105 70
is_linear=0
shrinkage=0.0135474


Tree=165
num_leaves=3
num_cat=0
split_feature=41 38
split_gain=5.18866 0.752962
threshold=-0.64792174917870626 0.71815850980653095
decision_type=2 2
left_child=-1 -2
right_child=1 -3
leaf_value=0.0058094762015819326 -0.0058835402549839476 0
leaf_weight=6.6049973666667965 9.5958824902772886 4.2438090145587912
leaf_count=32 50 23
internal_value=0 -0.00463282
internal_weight=0 13.8397
internal_count=105 73
is_linear=0
shrinkage=0.0135474


Tree=166
num_leaves=3
num_cat=0
split_feature=40 42
split_gain=7.7051 2.65186
threshold=0.070296750088342241 1.0000000180025095e-35
decision_type=2 2
left_child=1 -1
right_child=-2 -3
leaf_value=-0.00088187834849464796 -0.008046094609426846 0.0075150626862656687
leaf_weight=5.8151672780513781 9.8427118062973005 6.6016702800989151
leaf_count=27 54 34
internal_value=0 0.00409301
internal_weight=0 12.4168
internal_count=115 61
is_linear=0
shrinkage=0.0135474


Tree=167
num_leaves=3
num_cat=0
split_feature=42 1
split_gain=7.36703 0.0327592
threshold=1.0000000180025095e-35 1.0000000180025095e-35
decision_type=2 2
left_child=1 -1
right_child=-2 -3
leaf_value=-5.231666084927853e-05 0.0053765930067444442 -0.0073814787959939777
leaf_weight=4.1907913833856592 8.1506550908088684 9.8621079921722394
leaf_count=21 41 53
internal_value=0 -0.00661673
internal_weight=0 14.0529
internal_count=115 74
is_linear=0
shrinkage=0.0135474


Tree=168
num_leaves=3
num_cat=0
split_feature=42 41
split_gain=6.3645 0.321486
threshold=1.0000000180025095e-35 -0.15046213822410051
decision_type=2 2
left_child=1 -1
right_child=-2 -3
leaf_value=0 0.0055397941058964511 -0.0068917947099271645
leaf_weight=5.0552114695310602 7.3441045582294455 8.7605133205652237
leaf_count=23 37 50
internal_value=0 -0.00580363
internal_weight=0 13.8157
internal_count=110 73
is_linear=0
shrinkage=0.0135474


Tree=169
num_leaves=3
num_cat=0
split_feature=42 41
split_gain=6.29129 0.314253
threshold=1.0000000180025095e-35 -0.15046213822410051
decision_type=2 2
left_child=1 -1
right_child=-2 -3
leaf_value=0 0.0055100735468665224 -0.0068559498988269921
leaf_weight=5.0552114695310602 7.326075315475463 8.7282004952430725
leaf_count=23 37 50
internal_value=0 -0.00577454
internal_weight=0 13.7834
internal_count=110 73
is_linear=0
shrinkage=0.0135474


Tree=170
num_leaves=3
num_cat=0
split_feature=42 38
split_gain=4.68279 0.429738
threshold=1.0000000180025095e-35 -0.44934988937170822
decision_type=2 2
left_child=1 -1
right_child=-2 -3
leaf_value=0 0.0054992696310132505 -0.0056553547775323749
leaf_weight=4.691042199730874 7.2249307930469504 7.2612920105457315
leaf_count=21 36 43
internal_value=0 -0.00451832
internal_weight=0 11.9523
internal_count=100 64
is_linear=0
shrinkage=0.0135474


Tree=171
num_leaves=3
num_cat=0
split_feature=42 38
split_gain=4.62876 0.424322
threshold=1.0000000180025095e-35 -0.44934988937170822
decision_type=2 2
left_child=1 -1
right_child=-2 -3
leaf_value=0 0.0054698198514821711 -0.0056271797056579483
leaf_weight=4.691042199730874 7.2077292203903189 7.238175407052041
leaf_count=21 36 43
internal_value=0 -0.00449551
internal_weight=0 11.9292
internal_count=100 64
is_linear=0
shrinkage=0.0135474


Tree=172
num_leaves=3
num_cat=0
split_feature=41 8
split_gain=5.68421 1.32865
threshold=-0.3290953621578 1.0000000180025095e-35
decision_type=2 2
left_child=-1 -2
right_child=1 -3
leaf_value=0.0055257186633566263 -0.007252978817367051 0
leaf_weight=5.7926248908042934 9.2744157761335355 3.6337903141975394
leaf_count=29 51 20
internal_value=0 -0.00562453
internal_weight=0 12.9082
internal_count=100 71
is_linear=0
shrinkage=0.0135474


Tree=173
num_leaves=3
num_cat=0
split_feature=41 40
split_gain=5.61282 1.88525
threshold=-0.3290953621578 -0.093736600523384686
decision_type=2 2
left_child=-1 -2
right_child=1 -3
leaf_value=0.0054969611937451795 0 -0.0077236739041554028
leaf_weight=5.7850872725248363 4.0808487236499813 8.8054169714450783
leaf_count=29 20 51
internal_value=0 -0.00558656
internal_weight=0 12.8863
internal_count=100 71
is_linear=0
shrinkage=0.0135474


Tree=174
num_leaves=3
num_cat=0
split_feature=40 47
split_gain=6.99738 1.038
threshold=-0.093736600523384686 1.0000000180025095e-35
decision_type=2 2
left_child=-1 -2
right_child=1 -3
leaf_value=0.0067229370774781957 -0.0063859823969833725 0
leaf_weight=11.249025434255602 7.6058681905269605 3.6810596585273743
leaf_count=56 44 18
internal_value=0 -0.00479252
internal_weight=0 11.2869
internal_count=118 62
is_linear=0
shrinkage=0.0135474


Tree=175
num_leaves=3
num_cat=0
split_feature=40 47
split_gain=6.89763 1.02903
threshold=-0.093736600523384686 1.0000000180025095e-35
decision_type=2 2
left_child=-1 -2
right_child=1 -3
leaf_value=0.0066738409964814966 -0.0063537523818599211 0
leaf_weight=11.235995262861254 7.5808054804801923 3.6810596585273743
leaf_count=56 44 18
internal_value=0 -0.00476441
internal_weight=0 11.2619
internal_count=118 62
is_linear=0
shrinkage=0.0135474


Tree=176
num_leaves=3
num_cat=0
split_feature=42 1
split_gain=5.02621 0.42937
threshold=1.0000000180025095e-35 0.08595950866211341
decision_type=2 2
left_child=1 -1
right_child=-2 -3
leaf_value=0 0.0046648388702041693 -0.0068160873960744287
leaf_weight=4.7869525402784365 6.5478735119104376 7.9849285185337067
leaf_count=25 34 44
internal_value=0 -0.00564297
internal_weight=0 12.7719
internal_count=103 69
is_linear=0
shrinkage=0.0135474


Tree=177
num_leaves=3
num_cat=0
split_feature=42 1
split_gain=4.97049 0.422044
threshold=1.0000000180025095e-35 0.08595950866211341
decision_type=2 2
left_child=1 -1
right_child=-2 -3
leaf_value=0 0.004640706130016407 -0.006780690245387291
leaf_weight=4.7869525402784365 6.5336008220911017 7.9589542001485825
leaf_count=25 34 44
internal_value=0 -0.00561432
internal_weight=0 12.7459
internal_count=103 69
is_linear=0
shrinkage=0.0135474


Tree=178
num_leaves=3
num_cat=0
split_feature=40 42
split_gain=3.7759 1.57608
threshold=-0.55258664885618769 1.0000000180025095e-35
decision_type=2 2
left_child=-1 -2
right_child=1 -3
leaf_value=0.0068144255591648627 -0.0046387943585122901 0.0014493336901425728
leaf_weight=5.0420084893703487 9.7927446663379651 4.3914694637060157
leaf_count=26 55 21
internal_value=0 -0.00229282
internal_weight=0 14.1842
internal_count=102 76
is_linear=0
shrinkage=0.0135474


Tree=179
num_leaves=4
num_cat=0
split_feature=40 42 39
split_gain=3.73156 0.958523 0.459465
threshold=0.20329676409785047 1.0000000180025095e-35 0.60489065939155517
decision_type=2 2 2
left_child=1 -1 -2
right_child=2 -3 -4
leaf_value=0 -0.00487957256670763 0.0069460420049754544 0
leaf_weight=4.8129434436559695 4.6348068416118604 6.0318775326013565 3.7100162208080292
leaf_count=24 26 32 20
internal_value=0 0.00513805 -0.00362481
internal_weight=0 10.8448 8.34482
internal_count=102 56 46
is_linear=0
shrinkage=0.0135474


Tree=180
num_leaves=3
num_cat=0
split_feature=41 36
split_gain=4.46355 0.504758
threshold=-0.29743884146068861 0.50572073953239516
decision_type=2 2
left_child=-1 -2
right_child=1 -3
leaf_value=0.0054311623601760346 -0.0055870861664934941 0
leaf_weight=6.6447865813970592 7.6919343620538694 4.9438151866197586
leaf_count=33 43 27
internal_value=0 -0.00437627
internal_weight=0 12.6357
internal_count=103 70
is_linear=0
shrinkage=0.0135474


Tree=181
num_leaves=3
num_cat=0
split_feature=41 36
split_gain=4.40981 0.498192
threshold=-0.29743884146068861 0.50572073953239516
decision_type=2 2
left_child=-1 -2
right_child=1 -3
leaf_value=0.0053998202454120835 -0.0055555770805696177 0
leaf_weight=6.6383375972509411 7.6753178536891919 4.9438151866197586
leaf_count=33 43 27
internal_value=0 -0.0043514
internal_weight=0 12.6191
internal_count=103 70
is_linear=0
shrinkage=0.0135474


Tree=182
num_leaves=3
num_cat=0
split_feature=41 48
split_gain=2.78306 1.73367
threshold=-0.59591460803345209 1.0000000180025095e-35
decision_type=2 2
left_child=-1 -2
right_child=1 -3
leaf_value=0.0038096076886785404 -0.0066416020060361619 1.8870670732258624e-05
leaf_weight=5.5614894330501583 6.8592226952314359 6.5633801072835922
leaf_count=28 38 35
internal_value=0 -0.00394013
internal_weight=0 13.4226
internal_count=101 73
is_linear=0
shrinkage=0.0135474


Tree=183
num_leaves=3
num_cat=0
split_feature=42 38
split_gain=3.52962 0.915227
threshold=1.0000000180025095e-35 -0.32294642095674136
decision_type=2 2
left_child=1 -1
right_child=-2 -3
leaf_value=0 0.0040537249433590999 -0.0063007998088971118
leaf_weight=5.1755034327507028 6.7974324822425833 6.9888898283243188
leaf_count=24 35 42
internal_value=0 -0.00458565
internal_weight=0 12.1644
internal_count=101 66
is_linear=0
shrinkage=0.0135474


Tree=184
num_leaves=2
num_cat=0
split_feature=42
split_gain=5.29638
threshold=1.0000000180025095e-35
decision_type=2
left_child=-1
right_child=-2
leaf_value=-0.0044649491841979288 0.006461700252956149
leaf_weight=10.925000101327898 6.4875088185071936
leaf_count=59 34
internal_value=0
internal_weight=0
internal_count=93
is_linear=0
shrinkage=0.0135474


Tree=185
num_leaves=2
num_cat=0
split_feature=43
split_gain=4.0692
threshold=1.0000000180025095e-35
decision_type=2
left_child=-1
right_child=-2
leaf_value=-0.0042979632914247664 0.0052023563272842535
leaf_weight=9.3231538832187653 8.0471100211143494
leaf_count=51 42
internal_value=0
internal_weight=0
internal_count=93
is_linear=0
shrinkage=0.0135474


Tree=186
num_leaves=3
num_cat=0
split_feature=42 36
split_gain=4.25484 1.16994
threshold=1.0000000180025095e-35 -0.50499199154387575
decision_type=2 2
left_child=1 -1
right_child=-2 -3
leaf_value=0 0.0056432100907220003 -0.0056936326589461734
leaf_weight=4.0440217852592477 7.5644964575767508 7.7481038719415674
leaf_count=20 39 43
internal_value=0 -0.00384691
internal_weight=0 11.7921
internal_count=102 63
is_linear=0
shrinkage=0.0135474


Tree=187
num_leaves=3
num_cat=0
split_feature=42 36
split_gain=4.19958 1.16
threshold=1.0000000180025095e-35 -0.50499199154387575
decision_type=2 2
left_child=1 -1
right_child=-2 -3
leaf_value=0 0.0056128332728575155 -0.0056631413524002115
leaf_weight=4.0440217852592477 7.5449422746896735 7.7266245037317285
leaf_count=20 39 43
internal_value=0 -0.00382068
internal_weight=0 11.7706
internal_count=102 63
is_linear=0
shrinkage=0.0135474


Tree=188
num_leaves=3
num_cat=0
split_feature=40 41
split_gain=4.99564 0.888293
threshold=0.15896342609468106 -0.3290953621578
decision_type=2 2
left_child=1 -1
right_child=-2 -3
leaf_value=0.0053045252486532525 -0.0068687422260489224 0
leaf_weight=4.8299258798360825 8.9106595963239652 5.3904939591884631
leaf_count=25 52 28
internal_value=0 0.0032724
internal_weight=0 10.2204
internal_count=105 53
is_linear=0
shrinkage=0.0135474


Tree=189
num_leaves=3
num_cat=0
split_feature=40 41
split_gain=4.93596 0.881403
threshold=0.15896342609468106 -0.3290953621578
decision_type=2 2
left_child=1 -1
right_child=-2 -3
leaf_value=0.0052805723830294353 -0.0068292013954869722 0
leaf_weight=4.8217039108276367 8.8863710910081846 5.3904939591884631
leaf_count=25 52 28
internal_value=0 0.00325468
internal_weight=0 10.2122
internal_count=105 53
is_linear=0
shrinkage=0.0135474


Tree=190
num_leaves=4
num_cat=0
split_feature=48 40 48
split_gain=2.45531 1.17167 0.243245
threshold=1.0000000180025095e-35 1.0000000180025095e-35 0.83874271322132177
decision_type=2 2 2
left_child=1 -1 -2
right_child=2 -3 -4
leaf_value=0.00014028147601699971 0.0048105389023201106 -0.0055916682210067443 0
leaf_weight=3.9938758909702319 4.5218209922313672 5.7284567356109619 4.4486607164144516
leaf_count=20 23 33 24
internal_value=0 -0.00345262 0.00378938
internal_weight=0 9.72233 8.97048
internal_count=100 53 47
is_linear=0
shrinkage=0.0135474


Tree=191
num_leaves=4
num_cat=0
split_feature=48 40 48
split_gain=2.42824 1.16249 0.240155
threshold=1.0000000180025095e-35 1.0000000180025095e-35 0.83874271322132177
decision_type=2 2 2
left_child=1 -1 -2
right_child=2 -3 -4
leaf_value=0.00013964026518498924 0.0047881520005445084 -0.0055644469317434374 0
leaf_weight=3.9938365072011965 4.5180787891149503 5.7169059962034225 4.4486607164144516
leaf_count=20 23 33 24
internal_value=0 -0.00343062 0.00377269
internal_weight=0 9.71074 8.96674
internal_count=100 53 47
is_linear=0
shrinkage=0.0135474


Tree=192
num_leaves=2
num_cat=0
split_feature=42
split_gain=4.12916
threshold=1.0000000180025095e-35
decision_type=2
left_child=-1
right_child=-2
leaf_value=-0.0041468327493504806 0.0053672557710085812
leaf_weight=12.70541834831238 6.2093800008296958
leaf_count=71 32
internal_value=0
internal_weight=0
internal_count=103
is_linear=0
shrinkage=0.0135474


Tree=193
num_leaves=3
num_cat=0
split_feature=42 43
split_gain=4.07551 0.180115
threshold=1.0000000180025095e-35 1.0000000180025095e-35
decision_type=2 2
left_child=1 -1
right_child=-2 -3
leaf_value=-0.0048011930328009335 0.0053409271195482512 0
leaf_weight=8.6852807998657244 6.1941847950220099 3.994415581226348
leaf_count=49 32 22
internal_value=0 -0.00411728
internal_weight=0 12.6797
internal_count=103 71
is_linear=0
shrinkage=0.0135474


Tree=194
num_leaves=3
num_cat=0
split_feature=40 37
split_gain=2.90946 0.829165
threshold=-0.093736600523384686 0.50113440062150838
decision_type=2 2
left_child=-1 -2
right_child=1 -3
leaf_value=0.0055838323432002819 -0.0042073592382212517 0.0003126032301877958
leaf_weight=10.680938705801966 4.4689781963825208 5.1283543258905411
leaf_count=54 26 29
internal_value=0 -0.00195904
internal_weight=0 9.59733
internal_count=109 55
is_linear=0
shrinkage=0.0135474


Tree=195
num_leaves=3
num_cat=0
split_feature=40 37
split_gain=2.86898 0.82303
threshold=-0.093736600523384686 0.50113440062150838
decision_type=2 2
left_child=-1 -2
right_child=1 -3
leaf_value=0.0055424188743789706 -0.0041894669174483076 0.00031091444313146829
leaf_weight=10.673567593097689 4.460783436894415 5.1289224624633789
leaf_count=54 26 29
internal_value=0 -0.00194654
internal_weight=0 9.58971
internal_count=109 55
is_linear=0
shrinkage=0.0135474


Tree=196
num_leaves=2
num_cat=0
split_feature=42
split_gain=3.61308
threshold=1.0000000180025095e-35
decision_type=2
left_child=-1
right_child=-2
leaf_value=-0.0046798012230352412 0.0041786474037969479
leaf_weight=9.8555849790573138 7.9741085022687903
leaf_count=57 42
internal_value=0
internal_weight=0
internal_count=99
is_linear=0
shrinkage=0.0135474


Tree=197
num_leaves=2
num_cat=0
split_feature=42
split_gain=3.56543
threshold=1.0000000180025095e-35
decision_type=2
left_child=-1
right_child=-2
leaf_value=-0.0046508063197364001 0.0041542603190695476
leaf_weight=9.8316921442747134 7.9583629518747321
leaf_count=57 42
internal_value=0
internal_weight=0
internal_count=99
is_linear=0
shrinkage=0.0135474


Tree=198
num_leaves=3
num_cat=0
split_feature=42 43
split_gain=4.3682 1.08181
threshold=1.0000000180025095e-35 1.0000000180025095e-35
decision_type=2 2
left_child=1 -1
right_child=-2 -3
leaf_value=-0.0056295896390961319 0.0056965830424313092 0
leaf_weight=7.8448880761861819 7.6736585050821295 4.478832870721817
leaf_count=45 40 24
internal_value=0 -0.00384739
internal_weight=0 12.3237
internal_count=109 69
is_linear=0
shrinkage=0.0135474


Tree=199
num_leaves=3
num_cat=0
split_feature=42 43
split_gain=4.31198 1.07228
threshold=1.0000000180025095e-35 1.0000000180025095e-35
decision_type=2 2
left_child=1 -1
right_child=-2 -3
leaf_value=-0.0055994950622316134 0.0056658710008722513 0
leaf_weight=7.8224676847457904 7.6533446013927451 4.478832870721817
leaf_count=45 40 24
internal_value=0 -0.003822
internal_weight=0 12.3013
internal_count=109 69
is_linear=0
shrinkage=0.0135474


Tree=200
num_leaves=3
num_cat=0
split_feature=41 40
split_gain=5.18647 0.870452
threshold=-0.29743884146068861 0.29196344010418934
decision_type=2 2
left_child=-1 -2
right_child=1 -3
leaf_value=0.0068899985499649378 0 -0.0054184861052662533
leaf_weight=7.7109852433204678 6.6237398386001569 5.6371560245752335
leaf_count=41 36 34
internal_value=0 -0.00342545
internal_weight=0 12.2609
internal_count=111 70
is_linear=0
shrinkage=0.0135474


Tree=201
num_leaves=3
num_cat=0
split_feature=41 8
split_gain=5.12524 1.34451
threshold=-0.29743884146068861 1.0000000180025095e-35
decision_type=2 2
left_child=-1 -2
right_child=1 -3
leaf_value=0.006851300397927574 -0.0054041411098530723 0.0005339459158245557
leaf_weight=7.6938605457544353 8.4827217012643796 3.7662558555603018
leaf_count=41 49 21
internal_value=0 -0.0034069
internal_weight=0 12.249
internal_count=111 70
is_linear=0
shrinkage=0.0135474


Tree=202
num_leaves=4
num_cat=0
split_feature=42 43 41
split_gain=3.22382 0.605826 0.0178321
threshold=1.0000000180025095e-35 1.0000000180025095e-35 -0.098454997078846349
decision_type=2 2 2
left_child=1 2 -1
right_child=-2 -3 -4
leaf_value=0 0.0055900312576917435 0 -0.0045060856586225028
leaf_weight=4.3288574367761612 7.6742300093173972 3.6091890484094611 4.0281177610158938
leaf_count=20 41 19 27
internal_value=0 -0.00252683 -0.00383074
internal_weight=0 11.9662 8.35698
internal_count=107 66 47
is_linear=0
shrinkage=0.0135474


Tree=203
num_leaves=4
num_cat=0
split_feature=42 43 41
split_gain=3.18864 0.602854 0.0163792
threshold=1.0000000180025095e-35 1.0000000180025095e-35 -0.098454997078846349
decision_type=2 2 2
left_child=1 2 -1
right_child=-2 -3 -4
leaf_value=0 0.005560029722692459 0 -0.0044897126235795819
leaf_weight=4.3288574367761612 7.6535346060991278 3.6091890484094611 4.0166909694671649
leaf_count=20 41 19 27
internal_value=0 -0.00251588 -0.00381827
internal_weight=0 11.9547 8.34555
internal_count=107 66 47
is_linear=0
shrinkage=0.0135474


Tree=204
num_leaves=3
num_cat=0
split_feature=42 41
split_gain=3.48087 0.931668
threshold=1.0000000180025095e-35 -0.15046213822410051
decision_type=2 2
left_child=1 -1
right_child=-2 -3
leaf_value=0 0.0054956382491057878 -0.0048096425244756142
leaf_weight=5.2378845810890207 6.4518749117851248 8.5189081132411957
leaf_count=24 34 53
internal_value=0 -0.00309874
internal_weight=0 13.7568
internal_count=111 77
is_linear=0
shrinkage=0.0135474


Tree=205
num_leaves=3
num_cat=0
split_feature=42 41
split_gain=3.43754 0.923096
threshold=1.0000000180025095e-35 -0.15046213822410051
decision_type=2 2
left_child=1 -1
right_child=-2 -3
leaf_value=0 0.0054684794826552544 -0.0047827176921337857
leaf_weight=5.2378845810890207 6.4351073503494254 8.4950820058584213
leaf_count=24 34 53
internal_value=0 -0.00307646
internal_weight=0 13.733
internal_count=111 77
is_linear=0
shrinkage=0.0135474


Tree=206
num_leaves=2
num_cat=0
split_feature=42
split_gain=3.76866
threshold=1.0000000180025095e-35
decision_type=2
left_child=-1
right_child=-2
leaf_value=-0.0042785411377817351 0.0046017369231775426
leaf_weight=13.44123086333275 6.6343242377042762
leaf_count=75 36
internal_value=0
internal_weight=0
internal_count=111
is_linear=0
shrinkage=0.0135474


Tree=207
num_leaves=3
num_cat=0
split_feature=42 1
split_gain=3.71771 0.00590914
threshold=1.0000000180025095e-35 0.47682706172753059
decision_type=2 2
left_child=1 -1
right_child=-2 -3
leaf_value=-0.00037400016160773976 0.0045779626929748993 -0.0054054713390658139
leaf_weight=8.1702166348695773 6.6192282587289801 5.2443426251411429
leaf_count=45 36 30
internal_value=0 -0.00424728
internal_weight=0 13.4146
internal_count=111 75
is_linear=0
shrinkage=0.0135474


Tree=208
num_leaves=2
num_cat=0
split_feature=42
split_gain=4.29867
threshold=1.0000000180025095e-35
decision_type=2
left_child=-1
right_child=-2
leaf_value=-0.0050251925169774794 0.0052001851050279728
leaf_weight=10.979367658495901 4.2849813252687463
leaf_count=62 24
internal_value=0
internal_weight=0
internal_count=86
is_linear=0
shrinkage=0.0135474


Tree=209
num_leaves=2
num_cat=0
split_feature=42
split_gain=4.24984
threshold=1.0000000180025095e-35
decision_type=2
left_child=-1
right_child=-2
leaf_value=-0.0049926392241359712 0.0051802722728203215
leaf_weight=10.952518299221991 4.2733786702156076
leaf_count=62 24
internal_value=0
internal_weight=0
internal_count=86
is_linear=0
shrinkage=0.0135474


Tree=210
num_leaves=4
num_cat=0
split_feature=40 3 48
split_gain=2.95614 1.23901 0.399598
threshold=-0.73878666846949936 0.22792201870269696 0.28549796058503546
decision_type=2 2 2
left_child=-1 2 -2
right_child=1 -3 -4
leaf_value=0.0053369781037276324 -0.0063182263127513029 0.00044860512611797444 0
leaf_weight=4.2329535931348827 4.6156031638383848 4.4374588876962653 4.0205415636301041
leaf_count=22 27 24 22
internal_value=0 -0.00308338 -0.00507186
internal_weight=0 13.0736 8.63614
internal_count=95 73 49
is_linear=0
shrinkage=0.0135474


Tree=211
num_leaves=3
num_cat=0
split_feature=41 27
split_gain=1.60901 1.77171
threshold=-0.88082329430745376 1.0000000180025095e-35
decision_type=2 2
left_child=-1 -2
right_child=1 -3
leaf_value=0.0041461898211898468 -0.0046619802449521016 0.00187698024535066
leaf_weight=3.4568790942430523 9.8678526729345304 3.9636350721120825
leaf_count=18 56 21
internal_value=0 -0.00216091
internal_weight=0 13.8315
internal_count=95 77
is_linear=0
shrinkage=0.0135474


Tree=212
num_leaves=3
num_cat=0
split_feature=40 1
split_gain=4.32445 0.423585
threshold=0.20329676409785047 0.47682706172753059
decision_type=2 2
left_child=1 -1
right_child=-2 -3
leaf_value=0.0062693898195956155 -0.0043536106027905292 0
leaf_weight=6.968567907810213 7.843497470021247 3.4619176983833313
leaf_count=38 45 20
internal_value=0 0.00525356
internal_weight=0 10.4305
internal_count=103 58
is_linear=0
shrinkage=0.0135474


Tree=213
num_leaves=3
num_cat=0
split_feature=40 1
split_gain=4.27123 0.417304
threshold=0.20329676409785047 0.47682706172753059
decision_type=2 2
left_child=1 -1
right_child=-2 -3
leaf_value=0.0062310557417802528 -0.0043270810771450265 0
leaf_weight=6.9646852463483828 7.8327903300523749 3.4619176983833313
leaf_count=38 45 20
internal_value=0 0.00522228
internal_weight=0 10.4266
internal_count=103 58
is_linear=0
shrinkage=0.0135474


Tree=214
num_leaves=3
num_cat=0
split_feature=40 39
split_gain=4.11627 0.0172314
threshold=-0.093736600523384686 -0.42388275193822422
decision_type=2 2
left_child=1 -1
right_child=-2 -3
leaf_value=0.0035415390066265533 -0.006428848350323286 0
leaf_weight=3.7475433647632599 9.5396383404731733 3.9096027612686184
leaf_count=20 57 20
internal_value=0 0.00302875
internal_weight=0 7.65715
internal_count=97 40
is_linear=0
shrinkage=0.0135474


Tree=215
num_leaves=3
num_cat=0
split_feature=40 48
split_gain=4.07104 0.0784684
threshold=-0.093736600523384686 0.28549796058503546
decision_type=2 2
left_child=1 -1
right_child=-2 -3
leaf_value=0 -0.0063886756530571265 0.0036339803876374471
leaf_weight=3.71724605560303 9.5189873427152616 3.9367072284221649
leaf_count=19 57 21
internal_value=0 0.00301777
internal_weight=0 7.65395
internal_count=97 40
is_linear=0
shrinkage=0.0135474


Tree=216
num_leaves=4
num_cat=0
split_feature=41 40 48
split_gain=4.99403 0.438516 0.167891
threshold=-0.3901472235022288 -0.093736600523384686 1.0000000180025095e-35
decision_type=2 2 2
left_child=-1 -2 -3
right_child=1 2 -4
leaf_value=0.006369001643827631 0 -0.0059869870894395834 0
leaf_weight=6.8563877791166332 4.0286257863044748 4.213841870427129 3.5250317603349686
leaf_count=36 20 27 20
internal_value=0 -0.00404413 -0.00507474
internal_weight=0 11.7675 7.73887
internal_count=103 67 47
is_linear=0
shrinkage=0.0135474


Tree=217
num_leaves=4
num_cat=0
split_feature=41 40 48
split_gain=4.94136 0.435305 0.165167
threshold=-0.3901472235022288 -0.093736600523384686 1.0000000180025095e-35
decision_type=2 2 2
left_child=-1 -2 -3
right_child=1 2 -4
leaf_value=0.0063329238608915376 0 -0.0059646428566506905 0
leaf_weight=6.8467370420694378 4.0286257863044748 4.2017624527215931 3.5250317603349686
leaf_count=36 20 27 20
internal_value=0 -0.0040292 -0.00505675
internal_weight=0 11.7554 7.72679
internal_count=103 67 47
is_linear=0
shrinkage=0.0135474


Tree=218
num_leaves=4
num_cat=0
split_feature=41 42 43
split_gain=4.31336 1.40852 1.06263
threshold=-0.3290953621578 1.0000000180025095e-35 1.0000000180025095e-35
decision_type=2 2 2
left_child=-1 2 -2
right_child=1 -3 -4
leaf_value=0.0064295148289544154 -0.0067046513985138043 0.00086233382742101328 0
leaf_weight=6.9575844854116466 6.3031187206506711 3.9960658103227606 3.3742953240871429
leaf_count=37 40 19 19
internal_value=0 -0.00297865 -0.0050155
internal_weight=0 13.6735 9.67741
internal_count=115 78 59
is_linear=0
shrinkage=0.0135474


Tree=219
num_leaves=4
num_cat=0
split_feature=41 42 43
split_gain=4.2581 1.39602 1.05478
threshold=-0.3290953621578 1.0000000180025095e-35 1.0000000180025095e-35
decision_type=2 2 2
left_child=-1 2 -2
right_child=1 -3 -4
leaf_value=0.0063930244584156542 -0.0066758811783183226 0.00085848686581838757 0
leaf_weight=6.9472972005605724 6.2784600853919965 3.9947175830602637 3.3742953240871429
leaf_count=37 40 19 19
internal_value=0 -0.00295784 -0.0049899
internal_weight=0 13.6475 9.65276
internal_count=115 78 59
is_linear=0
shrinkage=0.0135474


Tree=220
num_leaves=3
num_cat=0
split_feature=42 8
split_gain=3.48274 0.727459
