tree
version=v4
num_class=1
num_tree_per_iteration=1
label_index=0
max_feature_idx=47
objective=binary sigmoid:1
feature_names=Sex Age_at_diagnosis Binary_diagnosis Final_diagnosis TOBACCO Comorbidities Pathology_Pattern_Binary Multidsciplinary_committee Pirfenidone Nintedanib Antifibrotic_Drug Prednisone Mycophenolate Extrapulmonary_affectation Associated_lung_cancer Other_cancer Blood_count_abnormality_at_diagnosis Anemia Thrombocytopenia Thrombocytosis Lymphocytosis Lymphopenia Neutrophilia Neutropenia Leukocytosis Leukopenia Hematologic_Disease Liver_abnormality LDH ALT AST ALP GGT Transaminitis Cholestasis Liver_disease FVC_(L)_at_diagnosis FVC_(%)_at_diagnosis DLCO_(%)_at_diagnosis FVC_(L)_1_year_after_diagnosis FVC_(%)_1_year_after_diagnosis DLCO_(%)_1_year_after_diagnosis Type_of_family_history 1st_degree_relative 2nd_degree_relative More_than_1_relative Genetic_mutation_studied_in_patient Severity_of_telomere_shortening
feature_infos=[-1.611258466588724:0.62063289083417517] [-2.992122471728047:2.4800232711877936] [-1.0954451150103321:0.91287092917527701] [-0.76327373705089219:4.0511056480379697] [-1.2254967288505061:0.82982065496155333] [-1.7507762253652943:0.57117522245959951] [-1.2782029638916539:0.78234836583023626] [-2.2876479915697989:0.43713018947193599] [-0.66216428358945678:1.5101992432741995] [-0.67892378070001347:1.4729193886373175] [-1.1821319289469754:0.8459292702556338] [-0.77349246815376171:1.292837411057002] [-0.37449152518985579:2.6702873970059282] [-0.41964345453112639:2.3829753310874682] none [-0.36514837167011077:2.7386127875258306] [-0.56293996878060104:1.776388345929897] none none none none none none none none none none [-0.62063289083417517:1.611258466588724] [-0.36514837167011077:2.7386127875258306] none none none [-0.37449152518985579:2.6702873970059282] [-0.34606427010299129:2.8896366553599777] [-0.38371768763464764:2.606082628518648] none [-2.2254748989377529:3.2142037323603798] [-2.475962869611338:3.2321905741408963] [-1.9018406537036909:3.8943329343426067] [-2.2200655187464333:3.5076999605490937] [-2.3902035090875597:2.7081303612769219] [-2.9701536603167988:2.8003778267566295] [-0.9128709291752769:1.0954451150103321] [-0.87415727612153782:1.1439589045541112] none [-0.53819622110694265:1.8580583823930161] [-0.74721705904866309:1.3382992102364117] [-1.0976139210056801:2.221854594812037]
tree_sizes=555 460 432 456 438 435 553 559 541 455 439 434 451 544 536 451 562 546 439 439 440 462 450 461 456 456 459 562 564 456 562 455 458 538 560 460 458 539 455 459 432 455 459 460 559 539 437 540 565 460 543 547 457 453 443 635 459 459 540 544 525 562 627 542 625 522 539 566 457 432 541 540 459 437 455 521 440 628 603 542 548 629 561 547 459 564 457 541 544 522 460 455 654 548 539 531 561 547 660 462 555 639 634 435 456 523 647 437 525 519 637 458 651 627 630 549 457 650 628 635 452 562 434 461 650 440 435 561 649 443 568 442 442 549 459 637 457 606 671 648 460 546 545 462 525 565 566

Tree=0
num_leaves=4
num_cat=0
split_feature=38 1 39
split_gain=8.25662 4.06823 1.39331
threshold=-0.29996397215402015 -0.30490804440330371 -0.42388275193822422
decision_type=2 2 2
left_child=2 -2 -1
right_child=1 -3 -4
leaf_value=-0.21778096292404783 -0.23954835796950633 -0.27102033709134005 -0.24724110289327039
leaf_weight=7.8789787292480469 5.4167978763580331 13.295776605606079 6.8941063880920392
leaf_count=32 22 54 28
internal_value=-0.247241 -0.260954 -0.224911
internal_weight=0 18.7126 14.7731
internal_count=136 76 60
is_linear=0
shrinkage=1


Tree=1
num_leaves=3
num_cat=0
split_feature=40 42
split_gain=17.8162 0.411486
threshold=-0.093736600523384686 1.0000000180025095e-35
decision_type=2 2
left_child=-1 -2
right_child=1 -3
leaf_value=0.031511545046581255 -0.02649692024695367 -0.0025583789746571523
leaf_weight=14.787320539355276 10.324088171124458 8.3655349910259247
leaf_count=60 42 34
internal_value=0 -0.0215623
internal_weight=0 18.6896
internal_count=136 76
is_linear=0
shrinkage=0.0451923


Tree=2
num_leaves=3
num_cat=0
split_feature=41 42
split_gain=16.6338 2.29919
threshold=-0.3290953621578 1.0000000180025095e-35
decision_type=2 2
left_child=-1 -2
right_child=1 -3
leaf_value=0.033159074679075508 -0.027208842047375247 0
leaf_weight=12.35640302300453 11.532143652439117 9.600340262055397
leaf_count=50 47 39
internal_value=0 -0.0187186
internal_weight=0 21.1325
internal_count=136 86
is_linear=0
shrinkage=0.0451923


Tree=3
num_leaves=3
num_cat=0
split_feature=38 37
split_gain=10.7848 0.776196
threshold=-0.29996397215402015 -0.64541711006320746
decision_type=2 2
left_child=1 -1
right_child=-2 -3
leaf_value=0.02710220527920729 -0.021034588034683166 0.00011626495906997347
leaf_weight=7.2018087357282639 17.152301013469696 6.1661127805709857
leaf_count=29 70 25
internal_value=0 0.0215138
internal_weight=0 13.3679
internal_count=124 54
is_linear=0
shrinkage=0.0451923


Tree=4
num_leaves=3
num_cat=0
split_feature=40 46
split_gain=18.3369 1.32005
threshold=-0.27993662013669596 1.0000000180025095e-35
decision_type=2 2
left_child=-1 -2
right_child=1 -3
leaf_value=0.030528069293933462 -0.030858945702098309 0
leaf_weight=11.898945569992067 12.447079017758371 6.1366485804319373
leaf_count=48 51 25
internal_value=0 -0.0253812
internal_weight=0 18.5837
internal_count=124 76
is_linear=0
shrinkage=0.0451923


Tree=5
num_leaves=3
num_cat=0
split_feature=38 39
split_gain=9.93779 2.57831
threshold=-0.29996397215402015 -0.42388275193822422
decision_type=2 2
left_child=1 -1
right_child=-2 -3
leaf_value=0.030005646996391636 -0.020136569423117083 0
leaf_weight=7.4679610580205917 17.062551975250244 5.9197384119033831
leaf_count=30 70 24
internal_value=0 0.0207349
internal_weight=0 13.3877
internal_count=124 54
is_linear=0
shrinkage=0.0451923


Tree=6
num_leaves=4
num_cat=0
split_feature=41 42 36
split_gain=15.6401 3.88833 0.487433
threshold=-0.3290953621578 1.0000000180025095e-35 1.0000000180025095e-35
decision_type=2 2 2
left_child=-1 -2 -3
right_child=1 2 -4
leaf_value=0.03062789009035877 -0.031475603163563355 -0.0049634327697673959 0.0066824636923817037
leaf_weight=10.935230284929274 12.115409687161446 5.3884249925613403 5.1429641991853714
leaf_count=44 50 22 21
internal_value=0 -0.0203123 0
internal_weight=0 22.6468 10.5314
internal_count=137 93 43
is_linear=0
shrinkage=0.0451923


Tree=7
num_leaves=4
num_cat=0
split_feature=40 36 40
split_gain=13.2114 3.18854 0.388421
threshold=-0.093736600523384686 1.0053989436599899 -0.55258664885618769
decision_type=2 2 2
left_child=2 -2 -1
right_child=1 -3 -4
leaf_value=0.028955253999206329 -0.028503060333732851 0.0022122586649894727 0.0012551149026643919
leaf_weight=8.7182321399450284 14.528602227568628 4.8718635886907569 5.4157823026180258
leaf_count=35 60 20 22
internal_value=0 -0.0211645 0.0247019
internal_weight=0 19.4005 14.134
internal_count=137 80 57
is_linear=0
shrinkage=0.0451923


Tree=8
num_leaves=4
num_cat=0
split_feature=43 1 8
split_gain=6.0346 2.96727 0.496111
threshold=1.0000000180025095e-35 0.08595950866211341 -1.0000000180025095e-35
decision_type=2 2 2
left_child=2 -2 -1
right_child=1 -3 -4
leaf_value=-0.017618964024505194 0.025850914180440401 -0.0030613960317625059 0
leaf_weight=13.580946981906889 9.1307125836610776 5.619386911392211 5.1415723860263851
leaf_count=56 37 23 21
internal_value=0 0.0162218 -0.014723
internal_weight=0 14.7501 18.7225
internal_count=137 60 77
is_linear=0
shrinkage=0.0451923


Tree=9
num_leaves=3
num_cat=0
split_feature=38 1
split_gain=11.1713 3.91885
threshold=-0.29996397215402015 -0.20719115613694947
decision_type=2 2
left_child=-1 -2
right_child=1 -3
leaf_value=0.022548608277805682 0.0037197048906470551 -0.029710967898610378
leaf_weight=13.163649633526804 5.1279545724391982 12.713905945420262
leaf_count=53 21 53
internal_value=0 -0.0206302
internal_weight=0 17.8419
internal_count=127 74
is_linear=0
shrinkage=0.0451923


Tree=10
num_leaves=3
num_cat=0
split_feature=40 1
split_gain=12.8345 1.58488
threshold=-0.093736600523384686 1.0000000180025095e-35
decision_type=2 2
left_child=-1 -2
right_child=1 -3
leaf_value=0.024301055947656539 0 -0.027331390312716499
leaf_weight=13.157512128353121 5.1224356144666698 12.666140645742415
leaf_count=53 21 53
internal_value=0 -0.0220153
internal_weight=0 17.7886
internal_count=127 74
is_linear=0
shrinkage=0.0451923


Tree=11
num_leaves=3
num_cat=0
split_feature=41 46
split_gain=15.7454 1.06446
threshold=-0.3290953621578 1.0000000180025095e-35
decision_type=2 2
left_child=-1 -2
right_child=1 -3
leaf_value=0.03006128675291345 -0.027000735957262042 0
leaf_weight=10.698269516229631 13.371591985225679 6.8177482187747946
leaf_count=43 56 28
internal_value=0 -0.0220323
internal_weight=0 20.1893
internal_count=127 84
is_linear=0
shrinkage=0.0451923


Tree=12
num_leaves=3
num_cat=0
split_feature=41 1
split_gain=13.0659 3.67283
threshold=-0.3290953621578 -0.30490804440330371
decision_type=2 2
left_child=-1 -2
right_child=1 -3
leaf_value=0.029735721923345299 0.0032902546212674605 -0.02646789415431345
leaf_weight=11.714873269200323 7.3449225723743448 13.310332268476486
leaf_count=47 30 56
internal_value=0 -0.0167941
internal_weight=0 20.6553
internal_count=133 86
is_linear=0
shrinkage=0.0451923


Tree=13
num_leaves=4
num_cat=0
split_feature=39 8 47
split_gain=3.80426 2.23832 1.1804
threshold=-0.83539211647013589 -1.0000000180025095e-35 1.0000000180025095e-35
decision_type=2 2 2
left_child=-1 2 -2
right_child=1 -3 -4
leaf_value=0.02036228571154856 -0.019632123969754937 0.0071061146364544943 0
leaf_weight=6.930612549185752 10.05868683755398 7.5551004856824902 7.7511189579963675
leaf_count=28 42 31 32
internal_value=0 -0.00604082 -0.0136048
internal_weight=0 25.3649 17.8098
internal_count=133 105 74
is_linear=0
shrinkage=0.0451923


Tree=14
num_leaves=4
num_cat=0
split_feature=40 41 1
split_gain=16.3428 1.20011 1.18439
threshold=0.070296750088342241 -0.3290953621578 1.0000000180025095e-35
decision_type=2 2 2
left_child=1 -1 -2
right_child=2 -3 -4
leaf_value=0.033455495170951213 0 0.00084731956730411636 -0.029809218985962001
leaf_weight=10.473520442843435 6.304338499903678 6.1251647323370007 9.363590255379675
leaf_count=42 26 25 40
internal_value=0 0.027533 -0.0237745
internal_weight=0 16.5987 15.6679
internal_count=133 67 66
is_linear=0
shrinkage=0.0451923


Tree=15
num_leaves=3
num_cat=0
split_feature=41 1
split_gain=13.8164 4.71557
threshold=-0.3290953621578 -0.30490804440330371
decision_type=2 2
left_child=-1 -2
right_child=1 -3
leaf_value=0.030675995896107706 0.005760033157955452 -0.027610814472644796
leaf_weight=11.682915404438971 6.8547752499580392 14.329579338431358
leaf_count=47 28 61
internal_value=0 -0.0170259
internal_weight=0 21.1844
internal_count=136 89
is_linear=0
shrinkage=0.0451923


Tree=16
num_leaves=4
num_cat=0
split_feature=40 40 36
split_gain=15.6484 0.542617 0.468168
threshold=0.070296750088342241 -0.32870329194018238 0.9713299751967448
decision_type=2 2 2
left_child=1 -1 -2
right_child=2 -3 -4
leaf_value=0.031137980895326153 -0.026433274176946318 0.0009078095046580947 -0.00038676323015031188
leaf_weight=11.623532593250276 10.963837921619417 4.8932394534349433 5.285513535141944
leaf_count=47 47 20 22
internal_value=0 0.0272376 -0.0227082
internal_weight=0 16.5168 16.2494
internal_count=136 67 69
is_linear=0
shrinkage=0.0451923


Tree=17
num_leaves=4
num_cat=0
split_feature=42 1 1
split_gain=4.58095 0.0641036 0.0329875
threshold=1.0000000180025095e-35 0.28139328519482204 1.0000000180025095e-35
decision_type=2 2 2
left_child=2 -2 -1
right_child=1 -3 -4
leaf_value=0 0.018905611503139127 0.00037450079411446179 -0.011865420508847651
leaf_weight=5.3199230879545238 9.589458763599394 5.5380239933729163 12.237627625465391
leaf_count=22 39 23 52
internal_value=0 0.0164479 -0.0104979
internal_weight=0 15.1275 17.5576
internal_count=136 62 74
is_linear=0
shrinkage=0.0451923


Tree=18
num_leaves=3
num_cat=0
split_feature=42 8
split_gain=3.92072 0.242327
threshold=1.0000000180025095e-35 1.0000000180025095e-35
decision_type=2 2
left_child=1 -1
right_child=-2 -3
leaf_value=-0.016397369664479942 0.011678621495198157 0
leaf_weight=11.784890428185465 12.9130005389452 5.5823368877172461
leaf_count=50 53 23
internal_value=0 -0.0139129
internal_weight=0 17.3672
internal_count=126 73
is_linear=0
shrinkage=0.0451923


Tree=19
num_leaves=3
num_cat=0
split_feature=40 46
split_gain=11.1278 1.69644
threshold=-0.73878666846949936 1.0000000180025095e-35
decision_type=2 2
left_child=-1 -2
right_child=1 -3
leaf_value=0.026735749449489483 -0.024035232899298476 0
leaf_weight=8.1695370227098483 15.001527696847917 7.0857417434453955
leaf_count=33 64 29
internal_value=0 -0.0183203
internal_weight=0 22.0873
internal_count=126 93
is_linear=0
shrinkage=0.0451923


Tree=20
num_leaves=3
num_cat=0
split_feature=37 11
split_gain=3.64641 0.52696
threshold=-0.91606231644801206 1.0000000180025095e-35
decision_type=2 2
left_child=-1 -2
right_child=1 -3
leaf_value=0.015977493227121761 -0.013775575766941254 0
leaf_weight=6.1641186177730587 15.734051570296288 8.2565445750951767
leaf_count=25 66 35
internal_value=0 -0.0104872
internal_weight=0 23.9906
internal_count=126 101
is_linear=0
shrinkage=0.0451923


Tree=21
num_leaves=3
num_cat=0
split_feature=43 10
split_gain=3.07587 1.32363
threshold=1.0000000180025095e-35 1.0000000180025095e-35
decision_type=2 2
left_child=1 -1
right_child=-2 -3
leaf_value=-0.013742142799471285 0.018095947804566217 0.0034329392444415311
leaf_weight=6.2581770122051248 15.337020739912989 10.268206879496574
leaf_count=27 63 43
internal_value=0 -0.00410604
internal_weight=0 16.5264
internal_count=133 70
is_linear=0
shrinkage=0.0451923


Tree=22
num_leaves=3
num_cat=0
split_feature=41 39
split_gain=14.7443 2.40295
threshold=-0.3290953621578 0.99415627448930921
decision_type=2 2
left_child=-1 -2
right_child=1 -3
leaf_value=0.0347686860863985 -0.021345079804719183 0.0036129121944497573
leaf_weight=12.352193340659143 14.743275612592699 4.7712852358818045
leaf_count=50 63 20
internal_value=0 -0.0146556
internal_weight=0 19.5146
internal_count=133 83
is_linear=0
shrinkage=0.0451923


Tree=23
num_leaves=3
num_cat=0
split_feature=38 45
split_gain=7.92904 0.998245
threshold=-0.29996397215402015 1.0000000180025095e-35
decision_type=2 2
left_child=-1 -2
right_child=1 -3
leaf_value=0.025589442837560185 -0.015036852215796721 0.00065411564471688983
leaf_weight=14.201139017939569 12.465093493461611 5.0997149497270575
leaf_count=58 54 21
internal_value=0 -0.0103343
internal_weight=0 17.5648
internal_count=133 75
is_linear=0
shrinkage=0.0451923


Tree=24
num_leaves=3
num_cat=0
split_feature=40 36
split_gain=16.1109 0.68869
threshold=-0.59470331995919878 0.9713299751967448
decision_type=2 2
left_child=-1 -2
right_child=1 -3
leaf_value=0.028683508352450846 -0.028098388588733189 -5.0018656162950452e-05
leaf_weight=9.0751430243253726 16.646689593791965 5.0792610198259345
leaf_count=37 72 21
internal_value=0 -0.0247792
internal_weight=0 21.726
internal_count=130 93
is_linear=0
shrinkage=0.0451923


Tree=25
num_leaves=3
num_cat=0
split_feature=40 39
split_gain=15.3696 0.139055
threshold=-0.59470331995919878 0.99415627448930921
decision_type=2 2
left_child=-1 -2
right_child=1 -3
leaf_value=0.02808595666938523 -0.026519902032077575 -0.001131330417237914
leaf_weight=9.0444594025611895 16.819420635700229 4.7881807386875144
leaf_count=37 73 20
internal_value=0 -0.0241891
internal_weight=0 21.6076
internal_count=130 93
is_linear=0
shrinkage=0.0451923


Tree=26
num_leaves=3
num_cat=0
split_feature=39 45
split_gain=4.59961 1.64703
threshold=-0.83539211647013589 1.0000000180025095e-35
decision_type=2 2
left_child=-1 -2
right_child=1 -3
leaf_value=0.015184026359735056 -0.019423177363545169 0.000460591776040593
leaf_weight=6.7564586549997356 17.237177506089214 6.5095278620719901
leaf_count=28 75 27
internal_value=0 -0.0141557
internal_weight=0 23.7467
internal_count=130 102
is_linear=0
shrinkage=0.0451923


Tree=27
num_leaves=4
num_cat=0
split_feature=40 1 1
split_gain=11.5189 0.388378 0.33767
threshold=0.070296750088342241 1.0000000180025095e-35 0.47682706172753059
decision_type=2 2 2
left_child=2 -2 -1
right_child=1 -3 -4
leaf_value=0.022620857607005589 -0.00098736380597609489 -0.027412729651708104 8.412978642100121e-06
leaf_weight=11.357014313340189 5.4688667356967917 10.225099191069601 5.3597475290298453
leaf_count=47 23 46 22
internal_value=0 -0.0235496 0.0194665
internal_weight=0 15.694 16.7168
internal_count=138 69 69
is_linear=0
shrinkage=0.0451923


Tree=28
num_leaves=4
num_cat=0
split_feature=40 47 1
split_gain=11.0328 2.1193 0.354779
threshold=0.070296750088342241 0.83874271322132177 1.0000000180025095e-35
decision_type=2 2 2
left_child=1 -1 -2
right_child=2 -3 -4
leaf_value=0.025514419458662663 -0.00097072813282554507 -0.00034989794345688152 -0.026886142879408555
leaf_weight=11.875967517495157 5.4678048640489569 4.8351075500249854 10.135231941938398
leaf_count=49 23 20 46
internal_value=0 0.0190217 -0.0231165
internal_weight=0 16.7111 15.603
internal_count=138 69 69
is_linear=0
shrinkage=0.0451923


Tree=29
num_leaves=3
num_cat=0
split_feature=40 43
split_gain=10.5267 0.493877
threshold=0.070296750088342241 1.0000000180025095e-35
decision_type=2 2
left_child=1 -1
right_child=-2 -3
leaf_value=0.0020485850736011151 -0.022695251874231125 0.024413705979547
leaf_weight=9.4341077804565447 15.511434704065321 7.2656625956296912
leaf_count=39 69 30
internal_value=0 0.0185032
internal_weight=0 16.6998
internal_count=138 69
is_linear=0
shrinkage=0.0451923


Tree=30
num_leaves=4
num_cat=0
split_feature=41 38 37
split_gain=8.22873 2.09719 0.139729
threshold=-0.45388508514912468 0.36652704312489587 0.72257138766362095
decision_type=2 2 2
left_child=-1 -2 -3
right_child=1 2 -4
leaf_value=0.025209527573758647 -0.020607219724211152 0.0044360431508337845 -0.00080410952804926491
leaf_weight=10.398265674710272 11.619186773896219 5.425479978322981 4.6562507301568985
leaf_count=43 50 24 21
internal_value=0 -0.012135 0.000725235
internal_weight=0 21.7009 10.0817
internal_count=138 95 45
is_linear=0
shrinkage=0.0451923


Tree=31
num_leaves=3
num_cat=0
split_feature=40 1
split_gain=9.03338 1.97292
threshold=-0.32870329194018238 -0.30490804440330371
decision_type=2 2
left_child=-1 -2
right_child=1 -3
leaf_value=0.024668775051353571 0.0026305456557462032 -0.019916638164276041
leaf_weight=12.067192032933233 4.8310222625732431 15.118552953004837
leaf_count=50 20 68
internal_value=0 -0.013985
internal_weight=0 19.9496
internal_count=138 88
is_linear=0
shrinkage=0.0451923


Tree=32
num_leaves=3
num_cat=0
split_feature=40 46
split_gain=8.55541 1.95461
threshold=-0.32870329194018238 1.0000000180025095e-35
decision_type=2 2
left_child=-1 -2
right_child=1 -3
leaf_value=0.024070938825032726 -0.020512372368512909 0.0012909211515344623
leaf_weight=12.03565299510956 12.996457546949388 6.8644274622201911
leaf_count=50 59 29
internal_value=0 -0.0135797
internal_weight=0 19.8609
internal_count=138 88
is_linear=0
shrinkage=0.0451923


Tree=33
num_leaves=4
num_cat=0
split_feature=41 42 41
split_gain=7.06847 3.61074 0.298493
threshold=-0.3290953621578 1.0000000180025095e-35 0.36056455302926721
decision_type=2 2 2
left_child=-1 -2 -3
right_child=1 2 -4
leaf_value=0.023146573377636506 -0.022638793037098114 0.0086391432383866734 0
leaf_weight=11.991470992565153 11.136661544442177 5.312405601143837 4.6715566366910934
leaf_count=50 51 22 20
internal_value=0 -0.0107319 0.0049515
internal_weight=0 21.1206 9.98396
internal_count=143 93 42
is_linear=0
shrinkage=0.0451923


Tree=34
num_leaves=4
num_cat=0
split_feature=40 36 43
split_gain=7.86332 1.4437 1.07774
threshold=-0.093736600523384686 0.9713299751967448 1.0000000180025095e-35
decision_type=2 2 2
left_child=2 -2 -1
right_child=1 -3 -4
leaf_value=0.0010954432734009843 -0.019790114947098657 0.00054565072842107331 0.028087331983328818
leaf_weight=8.6523366719484347 11.96305473148823 4.6990362852811804 7.6847048401832572
leaf_count=36 55 20 32
internal_value=0 -0.0143591 0.0208657
internal_weight=0 16.6621 16.337
internal_count=143 75 68
is_linear=0
shrinkage=0.0451923


Tree=35
num_leaves=3
num_cat=0
split_feature=40 42
split_gain=7.52213 2.14076
threshold=-0.093736600523384686 1.0000000180025095e-35
decision_type=2 2
left_child=-1 -2
right_child=1 -3
leaf_value=0.020485120447530938 -0.022864218260392092 0.00069104735789510057
leaf_weight=16.313855469226837 8.8446836620569247 7.7385234981775275
leaf_count=68 42 33
internal_value=0 -0.013993
internal_weight=0 16.5832
internal_count=143 75
is_linear=0
shrinkage=0.0451923


Tree=36
num_leaves=3
num_cat=0
split_feature=42 1
split_gain=4.82207 0.181076
threshold=1.0000000180025095e-35 0.08595950866211341
decision_type=2 2
left_child=-1 -2
right_child=1 -3
leaf_value=-0.012710539606566663 0.018135528386988946 0.00017664316597890814
leaf_weight=15.938661903142927 9.6579852551221865 6.4669076502323142
leaf_count=72 40 28
internal_value=0 0.0151684
internal_weight=0 16.1249
internal_count=140 68
is_linear=0
shrinkage=0.0451923


Tree=37
num_leaves=4
num_cat=0
split_feature=41 42 47
split_gain=5.74318 3.56511 0.294112
threshold=-0.3290953621578 1.0000000180025095e-35 0.28549796058503546
decision_type=2 2 2
left_child=-1 -2 -3
right_child=1 2 -4
leaf_value=0.020554133991758122 -0.023048416010388272 0 0.0081892753234339422
leaf_weight=10.221856847405432 10.633681133389473 6.1954061686992645 4.9801482707262039
leaf_count=43 50 26 21
internal_value=0 -0.010737 0.00412761
internal_weight=0 21.8092 11.1756
internal_count=140 97 47
is_linear=0
shrinkage=0.0451923


Tree=38
num_leaves=3
num_cat=0
split_feature=41 46
split_gain=5.47121 3.44195
threshold=-0.3290953621578 1.0000000180025095e-35
decision_type=2 2
left_child=-1 -2
right_child=1 -3
leaf_value=0.020103449244074322 -0.020966747362520195 0.0058973338118493319
leaf_weight=10.184397742152216 13.144443705677986 8.5856377184391022
leaf_count=43 61 36
internal_value=0 -0.0104669
internal_weight=0 21.7301
internal_count=140 97
is_linear=0
shrinkage=0.0451923


Tree=39
num_leaves=3
num_cat=0
split_feature=40 42
split_gain=6.49491 2.46706
threshold=-0.73878666846949936 1.0000000180025095e-35
decision_type=2 2
left_child=-1 -2
right_child=1 -3
leaf_value=0.022505775747720808 -0.021129273059626679 0.0022353250994165629
leaf_weight=7.4464973658323315 12.848916247487068 8.5497529059648514
leaf_count=32 60 36
internal_value=0 -0.0126226
internal_weight=0 21.3987
internal_count=128 96
is_linear=0
shrinkage=0.0451923


Tree=40
num_leaves=3
num_cat=0
split_feature=41 1
split_gain=7.26157 1.13141
threshold=-0.3290953621578 -0.30490804440330371
decision_type=2 2
left_child=-1 -2
right_child=1 -3
leaf_value=0.020490491234805747 0 -0.020511594390927524
leaf_weight=10.828028410673143 6.2125576287508055 11.681788176298138
leaf_count=46 26 56
internal_value=0 -0.0154449
internal_weight=0 17.8943
internal_count=128 82
is_linear=0
shrinkage=0.0451923


Tree=41
num_leaves=3
num_cat=0
split_feature=40 46
split_gain=6.03058 1.9817
threshold=-0.73878666846949936 1.0000000180025095e-35
decision_type=2 2
left_child=-1 -2
right_child=1 -3
leaf_value=0.021823447569571636 -0.019067507582259998 0.00212613609350842
leaf_weight=7.3681695759296444 14.048198789358141 7.1783248633146277
leaf_count=32 66 30
internal_value=0 -0.012114
internal_weight=0 21.2265
internal_count=128 96
is_linear=0
shrinkage=0.0451923


Tree=42
num_leaves=3
num_cat=0
split_feature=40 46
split_gain=6.5403 2.11215
threshold=-0.45726997214937393 1.0000000180025095e-35
decision_type=2 2
left_child=-1 -2
right_child=1 -3
leaf_value=0.018904602921851709 -0.022787332562373426 0.00058453442964676212
leaf_weight=10.230056494474413 11.569591447710993 7.0372969359159461
leaf_count=44 55 30
internal_value=0 -0.0152402
internal_weight=0 18.6069
internal_count=129 85
is_linear=0
shrinkage=0.0451923


Tree=43
num_leaves=3
num_cat=0
split_feature=38 43
split_gain=2.69256 1.99222
threshold=-0.53438494994177688 1.0000000180025095e-35
decision_type=2 2
left_child=-1 -2
right_child=1 -3
leaf_value=0.012266520796293095 -0.018806349818675478 0.0020564489595904113
leaf_weight=9.2708172202110308 9.8759651482105255 9.5614970475435257
leaf_count=40 48 41
internal_value=0 -0.00978289
internal_weight=0 19.4375
internal_count=129 89
is_linear=0
shrinkage=0.0451923


Tree=44
num_leaves=4
num_cat=0
split_feature=39 36 39
split_gain=2.67134 0.826748 0.547249
threshold=-0.83539211647013589 1.0000000180025095e-35 0.69942659448672395
decision_type=2 2 2
left_child=-1 -2 -3
right_child=1 2 -4
leaf_value=0.014054007548645235 -0.014593114981496584 0.0064991809969596375 -0.0056170897119419512
leaf_weight=6.5367504507303265 9.8914440870285052 5.4849362224340421 6.7120045572519302
leaf_count=29 45 25 30
internal_value=0 -0.00870055 0
internal_weight=0 22.0884 12.1969
internal_count=129 100 55
is_linear=0
shrinkage=0.0451923


Tree=45
num_leaves=4
num_cat=0
split_feature=40 36 1
split_gain=3.6063 0.865937 0.351262
threshold=-0.27993662013669596 0.5965713221010488 0.18367639692846771
decision_type=2 2 2
left_child=2 -2 -1
right_child=1 -3 -4
leaf_value=0.019608311084651633 -0.014675519703457096 9.3656374000532596e-05 0
leaf_weight=6.6551354229450244 9.0865707695484144 5.5656769126653662 5.6041440814733505
leaf_count=29 43 25 24
internal_value=0 -0.0095208 0.0158193
internal_weight=0 14.6522 12.2593
internal_count=121 68 53
is_linear=0
shrinkage=0.0451923


Tree=46
num_leaves=3
num_cat=0
split_feature=41 42
split_gain=3.51697 0.884971
threshold=-0.3290953621578 1.0000000180025095e-35
decision_type=2 2
left_child=-1 -2
right_child=1 -3
leaf_value=0.016671841124108393 -0.014376719399092694 0
leaf_weight=10.581525743007662 8.5501080602407473 7.7101703137159339
leaf_count=46 42 33
internal_value=0 -0.00853087
internal_weight=0 16.2603
internal_count=121 75
is_linear=0
shrinkage=0.0451923


Tree=47
num_leaves=4
num_cat=0
split_feature=42 37 1
split_gain=1.82028 0.83381 0.189191
threshold=1.0000000180025095e-35 -0.64541711006320746 0.08595950866211341
decision_type=2 2 2
left_child=1 -1 -2
right_child=2 -3 -4
leaf_value=0.0024790839443201308 0.014305949982960782 -0.011367194693076068 0
leaf_weight=4.886451482772828 7.4544386714696884 9.9175231754779798 4.499152883887291
leaf_count=21 32 48 20
internal_value=0 -0.00594215 0.0119449
internal_weight=0 14.804 11.9536
internal_count=121 69 52
is_linear=0
shrinkage=0.0451923


Tree=48
num_leaves=4
num_cat=0
split_feature=41 1 42
split_gain=4.54338 3.8035 0.0421328
threshold=-0.88082329430745376 -0.30490804440330371 1.0000000180025095e-35
decision_type=2 2 2
left_child=-1 -2 -3
right_child=1 2 -4
leaf_value=0.020957267411582752 0.0089553165930913291 -0.02202633240602573 -0.0016355231829792507
leaf_weight=7.1597726047039059 7.9103001505136552 8.597587555646891 6.5397026240825644
leaf_count=32 33 42 29
internal_value=0 -0.00819033 -0.0187786
internal_weight=0 23.0476 15.1373
internal_count=136 104 71
is_linear=0
shrinkage=0.0451923


Tree=49
num_leaves=3
num_cat=0
split_feature=41 5
split_gain=4.37141 1.24913
threshold=-0.88082329430745376 1.0000000180025095e-35
decision_type=2 2
left_child=-1 -2
right_child=1 -3
leaf_value=0.020596108031191659 0.0027826585594881554 -0.013215451856906056
leaf_weight=7.1172707378864315 6.3621034771204057 16.627832427620884
leaf_count=32 27 77
internal_value=0 -0.00802426
internal_weight=0 22.9899
internal_count=136 104
is_linear=0
shrinkage=0.0451923


Tree=50
num_leaves=4
num_cat=0
split_feature=41 36 11
split_gain=4.17693 1.72419 0.791139
threshold=-0.88082329430745376 1.0962495262286434 1.0000000180025095e-35
decision_type=2 2 2
left_child=-1 2 -2
right_child=1 -3 -4
leaf_value=0.020243062424632041 -0.017882483657158992 0.005688768221923845 0
leaf_weight=7.0744722038507488 11.535051703453069 4.922574207186698 6.4754822403192511
leaf_count=32 53 21 30
internal_value=0 -0.00775431 -0.0135642
internal_weight=0 22.9331 18.0105
internal_count=136 104 83
is_linear=0
shrinkage=0.0451923


Tree=51
num_leaves=4
num_cat=0
split_feature=38 46 3
split_gain=1.12172 0.992362 0.0973453
threshold=-0.29996397215402015 1.0000000180025095e-35 0.51112080606086541
decision_type=2 2 2
left_child=-1 2 -2
right_child=1 -3 -4
leaf_value=0.011195722012294497 -0.010782588063151927 0.0056429612264778566 0
leaf_weight=12.060484170913698 6.9912521988153475 6.0507635921239844 4.1844426691532135
leaf_count=53 34 26 21
internal_value=0 -0.00224758 -0.00908437
internal_weight=0 17.2265 11.1757
internal_count=134 81 55
is_linear=0
shrinkage=0.0451923


Tree=52
num_leaves=3
num_cat=0
split_feature=40 1
split_gain=5.83393 1.23634
threshold=-0.093736600523384686 -0.10947426787059519
decision_type=2 2
left_child=-1 -2
right_child=1 -3
leaf_value=0.01979074433445259 0.00067267905725950218 -0.017491379081015522
leaf_weight=14.013625398278238 5.3006476461887369 9.9366893619298899
leaf_count=61 23 50
internal_value=0 -0.0116656
internal_weight=0 15.2373
internal_count=134 73
is_linear=0
shrinkage=0.0451923


Tree=53
num_leaves=3
num_cat=0
split_feature=40 36
split_gain=5.534 1.9326
threshold=-0.093736600523384686 0.9713299751967448
decision_type=2 2
left_child=-1 -2
right_child=1 -3
leaf_value=0.019275348556396989 -0.018819836823287878 0.0036573690578798612
leaf_weight=13.983093872666361 10.373956665396689 4.7925138920545569
leaf_count=61 52 21
internal_value=0 -0.0113843
internal_weight=0 15.1665
internal_count=134 73
is_linear=0
shrinkage=0.0451923


Tree=54
num_leaves=3
num_cat=0
split_feature=43 8
split_gain=2.4267 0.0850785
threshold=1.0000000180025095e-35 1.0000000180025095e-35
decision_type=2 2
left_child=1 -1
right_child=-2 -3
leaf_value=-0.0081633898337493682 0.013706131532911231 0
leaf_weight=10.261147752404211 12.644179418683052 4.2894612550735483
leaf_count=51 56 20
internal_value=0 -0.00687297
internal_weight=0 14.5506
internal_count=127 71
is_linear=0
shrinkage=0.0451923


Tree=55
num_leaves=5
num_cat=0
split_feature=40 46 1 37
split_gain=4.73941 1.66095 0.271455 0.174604
threshold=0.29196344010418934 1.0000000180025095e-35 0.28139328519482204 0.8948001553630418
decision_type=2 2 2 2
left_child=1 2 -1 -2
right_child=3 -3 -4 -5
leaf_value=0.0049099338888132392 -0.016097346921255199 0.024547696871531435 -0.003997425076677422 0
leaf_weight=4.2218708842992836 6.3371028006076795 6.8812358677387229 5.4044645428657532 4.3328433632850647
leaf_count=19 31 30 26 21
internal_value=0 0.015624 0 -0.0135807
internal_weight=0 16.5076 9.62634 10.6699
internal_count=127 75 45 52
is_linear=0
shrinkage=0.0451923


Tree=56
num_leaves=3
num_cat=0
split_feature=46 41
split_gain=4.40338 2.96432
threshold=1.0000000180025095e-35 -0.29743884146068861
decision_type=2 2
left_child=1 -1
right_child=-2 -3
leaf_value=0.0070116884375680307 0.019030886668347912 -0.019430732157331175
leaf_weight=6.1526571661233946 10.213331386446955 10.74563634395599
leaf_count=27 45 55
internal_value=0 -0.00920126
internal_weight=0 16.8983
internal_count=127 82
is_linear=0
shrinkage=0.0451923


Tree=57
num_leaves=3
num_cat=0
split_feature=46 41
split_gain=4.66596 2.85399
threshold=1.0000000180025095e-35 -0.64792174917870626
decision_type=2 2
left_child=1 -1
right_child=-2 -3
leaf_value=0.0072095594984018596 0.018024719943959589 -0.018924507034103647
leaf_weight=4.6976452171802565 9.9911667257547396 14.387013345956799
leaf_count=21 44 71
internal_value=0 -0.0108381
internal_weight=0 19.0847
internal_count=136 92
is_linear=0
shrinkage=0.0451923


Tree=58
num_leaves=4
num_cat=0
split_feature=1 38 3
split_gain=2.48763 3.41265 0.875764
threshold=-0.30490804440330371 -0.53438494994177688 0.51112080606086541
decision_type=2 2 2
left_child=-1 -2 -3
right_child=1 2 -4
leaf_value=0.013706656406510354 0.0093115641716698377 -0.022402678803592008 0
leaf_weight=9.4526623934507388 6.5429219752550152 8.7701704800128919 4.193632870912551
leaf_count=42 29 43 22
internal_value=0 -0.00744639 -0.0180476
internal_weight=0 19.5067 12.9638
internal_count=136 94 65
is_linear=0
shrinkage=0.0451923


Tree=59
num_leaves=4
num_cat=0
split_feature=1 40 11
split_gain=2.36863 1.22241 0.611289
threshold=-0.30490804440330371 -0.66563666076426986 1.0000000180025095e-35
decision_type=2 2 2
left_child=-1 -2 -3
right_child=1 2 -4
leaf_value=0.013397051588064169 0.0044774663466568311 -0.016205536441369198 0
leaf_weight=9.4453700035810488 3.7719769626855895 9.8594941943883843 5.803665205836297
leaf_count=42 17 48 29
internal_value=0 -0.00725177 -0.0122809
internal_weight=0 19.4351 15.6632
internal_count=136 94 77
is_linear=0
shrinkage=0.0451923


Tree=60
num_leaves=4
num_cat=0
split_feature=42 47 4
split_gain=1.70281 0.194426 0.173976
threshold=1.0000000180025095e-35 1.0000000180025095e-35 -0.7116673828974911
decision_type=2 2 2
left_child=1 -1 -2
right_child=2 -3 -4
leaf_value=-0.01081735915476994 0 0 0.01185108103455247
leaf_weight=8.0592132806777936 6.5845584571361542 4.8721377104520807 6.6550357937812805
leaf_count=40 30 23 29
internal_value=0 -0.00855497 0.00912361
internal_weight=0 12.9314 13.2396
internal_count=122 63 59
is_linear=0
shrinkage=0.0451923


Tree=61
num_leaves=4
num_cat=0
split_feature=41 42 41
split_gain=2.3816 2.77903 0.806156
threshold=-0.88082329430745376 1.0000000180025095e-35 0.20680430964329818
decision_type=2 2 2
left_child=-1 -2 -3
right_child=1 2 -4
leaf_value=0.015086351564452597 -0.01891730517001006 0.012049947242642692 -0.0021634494840410256
leaf_weight=5.7484952509403255 9.3983502388000488 5.2969366014003754 5.7107160985469818
leaf_count=27 47 23 25
internal_value=0 -0.00706877 0.00507505
internal_weight=0 20.406 11.0077
internal_count=122 95 48
is_linear=0
shrinkage=0.0451923


Tree=62
num_leaves=5
num_cat=0
split_feature=46 41 47 42
split_gain=3.23291 2.1961 0.225119 0.184846
threshold=1.0000000180025095e-35 -0.3290953621578 1.0000000180025095e-35 1.0000000180025095e-35
decision_type=2 2 2 2
left_child=1 -1 -2 -3
right_child=2 3 -4 -5
leaf_value=0.004465399433349772 0 -0.021862396274636084 0.017512026254397177 0
leaf_weight=5.7756626009941128 4.7331077754497546 5.9409808814525586 5.2799141108989716 4.3325079381465912
leaf_count=26 21 32 23 20
internal_value=0 -0.0102407 0.0143828 -0.0187571
internal_weight=0 16.0492 10.013 10.2735
internal_count=122 78 44 52
is_linear=0
shrinkage=0.0451923


Tree=63
num_leaves=4
num_cat=0
split_feature=40 43 40
split_gain=3.14212 2.2102 0.162939
threshold=0.29196344010418934 1.0000000180025095e-35 -0.66563666076426986
decision_type=2 2 2
left_child=1 2 -1
right_child=-2 -3 -4
leaf_value=0 -0.016068537511670963 0.018615532248368396 -0.005750671624837304
leaf_weight=4.5421774238348034 9.7639787197113019 7.9370814561843863 6.968838199973109
leaf_count=20 49 35 34
internal_value=0 0.00748766 -0.00311102
internal_weight=0 19.4481 11.511
internal_count=138 89 54
is_linear=0
shrinkage=0.0451923


Tree=64
num_leaves=5
num_cat=0
split_feature=1 39 43 1
split_gain=2.51041 1.52144 0.52893 0.527448
threshold=-0.20719115613694947 -0.83539211647013589 1.0000000180025095e-35 -0.79349248573507525
decision_type=2 2 2 2
left_child=3 -2 -3 -1
right_child=1 2 -4 -5
leaf_value=0 0.0033230937938926925 -0.018649702666345906 0 0.015572968621265051
leaf_weight=4.8339430689811707 4.743957638740544 10.921805694699282 4.0612603574991235 4.5610147118568438
leaf_count=21 22 57 18 20
internal_value=0 -0.0100965 -0.0156352 0.0110059
internal_weight=0 19.727 14.9831 9.39496
internal_count=138 97 75 41
is_linear=0
shrinkage=0.0451923


Tree=65
num_leaves=4
num_cat=0
split_feature=41 45 9
split_gain=3.87271 0.454823 0.236071
threshold=-0.3290953621578 1.0000000180025095e-35 -1.0000000180025095e-35
decision_type=2 2 2
left_child=2 -2 -1
right_child=1 -3 -4
leaf_value=0.016202686254577117 -0.01549684865046008 0 0
leaf_weight=6.2642034441232681 13.036134123802187 5.3410779833793631 4.4040365219116229
leaf_count=29 67 23 19
internal_value=0 -0.0126401 0.0134091
internal_weight=0 18.3772 10.6682
internal_count=138 90 48
is_linear=0
shrinkage=0.0451923


Tree=66
num_leaves=4
num_cat=0
split_feature=41 3 43
split_gain=1.56886 1.81025 0.304115
threshold=-0.3290953621578 1.0000000180025095e-35 1.0000000180025095e-35
decision_type=2 2 2
left_child=-1 2 -2
right_child=1 -3 -4
leaf_value=0.015338366093754788 -0.0147191665785396 0.0083350642890498323 0
leaf_weight=9.09981916844845 5.3873762637376803 8.3883570432662946 4.8839956670999527
leaf_count=42 29 40 21
internal_value=0 -0.00128634 -0.0114075
internal_weight=0 18.6597 10.2714
internal_count=132 90 50
is_linear=0
shrinkage=0.0451923


Tree=67
num_leaves=4
num_cat=0
split_feature=3 0 43
split_gain=1.4372 1.85423 0.307174
threshold=-0.33847555601363966 1.0000000180025095e-35 -1.0000000180025095e-35
decision_type=2 2 2
left_child=2 -2 -1
right_child=1 -3 -4
leaf_value=-0.0066140477786611326 -0.002548251457319608 0.020481778989152061 0.0010679961633092716
leaf_weight=7.9644684195518494 4.4851901084184638 8.8962190300226194 6.3599020838737506
leaf_count=41 22 41 28
internal_value=0 0.0131035 -0.00242905
internal_weight=0 13.3814 14.3244
internal_count=132 63 69
is_linear=0
shrinkage=0.0451923


Tree=68
num_leaves=3
num_cat=0
split_feature=40 3
split_gain=3.36639 0.943466
threshold=-0.093736600523384686 -0.33847555601363966
decision_type=2 2
left_child=-1 -2
right_child=1 -3
leaf_value=0.017846782282656633 -0.01296717805519584 0.0016424839867635445
leaf_weight=12.53860677778721 7.8976994901895523 7.2513918578624708
leaf_count=57 40 35
internal_value=0 -0.00635769
internal_weight=0 15.1491
internal_count=132 75
is_linear=0
shrinkage=0.0451923


Tree=69
num_leaves=3
num_cat=0
split_feature=41 38
split_gain=6.44678 0.459274
threshold=-0.3290953621578 0.49982524618067903
decision_type=2 2
left_child=-1 -2
right_child=1 -3
leaf_value=0.016863880596480637 -0.021622281285857525 0
leaf_weight=9.7648902684450167 10.102072522044184 6.5059147477149954
leaf_count=45 49 33
internal_value=0 -0.0176902
internal_weight=0 16.608
internal_count=127 82
is_linear=0
shrinkage=0.0451923


Tree=70
num_leaves=4
num_cat=0
split_feature=38 1 36
split_gain=1.85443 1.05422 0.572592
threshold=-0.53438494994177688 -0.30490804440330371 -0.72076212514442783
decision_type=2 2 2
left_child=2 -2 -1
right_child=1 -3 -4
leaf_value=0 0.0011407511490350338 -0.01525253358809133 0.012749040821381662
leaf_weight=4.3048983067274094 4.4260124117136046 12.633899271488186 4.8956133276224154
leaf_count=20 19 66 22
internal_value=0 -0.0105745 0.00778506
internal_weight=0 17.0599 9.20051
internal_count=127 85 42
is_linear=0
shrinkage=0.0451923


Tree=71
num_leaves=4
num_cat=0
split_feature=41 27 38
split_gain=6.08007 1.3115 0.0575222
threshold=-0.3290953621578 1.0000000180025095e-35 0.62393046971537391
decision_type=2 2 2
left_child=-1 2 -2
right_child=1 -3 -4
leaf_value=0.016470567929714412 -0.025177444504405226 0 -0.00058067586944356825
leaf_weight=9.7123198509216326 7.143667936325075 5.1268517673015586 4.199569508433342
leaf_count=45 36 24 22
internal_value=0 -0.0171468 -0.0223249
internal_weight=0 16.4701 11.3432
internal_count=127 82 58
is_linear=0
shrinkage=0.0451923


Tree=72
num_leaves=3
num_cat=0
split_feature=41 46
split_gain=3.22487 2.40217
threshold=-0.88082329430745376 1.0000000180025095e-35
decision_type=2 2
left_child=-1 -2
right_child=1 -3
leaf_value=0.015451667162061781 -0.019985576258688676 0.0034543927972637903
leaf_weight=5.1266419440507915 10.718405798077585 7.8021930605173102
leaf_count=25 58 34
internal_value=0 -0.0108012
internal_weight=0 18.5206
internal_count=117 92
is_linear=0
shrinkage=0.0451923


Tree=73
num_leaves=3
num_cat=0
split_feature=40 41
split_gain=3.88841 0.174752
threshold=0.070296750088342241 -0.88082329430745376
decision_type=2 2
left_child=1 -1
right_child=-2 -3
leaf_value=0.015261827933114548 -0.015954813283685886 0
leaf_weight=4.6098710894584656 11.022481247782705 7.8975921273231524
leaf_count=23 59 35
internal_value=0 0.0114649
internal_weight=0 12.5075
internal_count=117 58
is_linear=0
shrinkage=0.0451923


Tree=74
num_leaves=3
num_cat=0
split_feature=40 1
split_gain=3.74584 1.24149
threshold=0.070296750088342241 0.47682706172753059
decision_type=2 2
left_child=1 -1
right_child=-2 -3
leaf_value=0.017726736577889011 -0.015618462644651452 -0.0010287740882036244
leaf_weight=7.7215193957090396 10.949446216225622 4.7559870183467865
leaf_count=36 59 22
internal_value=0 0.0113342
internal_weight=0 12.4775
internal_count=117 58
is_linear=0
shrinkage=0.0451923


Tree=75
num_leaves=4
num_cat=0
split_feature=40 4 39
split_gain=3.98795 0.694014 0.385896
threshold=0.070296750088342241 -0.7116673828974911 0.94410783826245515
decision_type=2 2 2
left_child=1 -1 -2
right_child=2 -3 -4
leaf_value=0 -0.011255485737539692 0.022812869909996297 0
leaf_weight=4.9868324249982825 8.2008179128169996 9.2280896306037921 3.9550276994705191
leaf_count=23 47 43 18
internal_value=0 0.0186706 -0.00813267
internal_weight=0 14.2149 12.1558
internal_count=131 66 65
is_linear=0
shrinkage=0.0451923


Tree=76
num_leaves=3
num_cat=0
split_feature=47 10
split_gain=2.23763 0.872781
threshold=-0.82099154468753688 1.0000000180025095e-35
decision_type=2 2
left_child=-1 -2
right_child=1 -3
leaf_value=-0.0074938539072431825 0 0.017634670442154044
leaf_weight=6.9255054742097881 6.6718192994594583 12.699468538165092
leaf_count=39 33 59
internal_value=0 0.0132542
internal_weight=0 19.3713
internal_count=131 92
is_linear=0
shrinkage=0.0451923


Tree=77
num_leaves=5
num_cat=0
split_feature=40 47 37 37
split_gain=3.78978 0.654635 0.486474 0.00728972
threshold=0.070296750088342241 0.28549796058503546 -0.86685409710532002 0.72257138766362095
decision_type=2 2 2 2
left_child=2 3 -1 -2
right_child=1 -3 -4 -5
leaf_value=0 -0.014599179720716528 0.0003742681007303876 0.02204248727394335 0
leaf_weight=5.6087719202041617 3.6754320412874204 4.1034289002418509 8.5616051107645053 4.3432685881853104
leaf_count=28 22 21 38 22
internal_value=0 -0.00805904 0.0180643 -0.0125821
internal_weight=0 12.1221 14.1704 8.0187
internal_count=131 65 66 44
is_linear=0
shrinkage=0.0451923


Tree=78
num_leaves=5
num_cat=0
split_feature=41 36 36 11
split_gain=3.49238 0.663273 0.658586 0.488993
threshold=-0.3290953621578 1.0962495262286434 -0.35735979486981384 1.0000000180025095e-35
decision_type=2 2 2 2
left_child=2 3 -1 -2
right_child=1 -3 -4 -5
leaf_value=0 -0.017907758711757735 0 0.019994645995807272 0
leaf_weight=5.1734839826822281 8.024126663804056 3.8933308273553839 4.1896500438451785 4.5992125123739234
leaf_count=25 43 18 20 24
internal_value=0 -0.011081 0.0146724 -0.0143879
internal_weight=0 16.5167 9.36313 12.6233
internal_count=130 85 45 67
is_linear=0
shrinkage=0.0451923


Tree=79
num_leaves=4
num_cat=0
split_feature=3 39 36
split_gain=1.31945 1.04571 0.523539
threshold=-0.33847555601363966 -0.42388275193822422 -0.57880808988090693
decision_type=2 2 2
left_child=1 -1 -2
right_child=2 -3 -4
leaf_value=0.0018288494264357817 0 -0.01434819640005126 0.011500863198374496
leaf_weight=5.3916869014501572 3.8843210041522971 7.8335465192794818 8.6860587298870069
leaf_count=26 20 41 43
internal_value=0 -0.00793102 0.00770347
internal_weight=0 13.2252 12.5704
internal_count=130 67 63
is_linear=0
shrinkage=0.0451923


Tree=80
num_leaves=4
num_cat=0
split_feature=46 39 39
split_gain=0.907888 0.630144 0.145275
threshold=1.0000000180025095e-35 -0.83539211647013589 0.33240472882312716
decision_type=2 2 2
left_child=1 -1 -2
right_child=2 -3 -4
leaf_value=0.0017746870753926592 0.0094691840522122487 -0.010026543528808876 0
leaf_weight=4.1244725584983835 5.2308664172887802 11.830142334103583 4.5866212099790573
leaf_count=20 26 64 20
internal_value=0 -0.00586342 0.00723287
internal_weight=0 15.9546 9.81749
internal_count=130 84 46
is_linear=0
shrinkage=0.0451923


Tree=81
num_leaves=5
num_cat=0
split_feature=41 2 39 8
split_gain=2.68133 0.52695 0.0737442 0.00281811
threshold=-0.3290953621578 1.0000000180025095e-35 0.1933812948596432 1.0000000180025095e-35
decision_type=2 2 2 2
left_child=-1 2 -2 -3
right_child=1 3 -4 -5
leaf_value=0.017544579677398746 0.0034108468284966258 -0.010367879341174193 0 0
leaf_weight=10.418500870466234 4.93336321413517 4.9806485250592232 4.1422246396541595 3.9839196801185608
leaf_count=50 25 27 20 19
internal_value=0 -0.00406301 0.000847451 -0.00913876
internal_weight=0 18.0402 9.07559 8.96457
internal_count=141 91 45 46
is_linear=0
shrinkage=0.0451923


Tree=82
num_leaves=4
num_cat=0
split_feature=41 42 36
split_gain=2.57585 1.72843 0.126886
threshold=-0.3290953621578 1.0000000180025095e-35 -0.42549773179630385
decision_type=2 2 2
left_child=2 -2 -1
right_child=1 -3 -4
leaf_value=0.00057165171065879207 -0.013707774974196197 0.0055332082368889576 0.020942611360861344
leaf_weight=5.8056310415267944 9.0150125250220299 9.0079425275325775 4.5549007356166857
leaf_count=28 52 39 22
internal_value=0 -0.00400786 0.0171742
internal_weight=0 18.023 10.3605
internal_count=141 91 50
is_linear=0
shrinkage=0.0451923


Tree=83
num_leaves=4
num_cat=0
split_feature=46 8 1
split_gain=3.1557 0.428642 0.448789
threshold=1.0000000180025095e-35 1.0000000180025095e-35 0.37911017346117631
decision_type=2 2 2
left_child=1 2 -1
right_child=-2 -3 -4
leaf_value=-0.012888046155551752 0.017669497401761724 0.00031518046160397751 0
leaf_weight=6.5977024063467997 11.808222755789759 4.5550978332757941 5.3397446572780609
leaf_count=35 54 23 29
internal_value=0 -0.00566628 -0.00897343
internal_weight=0 16.4925 11.9374
internal_count=141 87 64
is_linear=0
shrinkage=0.0451923


Tree=84
num_leaves=3
num_cat=0
split_feature=41 46
split_gain=3.05138 1.8072
threshold=-0.88082329430745376 1.0000000180025095e-35
decision_type=2 2
left_child=-1 -2
right_child=1 -3
leaf_value=0.018498007361379798 -0.013968757131877101 0.0046671940946717587
leaf_weight=5.4026532769203213 14.292440384626389 8.9638842195272446
leaf_count=28 76 39
internal_value=0 -0.0062738
internal_weight=0 23.2563
internal_count=143 115
is_linear=0
shrinkage=0.0451923


Tree=85
num_leaves=4
num_cat=0
split_feature=41 42 41
split_gain=2.9339 1.95856 0.640216
threshold=-0.88082329430745376 1.0000000180025095e-35 0.15931952859763124
decision_type=2 2 2
left_child=-1 -2 -3
right_child=1 2 -4
leaf_value=0.018241530304523131 -0.015595140976561641 0.01028255668134379 -0.0019620864308605079
leaf_weight=5.3604538142681148 11.012685172259808 5.3882354348897934 6.7850169539451599
leaf_count=28 61 24 30
internal_value=0 -0.00606754 0.00368581
internal_weight=0 23.1859 12.1733
internal_count=143 115 54
is_linear=0
shrinkage=0.0451923


Tree=86
num_leaves=3
num_cat=0
split_feature=40 1
split_gain=5.4534 1.30963
threshold=-0.093736600523384686 -0.30490804440330371
decision_type=2 2
left_child=-1 -2
right_child=1 -3
leaf_value=0.017638010406633587 0.00062323151541628357 -0.018663288699199702
leaf_weight=13.095341160893442 4.6245973110198983 10.715583533048626
leaf_count=62 20 61
internal_value=0 -0.0131701
internal_weight=0 15.3402
internal_count=143 81
is_linear=0
shrinkage=0.0451923


Tree=87
num_leaves=4
num_cat=0
split_feature=41 3 47
split_gain=2.22703 0.829831 0.930751
threshold=-0.3290953621578 0.22792201870269696 1.0000000180025095e-35
decision_type=2 2 2
left_child=-1 2 -2
right_child=1 -3 -4
leaf_value=0.015139144884680085 -0.017313659934523412 0.0020640752112837525 0
leaf_weight=8.8247905671596545 4.9249885380268115 7.6871344298124304 5.0781223028898239
leaf_count=45 26 38 24
internal_value=0 -0.00507581 -0.0109961
internal_weight=0 17.6902 10.0031
internal_count=133 88 50
is_linear=0
shrinkage=0.0451923


Tree=88
num_leaves=4
num_cat=0
split_feature=38 1 11
split_gain=1.44861 1.13487 0.528132
threshold=-0.53438494994177688 -0.30490804440330371 1.0000000180025095e-35
decision_type=2 2 2
left_child=-1 -2 -3
right_child=1 2 -4
leaf_value=0.012944556540508306 0.0050328402481859625 -0.014303585972432505 0
leaf_weight=8.1696500927209872 7.0457351058721587 6.9429915100336039 4.2810017913579941
leaf_count=41 31 38 23
internal_value=0 -0.00332652 -0.0104211
internal_weight=0 18.2697 11.224
internal_count=133 92 61
is_linear=0
shrinkage=0.0451923


Tree=89
num_leaves=4
num_cat=0
split_feature=40 37 40
split_gain=4.2124 0.727344 0.273053
threshold=-0.093736600523384686 0.99321659404842511 0.29196344010418934
decision_type=2 2 2
left_child=-1 2 -2
right_child=1 -3 -4
leaf_value=0.017452630743511267 0 0 -0.017237167421047934
leaf_weight=11.989145562052729 4.5190453231334669 4.0315746366977683 5.8292122706770897
leaf_count=59 23 20 31
internal_value=0 -0.0101097 -0.0141277
internal_weight=0 14.3798 10.3483
internal_count=133 74 54
is_linear=0
shrinkage=0.0451923


Tree=90
num_leaves=3
num_cat=0
split_feature=43 3
split_gain=1.57376 0.438291
threshold=1.0000000180025095e-35 -0.33847555601363966
decision_type=2 2
left_child=1 -1
right_child=-2 -3
leaf_value=-0.008641274727909428 0.01266803325185722 0.00085700438635401277
leaf_weight=7.6713309958577156 11.696117132902145 6.2381902784109116
leaf_count=43 55 32
internal_value=0 -0.00401355
internal_weight=0 13.9095
internal_count=130 75
is_linear=0
shrinkage=0.0451923


Tree=91
num_leaves=3
num_cat=0
split_feature=40 39
split_gain=1.94073 0.949626
threshold=-0.27993662013669596 0.55484222316470111
decision_type=2 2
left_child=-1 -2
right_child=1 -3
leaf_value=0.014033858762309307 -0.011028077554885034 0.0036969101508365189
leaf_weight=10.745547413825991 9.4421358183026296 5.406340777873992
leaf_count=53 50 27
internal_value=0 -0.004651
internal_weight=0 14.8485
internal_count=130 77
is_linear=0
shrinkage=0.0451923


Tree=92
num_leaves=5
num_cat=0
split_feature=40 1 40 47
split_gain=1.87601 1.80334 0.128495 0.0467522
threshold=0.29196344010418934 0.18367639692846771 -0.59470331995919878 1.0000000180025095e-35
decision_type=2 2 2 2
left_child=1 -1 -3 -2
right_child=3 2 -4 -5
leaf_value=0.019932939574687895 -0.0087431507455196459 0.00033462229446602467 -0.0045366802368823622 0
leaf_weight=8.4852916151285225 4.4818446710705739 3.9616036862134951 4.3822121247649157 4.2135687097907066
leaf_count=40 25 20 23 22
internal_value=0 0.0113345 -0.000994164 -0.00728186
internal_weight=0 16.8291 8.34382 8.69541
internal_count=130 83 43 47
is_linear=0
shrinkage=0.0451923


Tree=93
num_leaves=4
num_cat=0
split_feature=43 38 47
split_gain=0.852522 0.646558 0.156417
threshold=1.0000000180025095e-35 -0.29996397215402015 0.28549796058503546
decision_type=2 2 2
left_child=2 -2 -1
right_child=1 -3 -4
leaf_value=-0.0092654829066330761 0.011046398276772864 -0.0011856771050891364 0
leaf_weight=10.371795184910296 5.0499776899814606 7.6119977533817291 4.0556607246398935
leaf_count=57 27 34 22
internal_value=0 0.00446284 -0.00758398
internal_weight=0 12.662 14.4275
internal_count=140 61 79
is_linear=0
shrinkage=0.0451923


Tree=94
num_leaves=4
num_cat=0
split_feature=39 42 39
split_gain=1.71556 0.776725 0.0108549
threshold=-0.83539211647013589 1.0000000180025095e-35 0.13221098391571046
decision_type=2 2 2
left_child=-1 -2 -3
right_child=1 2 -4
leaf_value=0.010368795408041663 -0.013019209115094148 0 0.0012299348817507768
leaf_weight=6.2173098176717785 11.410401754081249 3.9039976000785828 5.5183842778205872
leaf_count=32 64 20 24
internal_value=0 -0.00795473 0
internal_weight=0 20.8328 9.42238
internal_count=140 108 44
is_linear=0
shrinkage=0.0451923


Tree=95
num_leaves=4
num_cat=0
split_feature=42 9 37
split_gain=0.926991 0.299437 0.0862425
threshold=1.0000000180025095e-35 1.0000000180025095e-35 -0.67986286360309178
decision_type=2 2 2
left_child=2 -2 -1
right_child=1 -3 -4
leaf_value=0 0.0077821850487163127 0 -0.0093568731314726192
leaf_weight=4.4322858005762109 9.1255338191986066 4.1616130173206338 9.264817647635935
leaf_count=21 45 19 55
internal_value=0 0.00469578 -0.00792734
internal_weight=0 13.2871 13.6971
internal_count=140 64 76
is_linear=0
shrinkage=0.0451923


Tree=96
num_leaves=4
num_cat=0
split_feature=40 37 40
split_gain=1.49661 1.53586 1.58209
threshold=-0.73878666846949936 0.043497960734475885 0.42496345411369751
decision_type=2 2 2
left_child=-1 -2 -3
right_child=1 2 -4
leaf_value=0.011991928837174386 -0.014872416951575594 0.014460211609939436 -0.0059444172904171352
leaf_weight=5.4849577397108105 8.6354291290044802 4.3104579672217351 7.2489539235830307
leaf_count=29 40 21 38
internal_value=0 -0.0057027 0.00277716
internal_weight=0 20.1948 11.5594
internal_count=128 99 59
is_linear=0
shrinkage=0.0451923


Tree=97
num_leaves=4
num_cat=0
split_feature=46 3 37
split_gain=1.3586 1.55164 0.0819674
threshold=1.0000000180025095e-35 -0.33847555601363966 -0.51993615073934385
decision_type=2 2 2
left_child=2 -2 -1
right_child=1 -3 -4
leaf_value=0 -0.0028270802322555495 0.018168455544060182 -0.0081733514991964035
leaf_weight=4.8491485565900811 5.1955939531326294 5.0498032420873642 10.528048127889631
leaf_count=24 24 23 57
internal_value=0 0.00916615 -0.00683814
internal_weight=0 10.2454 15.3772
internal_count=128 47 81
is_linear=0
shrinkage=0.0451923


Tree=98
num_leaves=5
num_cat=0
split_feature=41 39 39 6
split_gain=0.60242 0.684548 0.846201 0.100274
threshold=-0.3290953621578 0.99415627448930921 0.46586722542807135 1.0000000180025095e-35
decision_type=2 2 2 2
left_child=-1 2 3 -2
right_child=1 -3 -4 -5
leaf_value=0.0066123100443818781 0.0033781155779103165 0.0033126132457433886 -0.016341741612363771 -0.0019598215235505541
leaf_weight=8.7536765933036822 4.1571215838193911 4.2862926125526419 3.6964284479618064 4.6850131154060364
leaf_count=43 21 20 20 24
internal_value=0 -0.00415466 -0.00885325 0
internal_weight=0 16.8249 12.5386 8.84213
internal_count=128 85 65 45
is_linear=0
shrinkage=0.0451923


Tree=99
num_leaves=3
num_cat=0
split_feature=46 8
split_gain=1.32859 0.539569
threshold=1.0000000180025095e-35 1.0000000180025095e-35
decision_type=2 2
left_child=1 -1
right_child=-2 -3
leaf_value=-0.0081298984717080996 0.011675007352767702 0.0025099009498916387
leaf_weight=11.035176061093805 10.51311020553112 4.8351075798273095
leaf_count=61 50 25
internal_value=0 -0.00357331
internal_weight=0 15.8703
internal_count=136 86
is_linear=0
shrinkage=0.0451923


Tree=100
num_leaves=4
num_cat=0
split_feature=39 36 43
split_gain=1.569 1.0841 0.241206
threshold=0.46586722542807135 -0.38007244051197703 1.0000000180025095e-35
decision_type=2 2 2
left_child=1 2 -1
right_child=-2 -3 -4
leaf_value=-0.0048854937181043532 -0.0074688919654620038 0.016542786518198148 0.0032685907281016354
leaf_weight=5.0522505342960393 7.8196227550506583 8.2046061903238297 5.2739152014255524
leaf_count=28 39 43 26
internal_value=0 0.00956562 0
internal_weight=0 18.5308 10.3262
internal_count=136 97 54
is_linear=0
shrinkage=0.0451923


Tree=101
num_leaves=5
num_cat=0
split_feature=42 36 37 36
split_gain=1.18541 0.367547 0.339461 0.093413
threshold=1.0000000180025095e-35 -0.82864719194470393 -0.51993615073934385 1.0000000180025095e-35
decision_type=2 2 2 2
left_child=2 -2 -1 -4
right_child=1 -3 3 -5
leaf_value=0.00042039382439501202 0 0.012481938138247507 0 -0.0098927990674385329
leaf_weight=3.6421734988689431 4.1842218339443216 10.130211904644964 4.1513276249170286 4.2247115448117256
leaf_count=18 20 48 25 25
internal_value=0 0.00979753 -0.00448659 -0.00798591
internal_weight=0 14.3144 12.0182 8.37604
internal_count=136 68 68 50
is_linear=0
shrinkage=0.0451923


Tree=102
num_leaves=5
num_cat=0
split_feature=41 16 37 37
split_gain=2.25019 0.442673 0.260698 0.00302737
threshold=-0.88082329430745376 1.0000000180025095e-35 -0.33540532820425012 0.59955083930689179
decision_type=2 2 2 2
left_child=-1 2 -2 -4
right_child=1 -3 3 -5
leaf_value=0.011774022301073144 -0.017901009748370784 0 0 -0.0012672606495323032
leaf_weight=4.4704105108976391 4.4949972927570387 4.5429456681013098 4.6109988093376124 5.3806450963020325
leaf_count=25 21 21 26 29
internal_value=0 -0.010232 -0.012771 -0.00094636
internal_weight=0 19.0296 14.4866 9.99164
internal_count=122 97 76 55
is_linear=0
shrinkage=0.0451923


Tree=103
num_leaves=3
num_cat=0
split_feature=1 3
split_gain=1.60612 0.681924
threshold=-0.30490804440330371 -0.33847555601363966
decision_type=2 2
left_child=-1 -2
right_child=1 -3
leaf_value=0.00761980283552742 -0.014620444010796924 0
leaf_weight=7.4741022735834148 9.2947402745485306 6.6962638944387409
leaf_count=36 49 37
internal_value=0 -0.0100682
internal_weight=0 15.991
internal_count=122 86
is_linear=0
shrinkage=0.0451923


Tree=104
num_leaves=3
num_cat=0
split_feature=41 1
split_gain=2.18025 1.72072
threshold=-0.88082329430745376 -0.30490804440330371
decision_type=2 2
left_child=-1 -2
right_child=1 -3
leaf_value=0.011668005932792203 0.0031404873247170739 -0.016754242484966948
leaf_weight=4.4514146447181728 6.1074490845203462 12.878527194261546
leaf_count=25 27 70
internal_value=0 -0.0100063
internal_weight=0 18.986
internal_count=122 97
is_linear=0
shrinkage=0.0451923


Tree=105
num_leaves=4
num_cat=0
split_feature=1 1 1
split_gain=0.624294 0.299522 0.284986
threshold=0.08595950866211341 0.96541150305930212 -0.89120937400142941
decision_type=2 2 2
left_child=2 -2 -1
right_child=1 -3 -4
leaf_value=0 -0.008829536830152444 0 0.0074164264475136818
leaf_weight=4.9407004714012146 10.620950810611246 3.7490997314453116 7.9340364784002322
leaf_count=23 58 20 39
internal_value=0 -0.00628518 0.00402677
internal_weight=0 14.3701 12.8747
internal_count=140 78 62
is_linear=0
shrinkage=0.0451923


Tree=106
num_leaves=5
num_cat=0
split_feature=41 36 43 38
split_gain=2.05598 1.20709 0.185224 0.0846051
threshold=-0.3290953621578 0.9713299751967448 1.0000000180025095e-35 -0.69985858132136969
decision_type=2 2 2 2
left_child=3 2 -2 -1
right_child=1 -3 -4 -5
leaf_value=0 -0.017912181533535017 0.002663708531324192 -0.00016145621773740499 0.012577903930833845
leaf_weight=5.435835599899292 6.5381674170494097 4.3861750960350028 6.7417448163032532 4.1287788599729556
leaf_count=28 41 20 31 20
internal_value=0 -0.00922719 -0.0144047 0.0101479
internal_weight=0 17.6661 13.2799 9.56461
internal_count=140 92 72 48
is_linear=0
shrinkage=0.0451923


Tree=107
num_leaves=3
num_cat=0
split_feature=40 47
split_gain=2.63967 0.58659
threshold=0.29196344010418934 -0.82099154468753688
decision_type=2 2
left_child=1 -1
right_child=-2 -3
leaf_value=0 -0.013960132826111573 0.011563954920111759
leaf_weight=4.8279168233275458 9.9140265062451345 12.422670625150204
leaf_count=26 54 60
internal_value=0 0.00799107
internal_weight=0 17.2506
internal_count=140 86
is_linear=0
shrinkage=0.0451923


Tree=108
num_leaves=4
num_cat=0
split_feature=40 42 37
split_gain=1.97013 0.979765 0.260456
threshold=0.29196344010418934 1.0000000180025095e-35 0.83082947021754283
decision_type=2 2 2
left_child=1 -1 -2
right_child=2 -3 -4
leaf_value=0 -0.012106937329279154 0.017139385452037314 0
leaf_weight=7.9792946130037326 3.6028877794742575 7.4388910233974457 4.0401891767978668
leaf_count=41 20 37 22
internal_value=0 0.0108078 -0.00892101
internal_weight=0 15.4182 7.64308
internal_count=120 78 42
is_linear=0
shrinkage=0.0451923


Tree=109
num_leaves=4
num_cat=0
split_feature=40 47 37
split_gain=1.90313 0.553727 0.254931
threshold=0.29196344010418934 0.83874271322132177 0.83082947021754283
decision_type=2 2 2
left_child=1 -1 -2
right_child=2 -3 -4
leaf_value=0.014283687694795497 -0.01196940916404352 0 0
leaf_weight=9.87320274859667 3.5849819779396048 5.5237213298678389 4.0401891767978668
leaf_count=52 20 26 22
internal_value=0 0.0105826 -0.00881323
internal_weight=0 15.3969 7.62517
internal_count=120 78 42
is_linear=0
shrinkage=0.0451923


Tree=110
num_leaves=5
num_cat=0
split_feature=6 36 36 36
split_gain=0.403573 0.242536 0.172546 0.0125937
threshold=1.0000000180025095e-35 -0.50499199154387575 0.91454836109133619 -0.35735979486981384
decision_type=2 2 2 2
left_child=3 -2 -3 -1
right_child=1 2 -4 -5
leaf_value=0 0.0024557686109290908 -0.0070591113368733589 0 0.0085468321021314082
leaf_weight=3.6687327921390533 4.3277053087949762 6.5734823495149595 4.1729764342308044 4.2403610721230516
leaf_count=19 22 36 19 24
internal_value=0 -0.000821087 -0.0046529 0.00747111
internal_weight=0 15.0742 10.7465 7.90909
internal_count=120 77 55 43
is_linear=0
shrinkage=0.0451923


Tree=111
num_leaves=3
num_cat=0
split_feature=40 36
split_gain=1.73442 2.21055
threshold=0.29196344010418934 -0.35735979486981384
decision_type=2 2
left_child=1 -1
right_child=-2 -3
leaf_value=-0.0038215530306459499 -0.0098026976144969333 0.018085474559621385
leaf_weight=9.3263426274061221 8.806438133120535 9.4080918282270449
leaf_count=47 50 47
internal_value=0 0.00808237
internal_weight=0 18.7344
internal_count=144 94
is_linear=0
shrinkage=0.0451923


Tree=112
num_leaves=5
num_cat=0
split_feature=46 3 39 39
split_gain=0.614113 1.08185 0.568763 0.0347581
threshold=1.0000000180025095e-35 -0.33847555601363966 -1.1023171096800246 0.55484222316470111
decision_type=2 2 2 2
left_child=2 -2 -1 -4
right_child=1 -3 3 -5
leaf_value=0.0034109016704312873 -0.0021495093014850327 0.014925281933363111 -0.0085036051504266217 0
leaf_weight=3.694526985287669 5.5599195063114166 4.7610906511545199 10.013559512794016 3.476674146950244
leaf_count=19 26 24 55 20
internal_value=0 0.00700333 -0.0033843 -0.00761993
internal_weight=0 10.321 17.1848 13.4902
internal_count=144 50 94 75
is_linear=0
shrinkage=0.0451923


Tree=113
num_leaves=5
num_cat=0
split_feature=41 36 46 9
split_gain=1.89259 1.46362 0.641747 0.318103
threshold=-0.3290953621578 1.0053989436599899 1.0000000180025095e-35 -1.0000000180025095e-35
decision_type=2 2 2 2
left_child=3 2 -2 -1
right_child=1 -3 -4 -5
leaf_value=0.014886671514955986 -0.016786107629072716 0.0059475519223956708 0 0
leaf_weight=5.9215824007987976 8.7056698650121707 3.6426600441336623 5.3163144439458838 3.8815337866544741
leaf_count=33 52 17 24 18
internal_value=0 -0.00663451 -0.0126687 0.0119119
internal_weight=0 17.6646 14.022 9.80312
internal_count=144 93 76 51
is_linear=0
shrinkage=0.0451923


Tree=114
num_leaves=5
num_cat=0
split_feature=46 27 1 1
split_gain=1.28684 1.01917 0.313877 0.136562
threshold=1.0000000180025095e-35 1.0000000180025095e-35 0.67226083826023919 1.0000000180025095e-35
decision_type=2 2 2 2
left_child=1 2 3 -1
right_child=-2 -3 -4 -5
leaf_value=0 0.010140861716332251 0.0043144823470808742 0 -0.015955957870802076
leaf_weight=3.8325772583484667 10.03488138318062 4.6559736132621756 4.2153690084815016 4.2780222520232201
leaf_count=20 47 25 24 25
internal_value=0 -0.0050671 -0.0107826 -0.0134851
internal_weight=0 16.9819 12.326 8.1106
internal_count=141 94 69 45
is_linear=0
shrinkage=0.0451923


Tree=115
num_leaves=4
num_cat=0
split_feature=46 8 38
split_gain=1.23277 1.02127 0.0942144
threshold=1.0000000180025095e-35 1.0000000180025095e-35 -0.44934988937170822
decision_type=2 2 2
left_child=1 2 -1
right_child=-2 -3 -4
leaf_value=0 0.0099022137962820715 0.0039912600976700404 -0.013225745889347556
leaf_weight=5.2989809513092068 10.032551795244219 5.3881712779402724 6.276431329548358
leaf_count=26 47 28 40
internal_value=0 -0.00498757 -0.0109945
internal_weight=0 16.9636 11.5754
internal_count=141 94 66
is_linear=0
shrinkage=0.0451923


Tree=116
num_leaves=3
num_cat=0
split_feature=41 46
split_gain=1.53294 1.60523
threshold=-0.3290953621578 1.0000000180025095e-35
decision_type=2 2
left_child=-1 -2
right_child=1 -3
leaf_value=0.011732724093943924 -0.013326750549370651 0.0050881630128548367
leaf_weight=8.1810325160622615 11.135713443160059 7.6335378289222708
leaf_count=42 66 33
internal_value=0 -0.00520556
internal_weight=0 18.7693
internal_count=141 99
is_linear=0
shrinkage=0.0451923


Tree=117
num_leaves=5
num_cat=0
split_feature=39 1 39 46
split_gain=0.728664 1.2523 0.290614 0.103429
threshold=0.46586722542807135 0.57454394999388503 0.99415627448930921 1.0000000180025095e-35
decision_type=2 2 2 2
left_child=1 3 -2 -1
right_child=2 -3 -4 -5
leaf_value=0 -0.0079933906860117608 -0.003285195916302303 2.8438769086412399e-05 0.016880823007719589
leaf_weight=5.2245865389704722 3.8249432146549207 4.8628953248262397 4.3063075840473175 5.2782944515347481
leaf_count=30 21 27 22 28
internal_value=0 0.00779806 -0.00368636 0.0140855
internal_weight=0 15.3658 8.13125 10.5029
internal_count=128 85 43 58
is_linear=0
shrinkage=0.0451923


Tree=118
num_leaves=5
num_cat=0
split_feature=40 36 47 39
split_gain=0.936608 0.592351 0.364529 0.267081
threshold=-0.093736600523384686 -0.35735979486981384 0.28549796058503546 0.37689222769144176
decision_type=2 2 2 2
left_child=1 -1 3 -2
right_child=2 -3 -4 -5
leaf_value=0 0 0.015087404079479587 0.001593242408883723 -0.010152713304164323
leaf_weight=5.3562290072441101 3.9984553605318052 4.692740738391878 4.4263290837407103 4.9943773597478867
leaf_count=28 24 24 25 27
internal_value=0 0.0100511 -0.00298571 -0.0070892
internal_weight=0 10.049 13.4192 8.99283
internal_count=128 52 76 51
is_linear=0
shrinkage=0.0451923


Tree=119
num_leaves=5
num_cat=0
split_feature=43 36 36 36
split_gain=0.577198 0.614853 0.169954 0.0974573
threshold=1.0000000180025095e-35 -0.24379656665899679 0.31266325157400637 0.67038742043807975
decision_type=2 2 2 2
left_child=1 -1 -2 -3
right_child=2 3 -4 -5
leaf_value=-0.0090465680860458298 0.010270394107311974 0.0053342297817897538 0 0
leaf_weight=5.1989413276314735 6.7168244421482086 3.3552865758538246 4.4532699584960938 3.7131298407912254
leaf_count=30 34 21 21 22
internal_value=0 -0.00185825 0.00807814 0.00310673
internal_weight=0 12.2674 11.1701 7.06842
internal_count=128 73 55 43
is_linear=0
shrinkage=0.0451923


Tree=120
num_leaves=3
num_cat=0
split_feature=41 36
split_gain=2.23396 1.42523
threshold=-0.3290953621578 1.0053989436599899
decision_type=2 2
left_child=-1 -2
right_child=1 -3
leaf_value=0.011893672205998249 -0.015455584984922572 0.0038251957546538182
leaf_weight=6.9863798394799259 11.830940119922159 3.4815201908349982
leaf_count=39 68 17
internal_value=0 -0.0096621
internal_weight=0 15.3125
internal_count=124 85
is_linear=0
shrinkage=0.0451923


Tree=121
num_leaves=4
num_cat=0
split_feature=36 42 37
split_gain=0.844002 0.201161 0.132991
threshold=-0.35735979486981384 1.0000000180025095e-35 0.043497960734475885
decision_type=2 2 2
left_child=-1 2 -2
right_child=1 -3 -4
leaf_value=-0.0084902890087895366 0.0028685791815640368 0.0075469476914594245 -0.0035490906337663488
leaf_weight=8.0988528057932871 3.2150399535894376 6.5274711921811104 4.3572989329695702
leaf_count=46 16 32 30
internal_value=0 0.00455135 0
internal_weight=0 14.0998 7.57234
internal_count=124 78 46
is_linear=0
shrinkage=0.0451923


Tree=122
num_leaves=3
num_cat=0
split_feature=41 37
split_gain=2.13193 0.664979
threshold=-0.3290953621578 0.33628686582349121
decision_type=2 2
left_child=-1 -2
right_child=1 -3
leaf_value=0.011731189643828467 -0.014157165435517175 0
leaf_weight=6.9613227769732502 8.3101036921143514 6.9162213057279578
leaf_count=39 46 39
internal_value=0 -0.0093693
internal_weight=0 15.2263
internal_count=124 85
is_linear=0
shrinkage=0.0451923


Tree=123
num_leaves=3
num_cat=0
split_feature=47 39
split_gain=0.868987 0.384864
threshold=0.28549796058503546 0.42694066391829577
decision_type=2 2
left_child=1 -1
right_child=-2 -3
leaf_value=0.00099507512696478785 0.0099798513289799263 -0.0078273116620480292
leaf_weight=8.6507833674550074 9.2011309564113599 5.9470753744244567
leaf_count=48 50 30
internal_value=0 -0.0025615
internal_weight=0 14.5979
internal_count=128 78
is_linear=0
shrinkage=0.0451923


Tree=124
num_leaves=5
num_cat=0
split_feature=47 39 1 1
split_gain=0.83034 0.373032 0.377365 0.0888633
threshold=0.28549796058503546 0.42694066391829577 0.47682706172753059 -0.20719115613694947
decision_type=2 2 2 2
left_child=1 2 -1 -2
right_child=3 -3 -4 -5
leaf_value=0.0069461348049456193 0.012340148675348769 -0.0076933314457769304 -0.0030155040688658271 0
leaf_weight=4.7237391546368617 3.5079580694437027 5.9365617036819449 3.9278186410665512 5.6979378908872587
leaf_count=26 18 30 22 32
internal_value=0 -0.00249036 0.000973162 0.00975096
internal_weight=0 14.5881 8.65156 9.2059
internal_count=128 78 48 50
is_linear=0
shrinkage=0.0451923


Tree=125
num_leaves=3
num_cat=0
split_feature=40 39
split_gain=3.08443 0.630522
threshold=-0.093736600523384686 0.99415627448930921
decision_type=2 2
left_child=-1 -2
right_child=1 -3
leaf_value=0.016248232197812316 -0.012480439834693697 0
leaf_weight=9.7159672379493731 8.8480060994625074 5.2147531136870375
leaf_count=50 53 25
internal_value=0 -0.00807728
internal_weight=0 14.0628
internal_count=128 78
is_linear=0
shrinkage=0.0451923


Tree=126
num_leaves=3
num_cat=0
split_feature=41 41
split_gain=1.16921 0.190804
threshold=-0.3290953621578 0.53467541686337949
decision_type=2 2
left_child=-1 -2
right_child=1 -3
leaf_value=0.0046611719177201876 -0.012531227953482313 0
leaf_weight=7.5477431938052204 10.198907740414144 6.4502490758895865
leaf_count=40 52 37
internal_value=0 -0.0101311
internal_weight=0 16.6492
internal_count=129 89
is_linear=0
shrinkage=0.0451923


Tree=127
num_leaves=4
num_cat=0
split_feature=16 4 3
split_gain=0.506996 0.292951 0.509246
threshold=1.0000000180025095e-35 -1.0000000180025095e-35 -0.33847555601363966
decision_type=2 2 2
left_child=1 -1 -3
right_child=-2 2 -4
leaf_value=-0.011377948989859414 0.0018914337180966261 -0.0059854182924264556 0.0059906287563156078
leaf_weight=7.600172974169257 5.8165607377886763 6.8052558526396787 3.9297216087579709
leaf_count=39 30 38 22
internal_value=0 -0.00755591 0
internal_weight=0 18.3352 10.735
internal_count=129 99 60
is_linear=0
shrinkage=0.0451923


Tree=128
num_leaves=5
num_cat=0
split_feature=41 38 41 38
split_gain=1.11778 1.22197 0.411202 0.0825494
threshold=-0.3290953621578 0.36652704312489587 0.89646422483036547 -0.90899886542613306
decision_type=2 2 2 2
left_child=3 -2 -3 -1
right_child=1 2 -4 -5
leaf_value=0 -0.016580930901072346 0.0072944772497960317 -0.0035149696471873464 0.0063970574331103864
leaf_weight=3.8010339438915253 8.9368356913328189 3.6653807312250128 3.9865449592471123 3.7402941137552288
leaf_count=21 47 20 22 19
internal_value=0 -0.00981206 0.000457882 0.00463543
internal_weight=0 16.5888 7.65193 7.54133
internal_count=129 89 42 40
is_linear=0
shrinkage=0.0451923


Tree=129
num_leaves=3
num_cat=0
split_feature=8 39
split_gain=0.497722 0.207032
threshold=1.0000000180025095e-35 0.99415627448930921
decision_type=2 2
left_child=1 -1
right_child=-2 -3
leaf_value=-0.0077572411996707528 0.0034136530923573757 0
leaf_weight=12.815666131675245 8.2660187780857104 4.0245640128850928
leaf_count=72 43 20
internal_value=0 -0.00588005
internal_weight=0 16.8402
internal_count=135 92
is_linear=0
shrinkage=0.0451923


Tree=130
num_leaves=4
num_cat=0
split_feature=42 40 4
split_gain=0.741107 0.884234 0.338243
threshold=1.0000000180025095e-35 -0.50603664395285997 -0.7116673828974911
decision_type=2 2 2
left_child=1 -1 -2
right_child=2 -3 -4
leaf_value=0.0015062137709533636 -0.00033304663077086136 -0.013521531219017236 0.0078833450568074441
leaf_weight=4.6261231303215027 6.3258271440863609 7.7424549534916878 6.406170055270195
leaf_count=23 31 49 32
internal_value=0 -0.00780892 0.00355808
internal_weight=0 12.3686 12.732
internal_count=135 72 63
is_linear=0
shrinkage=0.0451923


Tree=131
num_leaves=3
num_cat=0
split_feature=43 3
split_gain=1.37839 0.0502707
threshold=1.0000000180025095e-35 -0.33847555601363966
decision_type=2 2
left_child=-1 -2
right_child=1 -3
leaf_value=-0.0097999165735413556 0 0.0073831832799841415
leaf_weight=12.886034429073334 5.3110057562589645 6.8440377339720726
leaf_count=75 25 35
internal_value=0 0.00600767
internal_weight=0 12.155
internal_count=135 60
is_linear=0
shrinkage=0.0451923


Tree=132
num_leaves=3
num_cat=0
split_feature=46 37
split_gain=1.72686 0.0587861
threshold=1.0000000180025095e-35 0.090245769110032778
decision_type=2 2
left_child=-1 -2
right_child=1 -3
leaf_value=-0.0095245857100293655 0 0.01027368010249452
leaf_weight=14.338842980563641 4.2808951213955879 5.3669957742094994
leaf_count=83 23 24
internal_value=0 0.00866622
internal_weight=0 9.64789
internal_count=130 47
is_linear=0
shrinkage=0.0451923


Tree=133
num_leaves=4
num_cat=0
split_feature=46 40 37
split_gain=1.65242 0.914003 0.0548436
threshold=1.0000000180025095e-35 -0.27993662013669596 0.090245769110032778
decision_type=2 2 2
left_child=1 -1 -2
right_child=2 -3 -4
leaf_value=0.00027955630587034384 0 -0.014862776895481839 0.010098579946287873
leaf_weight=5.8701369315385827 4.2808951213955879 8.437011890113352 5.3716196864843369
leaf_count=29 23 54 24
internal_value=0 -0.00927449 0.00853141
internal_weight=0 14.3071 9.65251
internal_count=130 83 47
is_linear=0
shrinkage=0.0451923


Tree=134
num_leaves=3
num_cat=0
split_feature=40 39
split_gain=1.19568 1.11042
threshold=-0.27993662013669596 0.99415627448930921
decision_type=2 2
left_child=-1 -2
right_child=1 -3
leaf_value=0.0075811559320259564 -0.013497168437396907 0.0027961134966388297
leaf_weight=8.4938632622361201 10.590287625789641 4.8173271194100371
leaf_count=45 61 24
internal_value=0 -0.00764625
internal_weight=0 15.4076
internal_count=130 85
is_linear=0
shrinkage=0.0451923


Tree=135
num_leaves=5
num_cat=0
split_feature=41 38 36 39
split_gain=1.61172 0.787477 0.413689 0.266994
threshold=-0.3290953621578 0.36652704312489587 0.35241038144779241 0.46586722542807135
decision_type=2 2 2 2
left_child=-1 2 -2 -3
right_child=1 3 -4 -5
leaf_value=0.0092322567769299139 -0.016834054410508104 0.0056131841159453143 0 -0.0031195924015308021
leaf_weight=8.6735382601618785 5.7996152117848414 4.0188565999269468 3.579118900001049 4.3021877408027649
leaf_count=47 33 22 18 24
internal_value=0 -0.00814318 -0.0135268 0
internal_weight=0 17.6998 9.37873 8.32104
internal_count=144 97 51 46
is_linear=0
shrinkage=0.0451923


Tree=136
num_leaves=3
num_cat=0
split_feature=40 36
split_gain=2.87202 1.03115
threshold=0.29196344010418934 -0.35735979486981384
decision_type=2 2
left_child=1 -1
right_child=-2 -3
leaf_value=-0.001054596621957061 -0.014739254318826061 0.014272106077382846
leaf_weight=6.7471991181373623 9.3911892101168615 10.178947120904924
leaf_count=37 54 53
internal_value=0 0.00841637
internal_weight=0 16.9261
internal_count=144 90
is_linear=0
shrinkage=0.0451923


Tree=137
num_leaves=5
num_cat=0
split_feature=1 39 1 1
split_gain=1.39031 0.380859 0.261981 0.12578
threshold=0.08595950866211341 -0.83539211647013589 -0.89120937400142941 -0.30490804440330371
decision_type=2 2 2 2
left_child=2 -2 -1 -4
right_child=1 -3 3 -5
leaf_value=0 0 -0.011881717061777335 0.011538359251558394 0
leaf_weight=4.4274854734539977 3.3921772539615622 9.5422896817326528 4.2176467627286902 4.6829103305935886
leaf_count=22 18 59 20 25
internal_value=0 -0.00917798 0.00662497 0.00918299
internal_weight=0 12.9345 13.328 8.90056
internal_count=144 77 67 45
is_linear=0
shrinkage=0.0451923


Tree=138
num_leaves=5
num_cat=0
split_feature=3 10 9 4
split_gain=0.505897 1.17504 0.684505 0.464015
threshold=-0.33847555601363966 1.0000000180025095e-35 1.0000000180025095e-35 -0.7116673828974911
decision_type=2 2 2 2
left_child=2 3 -1 -2
right_child=1 -3 -4 -5
leaf_value=0.0017164895426550939 -0.008643203533361116 0.014257563025322884 -0.010678531915358712 0.0024005928485533816
leaf_weight=7.7032056823372859 4.2397258281707764 5.2522414475679398 6.053426519036293 3.475821912288664
leaf_count=40 24 25 34 21
internal_value=0 0.00542034 -0.00409436 -0.00271585
internal_weight=0 12.9678 13.7566 7.71555
internal_count=144 70 74 45
is_linear=0
shrinkage=0.0451923


Tree=139
num_leaves=5
num_cat=0
split_feature=41 1 3 1
split_gain=1.24626 1.5495 0.361616 0.305292
threshold=-0.88082329430745376 0.08595950866211341 0.22792201870269696 -0.89120937400142941
decision_type=2 2 2 2
left_child=-1 3 -3 -2
right_child=1 2 -4 -5
leaf_value=0.011458486366644692 -3.9640159386725098e-05 -0.016707966857735141 0 0.0078644008322305125
leaf_weight=5.3623600825667408 4.4575175121426582 5.9425124451518041 4.5790740177035332 6.3647200390696543
leaf_count=31 20 35 27 31
internal_value=0 -0.00458794 -0.0132877 0.00409847
internal_weight=0 21.3438 10.5216 10.8222
internal_count=144 113 62 51
is_linear=0
shrinkage=0.0451923


Tree=140
num_leaves=3
num_cat=0
split_feature=40 3
split_gain=1.1974 0.783702
threshold=-0.27993662013669596 1.0000000180025095e-35
decision_type=2 2
left_child=-1 -2
right_child=1 -3
leaf_value=0.0090891933480400262 -0.011387418306610936 0.0015152751746310151
leaf_weight=10.057791076600553 9.5502980947494525 7.0377446487545958
leaf_count=54 51 39
internal_value=0 -0.00578115
internal_weight=0 16.588
internal_count=144 90
is_linear=0
shrinkage=0.0451923


Tree=141
num_leaves=4
num_cat=0
split_feature=42 39 39
split_gain=1.55673 0.892155 0.780951
threshold=1.0000000180025095e-35 0.46586722542807135 -0.49061400024069646
decision_type=2 2 2
left_child=2 -2 -1
right_child=1 -3 -4
leaf_value=0.0032047467920616407 0.017429774749398701 0 -0.010945752170517246
leaf_weight=3.9415877163410187 8.0378255024552328 4.1868180334568033 6.4493144527077675
leaf_count=22 43 19 45
internal_value=0 0.0126077 -0.00456372
internal_weight=0 12.2246 10.3909
internal_count=129 62 67
is_linear=0
shrinkage=0.0451923


Tree=142
num_leaves=4
num_cat=0
split_feature=42 40 40
split_gain=1.48508 0.623796 0.483989
threshold=1.0000000180025095e-35 0.36289678090926042 -0.55258664885618769
decision_type=2 2 2
left_child=2 -2 -1
right_child=1 -3 -4
leaf_value=0.001602212263914206 0.016413613975239688 0 -0.0091563866663220399
leaf_weight=3.5095548778772354 7.6203809455037117 4.5872274041175842 6.8454678580164909
leaf_count=18 40 22 49
internal_value=0 0.0123215 -0.00443816
internal_weight=0 12.2076 10.355
internal_count=129 62 67
is_linear=0
shrinkage=0.0451923


Tree=143
num_leaves=3
num_cat=0
split_feature=40 46
split_gain=1.1834 0.273176
threshold=0.070296750088342241 1.0000000180025095e-35
decision_type=2 2
left_child=-1 -2
right_child=1 -3
leaf_value=0.011272588497208608 -0.0071619431969396604 0.0002925768428039402
leaf_weight=12.383751437067987 6.5652566626667959 3.5486684963107109
leaf_count=65 48 16
internal_value=0 -0.00359342
internal_weight=0 10.1139
internal_count=129 64
is_linear=0
shrinkage=0.0451923


Tree=144
num_leaves=4
num_cat=0
split_feature=43 1 39
split_gain=1.60619 0.43754 0.0954384
threshold=1.0000000180025095e-35 0.28139328519482204 -0.61851555948710135
decision_type=2 2 2
left_child=2 -2 -1
right_child=1 -3 -4
leaf_value=0 0.012608486756204353 0 -0.010426955388907566
leaf_weight=3.5520491898059854 5.9829077571630478 4.6698910295963287 8.9394031688570958
leaf_count=21 32 24 57
internal_value=0 0.00873524 -0.0090473
internal_weight=0 10.6528 12.4915
internal_count=134 56 78
is_linear=0
shrinkage=0.0451923


Tree=145
num_leaves=4
num_cat=0
split_feature=41 42 41
split_gain=1.60066 2.40021 0.922501
threshold=-0.88082329430745376 1.0000000180025095e-35 0.15931952859763124
decision_type=2 2 2
left_child=-1 -2 -3
right_child=1 2 -4
leaf_value=0.012015032917751117 -0.017725657881482629 0.012870756792801277 -0.0028728245920973125
leaf_weight=4.6560396179556873 9.0076548159122467 4.4234892800450325 5.0103154331445694
leaf_count=29 60 22 23
internal_value=0 -0.0068073 0.00507895
internal_weight=0 18.4415 9.4338
internal_count=134 105 45
is_linear=0
shrinkage=0.0451923


Tree=146
num_leaves=4
num_cat=0
split_feature=41 42 41
split_gain=1.54005 2.31052 0.897957
threshold=-0.88082329430745376 1.0000000180025095e-35 0.15931952859763124
decision_type=2 2 2
left_child=-1 -2 -3
right_child=1 2 -4
leaf_value=0.011856110246237261 -0.017394675100644342 0.012681283485621678 -0.0028274345548745081
leaf_weight=4.6283203810453442 8.9396477937698364 4.423207201063633 5.0074283331632614
leaf_count=29 60 22 23
internal_value=0 -0.00663347 0.00497627
internal_weight=0 18.3703 9.43064
internal_count=134 105 45
is_linear=0
shrinkage=0.0451923


end of trees

feature_importances:
FVC_(%)_1_year_after_diagnosis=55
DLCO_(%)_1_year_after_diagnosis=53
Age_at_diagnosis=46
FVC_(L)_1_year_after_diagnosis=35
FVC_(L)_at_diagnosis=31
Type_of_family_history=28
Genetic_mutation_studied_in_patient=27
FVC_(%)_at_diagnosis=20
DLCO_(%)_at_diagnosis=19
1st_degree_relative=17
Final_diagnosis=16
Severity_of_telomere_shortening=15
Pirfenidone=9
TOBACCO=5
Prednisone=5
Nintedanib=4
Antifibrotic_Drug=3
More_than_1_relative=3
Pathology_Pattern_Binary=2
Blood_count_abnormality_at_diagnosis=2
Liver_abnormality=2
Sex=1
Binary_diagnosis=1
Comorbidities=1

parameters:
[boosting: gbdt]
[objective: binary]
[metric: binary_logloss]
[tree_learner: serial]
[device_type: cpu]
[data_sample_strategy: bagging]
[data: ]
[valid: ]
[num_iterations: 2000]
[learning_rate: 0.0451923]
[num_leaves: 92]
[num_threads: 0]
[seed: 0]
[deterministic: 0]
[force_col_wise: 0]
[force_row_wise: 0]
[histogram_pool_size: -1]
[max_depth: -1]
[min_data_in_leaf: 20]
[min_sum_hessian_in_leaf: 0.001]
[bagging_fraction: 0.710375]
[pos_bagging_fraction: 1]
[neg_bagging_fraction: 1]
[bagging_freq: 3]
[bagging_seed: 3]
[feature_fraction: 0.360555]
[feature_fraction_bynode: 1]
[feature_fraction_seed: 2]
[extra_trees: 0]
[extra_seed: 6]
[early_stopping_round: 0]
[early_stopping_min_delta: 0]
[first_metric_only: 0]
[max_delta_step: 0]
[lambda_l1: 0.875589]
[lambda_l2: 9.13683]
[linear_lambda: 0]
[min_gain_to_split: 0]
[drop_rate: 0.1]
[max_drop: 50]
[skip_drop: 0.5]
[xgboost_dart_mode: 0]
[uniform_drop: 0]
[drop_seed: 4]
[top_rate: 0.2]
[other_rate: 0.1]
[min_data_per_group: 100]
[max_cat_threshold: 32]
[cat_l2: 10]
[cat_smooth: 10]
[max_cat_to_onehot: 4]
[top_k: 20]
[monotone_constraints: ]
[monotone_constraints_method: basic]
[monotone_penalty: 0]
[feature_contri: ]
[forcedsplits_filename: ]
[refit_decay_rate: 0.9]
[cegb_tradeoff: 1]
[cegb_penalty_split: 0]
[cegb_penalty_feature_lazy: ]
[cegb_penalty_feature_coupled: ]
[path_smooth: 0]
[interaction_constraints: ]
[verbosity: 1]
[saved_feature_importance_type: 0]
[use_quantized_grad: 0]
[num_grad_quant_bins: 4]
[quant_train_renew_leaf: 0]
[stochastic_rounding: 1]
[linear_tree: 0]
[max_bin: 255]
[max_bin_by_feature: ]
[min_data_in_bin: 3]
[bin_construct_sample_cnt: 200000]
[data_random_seed: 1]
[is_enable_sparse: 1]
[enable_bundle: 1]
[use_missing: 1]
[zero_as_missing: 0]
[feature_pre_filter: 1]
[pre_partition: 0]
[two_round: 0]
[header: 0]
[label_column: ]
[weight_column: ]
[group_column: ]
[ignore_column: ]
[categorical_feature: ]
[forcedbins_filename: ]
[precise_float_parser: 0]
[parser_config_file: ]
[objective_seed: 5]
[num_class: 1]
[is_unbalance: 0]
[scale_pos_weight: 1]
[sigmoid: 1]
[boost_from_average: 1]
[reg_sqrt: 0]
[alpha: 0.9]
[fair_c: 1]
[poisson_max_delta_step: 0.7]
[tweedie_variance_power: 1.5]
[lambdarank_truncation_level: 30]
[lambdarank_norm: 1]
[label_gain: ]
[lambdarank_position_bias_regularization: 0]
[eval_at: ]
[multi_error_top_k: 1]
[auc_mu_weights: ]
[num_machines: 1]
[local_listen_port: 12400]
[time_out: 120]
[machine_list_filename: ]
[machines: ]
[gpu_platform_id: -1]
[gpu_device_id: -1]
[gpu_use_dp: 0]
[num_gpu: 1]

end of parameters

pandas_categorical:[]
